<?xml version="1.0"?>
<opencv_storage>
<stage2>
  <maxWeakCount>9</maxWeakCount>
  <stageThreshold>-1.2695126533508301e+00</stageThreshold>
  <weakClassifiers>
    <_>
      <internalNodes>
        0 -1 288128 -2.2247966378927231e-02</internalNodes>
      <leafValues>
        5.5778896808624268e-01 -4.7368422150611877e-01</leafValues></_>
    <_>
      <internalNodes>
        0 -1 749301 5.5306041613221169e-03</internalNodes>
      <leafValues>
        -3.9453107118606567e-01 4.8547440767288208e-01</leafValues></_>
    <_>
      <internalNodes>
        0 -1 814657 1.1247340589761734e-02</internalNodes>
      <leafValues>
        -3.0979034304618835e-01 5.7756733894348145e-01</leafValues></_>
    <_>
      <internalNodes>
        0 -1 1259209 4.3329233303666115e-03</internalNodes>
      <leafValues>
        -2.3407185077667236e-01 7.2173935174942017e-01</leafValues></_>
    <_>
      <internalNodes>
        0 -1 326978 1.2487306958064437e-04</internalNodes>
      <leafValues>
        2.3692357540130615e-01 -8.6365437507629395e-01</leafValues></_>
    <_>
      <internalNodes>
        0 -1 326978 -1.2653309386223555e-04</internalNodes>
      <leafValues>
        -7.8240680694580078e-01 2.1264375746250153e-01</leafValues></_>
    <_>
      <internalNodes>
        0 -1 983093 3.0208793468773365e-03</internalNodes>
      <leafValues>
        -2.7650845050811768e-01 5.7648271322250366e-01</leafValues></_>
    <_>
      <internalNodes>
        0 -1 1296322 -1.9162791431881487e-04</internalNodes>
      <leafValues>
        -7.9113161563873291e-01 2.2164191305637360e-01</leafValues></_>
    <_>
      <internalNodes>
        0 -1 1189775 2.7912724763154984e-03</internalNodes>
      <leafValues>
        -2.4801816046237946e-01 7.4291461706161499e-01</leafValues></_></weakClassifiers></stage2>
</opencv_storage>
