<?xml version="1.0"?>
<opencv_storage>
<stage15>
  <maxWeakCount>15</maxWeakCount>
  <stageThreshold>-1.0383915901184082e+00</stageThreshold>
  <weakClassifiers>
    <_>
      <internalNodes>
        0 -1 540194 9.6296338597312570e-04</internalNodes>
      <leafValues>
        -4.1838648915290833e-01 3.3640551567077637e-01</leafValues></_>
    <_>
      <internalNodes>
        0 -1 351 2.0339023321866989e-02</internalNodes>
      <leafValues>
        -2.4393622577190399e-01 4.8602876067161560e-01</leafValues></_>
    <_>
      <internalNodes>
        0 -1 34796 -2.3940803948789835e-03</internalNodes>
      <leafValues>
        -6.0921216011047363e-01 1.3171701133251190e-01</leafValues></_>
    <_>
      <internalNodes>
        0 -1 1207881 1.0799430310726166e-03</internalNodes>
      <leafValues>
        -1.8740633130073547e-01 4.3829217553138733e-01</leafValues></_>
    <_>
      <internalNodes>
        0 -1 1232042 -4.3012545211240649e-04</internalNodes>
      <leafValues>
        -8.3469623327255249e-01 7.6383545994758606e-02</leafValues></_>
    <_>
      <internalNodes>
        0 -1 1250958 9.4153202371671796e-04</internalNodes>
      <leafValues>
        -1.9177475571632385e-01 4.9739339947700500e-01</leafValues></_>
    <_>
      <internalNodes>
        0 -1 606221 -1.1581029742956161e-02</internalNodes>
      <leafValues>
        4.9312132596969604e-01 -1.7425449192523956e-01</leafValues></_>
    <_>
      <internalNodes>
        0 -1 670690 -7.7513149008154869e-03</internalNodes>
      <leafValues>
        -6.4333933591842651e-01 1.5643689036369324e-01</leafValues></_>
    <_>
      <internalNodes>
        0 -1 37749 1.1103877332061529e-03</internalNodes>
      <leafValues>
        1.0559483617544174e-01 -7.1080839633941650e-01</leafValues></_>
    <_>
      <internalNodes>
        0 -1 1313621 2.1619126200675964e-03</internalNodes>
      <leafValues>
        1.0211737453937531e-01 -7.9468184709548950e-01</leafValues></_>
    <_>
      <internalNodes>
        0 -1 537845 1.6022918280214071e-03</internalNodes>
      <leafValues>
        -2.2742094099521637e-01 4.2363861203193665e-01</leafValues></_>
    <_>
      <internalNodes>
        0 -1 986070 1.9179016351699829e-02</internalNodes>
      <leafValues>
        1.3114064931869507e-01 -6.2120687961578369e-01</leafValues></_>
    <_>
      <internalNodes>
        0 -1 450890 2.5718393735587597e-03</internalNodes>
      <leafValues>
        -1.7726700007915497e-01 5.4547971487045288e-01</leafValues></_>
    <_>
      <internalNodes>
        0 -1 1267699 1.1230008676648140e-03</internalNodes>
      <leafValues>
        -2.1285888552665710e-01 4.1416367888450623e-01</leafValues></_>
    <_>
      <internalNodes>
        0 -1 1251323 1.5010235831141472e-02</internalNodes>
      <leafValues>
        -1.7382514476776123e-01 5.3244012594223022e-01</leafValues></_></weakClassifiers></stage15>
</opencv_storage>
