<?xml version="1.0"?>
<opencv_storage>
<stage13>
  <maxWeakCount>15</maxWeakCount>
  <stageThreshold>-1.3592890501022339e+00</stageThreshold>
  <weakClassifiers>
    <_>
      <internalNodes>
        0 -1 1253698 7.4716852977871895e-03</internalNodes>
      <leafValues>
        -4.2775118350982666e-01 3.2307693362236023e-01</leafValues></_>
    <_>
      <internalNodes>
        0 -1 860606 9.7973307128995657e-04</internalNodes>
      <leafValues>
        -3.3149623870849609e-01 3.5294961929321289e-01</leafValues></_>
    <_>
      <internalNodes>
        0 -1 1256986 1.6878869384527206e-02</internalNodes>
      <leafValues>
        -1.8891040980815887e-01 5.4407417774200439e-01</leafValues></_>
    <_>
      <internalNodes>
        0 -1 288990 4.8769050044938922e-04</internalNodes>
      <leafValues>
        1.3478143513202667e-01 -7.5447469949722290e-01</leafValues></_>
    <_>
      <internalNodes>
        0 -1 1261324 3.3471695496700704e-04</internalNodes>
      <leafValues>
        1.2384857237339020e-01 -7.6078188419342041e-01</leafValues></_>
    <_>
      <internalNodes>
        0 -1 1211414 6.1474717222154140e-04</internalNodes>
      <leafValues>
        -2.5197738409042358e-01 3.5842439532279968e-01</leafValues></_>
    <_>
      <internalNodes>
        0 -1 1046336 3.6629973910748959e-03</internalNodes>
      <leafValues>
        -2.1756416559219360e-01 4.4792947173118591e-01</leafValues></_>
    <_>
      <internalNodes>
        0 -1 1022565 7.1537372423335910e-04</internalNodes>
      <leafValues>
        -1.9267313182353973e-01 4.6949779987335205e-01</leafValues></_>
    <_>
      <internalNodes>
        0 -1 867028 -5.6930491700768471e-03</internalNodes>
      <leafValues>
        6.6385328769683838e-01 -1.2132132053375244e-01</leafValues></_>
    <_>
      <internalNodes>
        0 -1 1022557 -5.4956367239356041e-04</internalNodes>
      <leafValues>
        4.4702503085136414e-01 -1.9124673306941986e-01</leafValues></_>
    <_>
      <internalNodes>
        0 -1 1195652 -2.7040438726544380e-04</internalNodes>
      <leafValues>
        -9.2721909284591675e-01 9.4260893762111664e-02</leafValues></_>
    <_>
      <internalNodes>
        0 -1 1293299 -1.2803887948393822e-03</internalNodes>
      <leafValues>
        3.7840288877487183e-01 -2.6935672760009766e-01</leafValues></_>
    <_>
      <internalNodes>
        0 -1 1250952 1.0811889078468084e-03</internalNodes>
      <leafValues>
        -1.4244364202022552e-01 5.5869883298873901e-01</leafValues></_>
    <_>
      <internalNodes>
        0 -1 1253386 6.7787719890475273e-03</internalNodes>
      <leafValues>
        -2.8451380133628845e-01 3.1332167983055115e-01</leafValues></_>
    <_>
      <internalNodes>
        0 -1 786907 2.7445468003861606e-04</internalNodes>
      <leafValues>
        1.2190008163452148e-01 -7.7240854501724243e-01</leafValues></_></weakClassifiers></stage13>
</opencv_storage>
