<?xml version="1.0"?>
<opencv_storage>
<stage2>
  <maxWeakCount>5</maxWeakCount>
  <stageThreshold>-1.4384132623672485e+00</stageThreshold>
  <weakClassifiers>
    <_>
      <internalNodes>
        0 -1 168835 -5.0618901848793030e-02</internalNodes>
      <leafValues>
        7.7536231279373169e-01 -5.7182317972183228e-01</leafValues></_>
    <_>
      <internalNodes>
        0 -1 1216569 -5.2166348323225975e-03</internalNodes>
      <leafValues>
        6.8435001373291016e-01 -5.3262323141098022e-01</leafValues></_>
    <_>
      <internalNodes>
        0 -1 1262911 1.0738270357251167e-02</internalNodes>
      <leafValues>
        -5.0197577476501465e-01 5.6580036878585815e-01</leafValues></_>
    <_>
      <internalNodes>
        0 -1 153466 -8.3081955090165138e-03</internalNodes>
      <leafValues>
        5.9253728389739990e-01 -5.2212947607040405e-01</leafValues></_>
    <_>
      <internalNodes>
        0 -1 464136 1.2248087441548705e-03</internalNodes>
      <leafValues>
        -4.2452830076217651e-01 7.0628112554550171e-01</leafValues></_></weakClassifiers></stage2>
</opencv_storage>
