<?xml version="1.0"?>
<opencv_storage>
<stage14>
  <maxWeakCount>9</maxWeakCount>
  <stageThreshold>-1.0780090093612671e+00</stageThreshold>
  <weakClassifiers>
    <_>
      <internalNodes>
        0 -1 1312829 -5.4611172527074814e-03</internalNodes>
      <leafValues>
        4.0384614467620850e-01 -4.7383719682693481e-01</leafValues></_>
    <_>
      <internalNodes>
        0 -1 938347 2.3638496641069651e-03</internalNodes>
      <leafValues>
        -4.5323964953422546e-01 3.5641345381736755e-01</leafValues></_>
    <_>
      <internalNodes>
        0 -1 423669 -5.0049815326929092e-03</internalNodes>
      <leafValues>
        4.2493832111358643e-01 -3.8796547055244446e-01</leafValues></_>
    <_>
      <internalNodes>
        0 -1 238018 -1.8482136074453592e-03</internalNodes>
      <leafValues>
        6.3316971063613892e-01 -2.9197591543197632e-01</leafValues></_>
    <_>
      <internalNodes>
        0 -1 168553 -9.9490713328123093e-03</internalNodes>
      <leafValues>
        5.1486235857009888e-01 -3.4002655744552612e-01</leafValues></_>
    <_>
      <internalNodes>
        0 -1 915806 -1.0911854915320873e-03</internalNodes>
      <leafValues>
        -7.7528822422027588e-01 2.8710266947746277e-01</leafValues></_>
    <_>
      <internalNodes>
        0 -1 1211516 8.3724426804110408e-04</internalNodes>
      <leafValues>
        -4.6914961934089661e-01 3.8969063758850098e-01</leafValues></_>
    <_>
      <internalNodes>
        0 -1 34641 2.5514111621305346e-04</internalNodes>
      <leafValues>
        2.4598327279090881e-01 -7.1586614847183228e-01</leafValues></_>
    <_>
      <internalNodes>
        0 -1 1154732 -4.8982361331582069e-03</internalNodes>
      <leafValues>
        -9.0436512231826782e-01 1.7690323293209076e-01</leafValues></_></weakClassifiers></stage14>
</opencv_storage>
