<?xml version="1.0"?>
<opencv_storage>
<stage9>
  <maxWeakCount>8</maxWeakCount>
  <stageThreshold>-1.1015671491622925e+00</stageThreshold>
  <weakClassifiers>
    <_>
      <internalNodes>
        0 -1 882294 -1.0665112640708685e-03</internalNodes>
      <leafValues>
        4.4080603122711182e-01 -6.2189054489135742e-01</leafValues></_>
    <_>
      <internalNodes>
        0 -1 1302570 9.1457962989807129e-03</internalNodes>
      <leafValues>
        -4.3736717104911804e-01 4.9011728167533875e-01</leafValues></_>
    <_>
      <internalNodes>
        0 -1 817286 1.2271835468709469e-02</internalNodes>
      <leafValues>
        2.1428669989109039e-01 -9.7897326946258545e-01</leafValues></_>
    <_>
      <internalNodes>
        0 -1 692915 2.5823181495070457e-03</internalNodes>
      <leafValues>
        -3.2526952028274536e-01 6.9884073734283447e-01</leafValues></_>
    <_>
      <internalNodes>
        0 -1 909450 1.1518017854541540e-03</internalNodes>
      <leafValues>
        -2.8641715645790100e-01 7.0023584365844727e-01</leafValues></_>
    <_>
      <internalNodes>
        0 -1 1087312 7.3763520049396902e-05</internalNodes>
      <leafValues>
        3.1725430488586426e-01 -7.7707874774932861e-01</leafValues></_>
    <_>
      <internalNodes>
        0 -1 658139 -1.7219340428709984e-02</internalNodes>
      <leafValues>
        6.9527173042297363e-01 -3.0466932058334351e-01</leafValues></_>
    <_>
      <internalNodes>
        0 -1 155970 1.8935232947114855e-04</internalNodes>
      <leafValues>
        -5.8039975166320801e-01 3.7414199113845825e-01</leafValues></_></weakClassifiers></stage9>
</opencv_storage>
