<?xml version="1.0"?>
<opencv_storage>
<stage3>
  <maxWeakCount>7</maxWeakCount>
  <stageThreshold>-1.4406924247741699e+00</stageThreshold>
  <weakClassifiers>
    <_>
      <internalNodes>
        0 -1 3594 5.2177563309669495e-02</internalNodes>
      <leafValues>
        -6.3109755516052246e-01 6.2209302186965942e-01</leafValues></_>
    <_>
      <internalNodes>
        0 -1 1279287 -1.0777071118354797e-02</internalNodes>
      <leafValues>
        6.5143686532974243e-01 -4.8693084716796875e-01</leafValues></_>
    <_>
      <internalNodes>
        0 -1 781271 3.2411001622676849e-02</internalNodes>
      <leafValues>
        -4.5245602726936340e-01 6.9080978631973267e-01</leafValues></_>
    <_>
      <internalNodes>
        0 -1 669502 -1.5138152986764908e-02</internalNodes>
      <leafValues>
        5.9314006567001343e-01 -4.6676865220069885e-01</leafValues></_>
    <_>
      <internalNodes>
        0 -1 389242 -1.4641821384429932e-02</internalNodes>
      <leafValues>
        7.0669901371002197e-01 -4.0284222364425659e-01</leafValues></_>
    <_>
      <internalNodes>
        0 -1 1111454 -5.8045214973390102e-03</internalNodes>
      <leafValues>
        6.5052789449691772e-01 -4.6597003936767578e-01</leafValues></_>
    <_>
      <internalNodes>
        0 -1 575202 -4.6688615111634135e-04</internalNodes>
      <leafValues>
        -8.7600755691528320e-01 3.4887492656707764e-01</leafValues></_></weakClassifiers></stage3>
</opencv_storage>
