<?xml version="1.0"?>
<opencv_storage>
<stage5>
  <maxWeakCount>6</maxWeakCount>
  <stageThreshold>-1.0866646766662598e+00</stageThreshold>
  <weakClassifiers>
    <_>
      <internalNodes>
        0 -1 370479 6.7195683717727661e-02</internalNodes>
      <leafValues>
        -5.3561252355575562e-01 5.9060400724411011e-01</leafValues></_>
    <_>
      <internalNodes>
        0 -1 114019 -7.2534997016191483e-03</internalNodes>
      <leafValues>
        6.7272090911865234e-01 -4.1591420769691467e-01</leafValues></_>
    <_>
      <internalNodes>
        0 -1 1313310 -4.2018862441182137e-03</internalNodes>
      <leafValues>
        7.9856491088867188e-01 -3.1797090172767639e-01</leafValues></_>
    <_>
      <internalNodes>
        0 -1 350164 1.6193015500903130e-02</internalNodes>
      <leafValues>
        -3.0891409516334534e-01 7.7903681993484497e-01</leafValues></_>
    <_>
      <internalNodes>
        0 -1 1121156 -1.2647153926081955e-04</internalNodes>
      <leafValues>
        -9.3821388483047485e-01 2.9201266169548035e-01</leafValues></_>
    <_>
      <internalNodes>
        0 -1 1121156 1.1969030310865492e-04</internalNodes>
      <leafValues>
        3.0218085646629333e-01 -9.1680139303207397e-01</leafValues></_></weakClassifiers></stage5>
</opencv_storage>
