<?xml version="1.0"?>
<opencv_storage>
<stage13>
  <maxWeakCount>7</maxWeakCount>
  <stageThreshold>-9.6723330020904541e-01</stageThreshold>
  <weakClassifiers>
    <_>
      <internalNodes>
        0 -1 168819 -3.8979433476924896e-02</internalNodes>
      <leafValues>
        3.6040610074996948e-01 -5.6435644626617432e-01</leafValues></_>
    <_>
      <internalNodes>
        0 -1 24553 -2.4053589440882206e-03</internalNodes>
      <leafValues>
        -8.0396217107772827e-01 2.2075836360454559e-01</leafValues></_>
    <_>
      <internalNodes>
        0 -1 1303899 1.1335066519677639e-03</internalNodes>
      <leafValues>
        -4.2570909857749939e-01 4.2333844304084778e-01</leafValues></_>
    <_>
      <internalNodes>
        0 -1 34794 -1.0768861975520849e-03</internalNodes>
      <leafValues>
        -7.2288602590560913e-01 2.7281883358955383e-01</leafValues></_>
    <_>
      <internalNodes>
        0 -1 427070 2.6085332501679659e-03</internalNodes>
      <leafValues>
        -2.6804530620574951e-01 6.4518678188323975e-01</leafValues></_>
    <_>
      <internalNodes>
        0 -1 224875 1.1267962399870157e-03</internalNodes>
      <leafValues>
        -2.9828569293022156e-01 6.1559063196182251e-01</leafValues></_>
    <_>
      <internalNodes>
        0 -1 440692 -8.7279593572020531e-04</internalNodes>
      <leafValues>
        -9.0312463045120239e-01 2.4224339425563812e-01</leafValues></_></weakClassifiers></stage13>
</opencv_storage>
