<?xml version="1.0"?>
<opencv_storage>
<stage19>
  <maxWeakCount>9</maxWeakCount>
  <stageThreshold>-3.0624010562896729e+00</stageThreshold>
  <weakClassifiers>
    <_>
      <internalNodes>
        0 -1 38263 -997735641 -974010745 -754744729 -243026662
        -917598065 -1710636851 -1509846897 -834416125</internalNodes>
      <leafValues>
        -5.9264934062957764e-01 5.3890490531921387e-01</leafValues></_>
    <_>
      <internalNodes>
        0 -1 43450 1543538748 150994973 -804236519 1571881209
        -1635698261 643432849 -1834179169 434833729</internalNodes>
      <leafValues>
        -8.3257389068603516e-01 3.9643457531929016e-01</leafValues></_>
    <_>
      <internalNodes>
        0 -1 54167 -1378390265 -525452915 415294858 -1474198769
        -1410225823 69084128 -54607232 -422070099</internalNodes>
      <leafValues>
        -6.3478887081146240e-01 5.2147746086120605e-01</leafValues></_>
    <_>
      <internalNodes>
        0 -1 28860 -986780049 -1531838141 -1928263090 34805505 33693998
        1129326852 -1476191706 1925653043</internalNodes>
      <leafValues>
        -8.3569526672363281e-01 4.9384450912475586e-01</leafValues></_>
    <_>
      <internalNodes>
        0 -1 31761 -1065899869 -46040818 -653618859 -117093613
        -1332514341 -594013694 982045184 -657332741</internalNodes>
      <leafValues>
        -7.4395275115966797e-01 4.9776834249496460e-01</leafValues></_>
    <_>
      <internalNodes>
        0 -1 51615 -1945040391 972100115 268552791 -702724699
        -2146512749 -343355192 -1958167133 -1598552837</internalNodes>
      <leafValues>
        -7.9825252294540405e-01 5.1794052124023438e-01</leafValues></_>
    <_>
      <internalNodes>
        0 -1 18951 1498453373 -717958798 -2142926831 -746536119
        -958362198 -305618816 1353208041 -1615068757</internalNodes>
      <leafValues>
        -9.1827243566513062e-01 5.3507596254348755e-01</leafValues></_>
    <_>
      <internalNodes>
        0 -1 44805 -505691767 -777318139 1166139688 -1612626558
        -1609539126 -1811185614 -1282489886 -41566815</internalNodes>
      <leafValues>
        -9.4010668992996216e-01 5.3328162431716919e-01</leafValues></_>
    <_>
      <internalNodes>
        0 -1 54078 1344703819 -528859126 1493434405 -2105044992
        -2147479488 1627459585 -984833374 -389289839</internalNodes>
      <leafValues>
        -9.7715669870376587e-01 6.7534244060516357e-01</leafValues></_></weakClassifiers></stage19>
</opencv_storage>
