<?xml version="1.0"?>
<opencv_storage>
<stage13>
  <maxWeakCount>5</maxWeakCount>
  <stageThreshold>-1.1167602539062500e+00</stageThreshold>
  <weakClassifiers>
    <_>
      <internalNodes>
        0 -1 54231 -2097909 1083511297 -1048280700 -435994357
        -1337720317 1078303040 -527190463 -739247273</internalNodes>
      <leafValues>
        -6.2879997491836548e-01 5.1466667652130127e-01</leafValues></_>
    <_>
      <internalNodes>
        0 -1 1427 -985526740 -284278486 -1859122786 -115981880 180374996
        -401092329 -1950020721 -7385097</internalNodes>
      <leafValues>
        -7.3363101482391357e-01 4.5938393473625183e-01</leafValues></_>
    <_>
      <internalNodes>
        0 -1 43499 924851693 297032001 294246597 -618852207 -1165238851
        -125770833 -1484627009 -1883631452</internalNodes>
      <leafValues>
        -6.6335630416870117e-01 5.6584918498992920e-01</leafValues></_>
    <_>
      <internalNodes>
        0 -1 35704 -469045462 -1584473455 -1308620734 -2012561019
        -1789063673 -1668316152 -1953428416 -470060189</internalNodes>
      <leafValues>
        -7.2547280788421631e-01 5.1054596900939941e-01</leafValues></_>
    <_>
      <internalNodes>
        0 -1 51536 356520693 -1789194173 -2142873929 -2017099516
        -2004215303 -356384735 -1666012661 -1680343012</internalNodes>
      <leafValues>
        -7.0198178291320801e-01 5.5766290426254272e-01</leafValues></_></weakClassifiers></stage13>
</opencv_storage>
