<?xml version="1.0"?>
<opencv_storage>
<stage15>
  <maxWeakCount>6</maxWeakCount>
  <stageThreshold>-2.0397739410400391e+00</stageThreshold>
  <weakClassifiers>
    <_>
      <internalNodes>
        0 -1 54235 -246037713 -504254153 -2121596160 -262315295
        1806280722 1999732755 -830373327 -140015173</internalNodes>
      <leafValues>
        -6.4765101671218872e-01 4.6039605140686035e-01</leafValues></_>
    <_>
      <internalNodes>
        0 -1 28822 1439678886 -1144667111 101025283 1435907029
        1922813067 1796834442 -1635652151 -4207726</internalNodes>
      <leafValues>
        -6.5076267719268799e-01 5.0916892290115356e-01</leafValues></_>
    <_>
      <internalNodes>
        0 -1 27777 -1445853032 1998263537 -1003454313 1488408849
        -939192228 -71886704 403354594 1340563131</internalNodes>
      <leafValues>
        -7.4123913049697876e-01 4.5900174975395203e-01</leafValues></_>
    <_>
      <internalNodes>
        0 -1 53911 -2108700350 -1004748405 -2013260544 -1706470897
        1082192128 7520521 -921214912 -534260798</internalNodes>
      <leafValues>
        -8.1144434213638306e-01 5.8630985021591187e-01</leafValues></_>
    <_>
      <internalNodes>
        0 -1 22879 -268381043 -352157177 -514140031 -507313401
        -1333672307 -670818158 -1985804155 -205261494</internalNodes>
      <leafValues>
        -7.2704201936721802e-01 5.4956978559494019e-01</leafValues></_>
    <_>
      <internalNodes>
        0 -1 23535 -48776249 1099404468 -2078602654 -1086126729
        -884921269 314716330 -1933394741 -1837866</internalNodes>
      <leafValues>
        -7.2961342334747314e-01 7.4694651365280151e-01</leafValues></_></weakClassifiers></stage15>
</opencv_storage>
