<?xml version="1.0"?>
<opencv_storage>
<stage5>
  <maxWeakCount>4</maxWeakCount>
  <stageThreshold>-3.5890150070190430e-01</stageThreshold>
  <weakClassifiers>
    <_>
      <internalNodes>
        0 -1 54242 -525336725 8638787 -1072660448 -997567223 1090605856
        213579 -132427261 -688399441</internalNodes>
      <leafValues>
        -6.8539327383041382e-01 6.0212200880050659e-01</leafValues></_>
    <_>
      <internalNodes>
        0 -1 16858 815796464 -69922671 1048823 1600073987 42576106
        -343900024 931382009 983179528</internalNodes>
      <leafValues>
        -8.8794159889221191e-01 5.0353080034255981e-01</leafValues></_>
    <_>
      <internalNodes>
        0 -1 43212 -148910962 -1235360249 269582474 -1330917 -804804465
        -1018593114 -1961129814 -190059925</internalNodes>
      <leafValues>
        -6.5767651796340942e-01 6.8186628818511963e-01</leafValues></_>
    <_>
      <internalNodes>
        0 -1 13113 -495989970 67667207 -955154424 1174553222 1624220329
        688652423 -896955672 1873015719</internalNodes>
      <leafValues>
        -7.5494819879531860e-01 5.9012186527252197e-01</leafValues></_></weakClassifiers></stage5>
</opencv_storage>
