<?xml version="1.0"?>
<opencv_storage>
<stage12>
  <maxWeakCount>5</maxWeakCount>
  <stageThreshold>-1.1631464958190918e+00</stageThreshold>
  <weakClassifiers>
    <_>
      <internalNodes>
        0 -1 54255 -335547641 -2048945725 -536480510 -904050675
        1260683525 1888159745 -1605926110 -134224941</internalNodes>
      <leafValues>
        -6.5650081634521484e-01 5.5437666177749634e-01</leafValues></_>
    <_>
      <internalNodes>
        0 -1 51927 662182269 -575765096 -1823417923 -775834351
        -1214015345 -1618944506 -1482487285 -1108603491</internalNodes>
      <leafValues>
        -6.4542949199676514e-01 5.6318044662475586e-01</leafValues></_>
    <_>
      <internalNodes>
        0 -1 38780 726397730 1999238051 1347837970 2132984038 2009239861
        1375748375 -1060864958 1735389243</internalNodes>
      <leafValues>
        -8.5083484649658203e-01 4.3804508447647095e-01</leafValues></_>
    <_>
      <internalNodes>
        0 -1 14296 1501842937 -721088383 -2095362305 960561487
        -2069315446 -393639924 137364615 259198515</internalNodes>
      <leafValues>
        -6.8848192691802979e-01 5.3299874067306519e-01</leafValues></_>
    <_>
      <internalNodes>
        0 -1 26169 -871373042 -1975861037 1423016320 1648934022
        -837036010 11240451 820450838 -739318941</internalNodes>
      <leafValues>
        -7.5199002027511597e-01 5.6549119949340820e-01</leafValues></_></weakClassifiers></stage12>
</opencv_storage>
