<?xml version="1.0"?>
<opencv_storage>
<stage9>
  <maxWeakCount>4</maxWeakCount>
  <stageThreshold>-4.7799205780029297e-01</stageThreshold>
  <weakClassifiers>
    <_>
      <internalNodes>
        0 -1 21120 185601533 1003557233 1493215677 -544119655
        -1169286145 -83844985 -1286427655 -661781116</internalNodes>
      <leafValues>
        -6.4817750453948975e-01 5.6639564037322998e-01</leafValues></_>
    <_>
      <internalNodes>
        0 -1 23439 -145312808 -753581157 171972870 2031719956
        -1574265416 -131014465 -1706551254 -202864941</internalNodes>
      <leafValues>
        -7.1256899833679199e-01 5.2256327867507935e-01</leafValues></_>
    <_>
      <internalNodes>
        0 -1 49912 1663038882 1392743258 272785580 1069792607
        -1005465367 805552256 1625548456 1635674793</internalNodes>
      <leafValues>
        -7.9202896356582642e-01 4.9447682499885559e-01</leafValues></_>
    <_>
      <internalNodes>
        0 -1 10569 890244549 -678212516 -1819767953 -74774299 1322353149
        -1620229870 -2083699025 -1879374388</internalNodes>
      <leafValues>
        -7.7492201328277588e-01 5.0403267145156860e-01</leafValues></_></weakClassifiers></stage9>
</opencv_storage>
