<?xml version="1.0"?>
<opencv_storage>
<stage2>
  <maxWeakCount>4</maxWeakCount>
  <stageThreshold>-1.5553460121154785e+00</stageThreshold>
  <weakClassifiers>
    <_>
      <internalNodes>
        0 -1 5274 420493564 -1693416304 407142803 -750419876 -938948357
        -1089994752 814252223 -1660907384</internalNodes>
      <leafValues>
        -7.9411762952804565e-01 5.0877195596694946e-01</leafValues></_>
    <_>
      <internalNodes>
        0 -1 11736 -35651802 536657855 268185226 535691231 1878563325
        1606188796 -1612718081 -4194305</internalNodes>
      <leafValues>
        -6.3692444562911987e-01 7.1521335840225220e-01</leafValues></_>
    <_>
      <internalNodes>
        0 -1 30572 339837066 -117210851 -1073641727 -682403325
        -662468214 -259415921 -83640149 -905999229</internalNodes>
      <leafValues>
        -7.3157870769500732e-01 6.2187761068344116e-01</leafValues></_>
    <_>
      <internalNodes>
        0 -1 30442 268456445 2034843922 269058263 1604388534 -1869971207
        -1182660438 -628520533 -1697771375</internalNodes>
      <leafValues>
        -7.4618154764175415e-01 6.0112762451171875e-01</leafValues></_></weakClassifiers></stage2>
</opencv_storage>
