<?xml version="1.0"?>
<opencv_storage>
<cascade>
  <stageType>BOOST</stageType>
  <featureType>LBP</featureType>
  <height>24</height>
  <width>60</width>
  <stageParams>
    <boostType>LB</boostType>
    <minHitRate>9.9500000476837158e-01</minHitRate>
    <maxFalseAlarm>5.0000000000000000e-01</maxFalseAlarm>
    <weightTrimRate>9.4999999999999996e-01</weightTrimRate>
    <maxDepth>1</maxDepth>
    <maxWeakCount>100</maxWeakCount></stageParams>
  <featureParams>
    <maxCatCount>256</maxCatCount></featureParams>
  <stageNum>20</stageNum>
  <stages>
    <!-- stage 0 -->
    <_>
      <maxWeakCount>3</maxWeakCount>
      <stageThreshold>-1.5564078092575073e+00</stageThreshold>
      <weakClassifiers>
        <_>
          <internalNodes>
            0 -1 1 -318771865 1075692559 9502722 -523427315 -1845112285
            1413646659 -234757593 -135267669</internalNodes>
          <leafValues>
            -1.4513556957244873e+00 1.3672921657562256e+00</leafValues></_>
        <_>
          <internalNodes>
            0 -1 96 -471343094 42717843 -2146839550 446467 -536099523
            33792003 -2012503784 1076882383</internalNodes>
          <leafValues>
            -1.3763508796691895e+00 1.1250113248825073e+00</leafValues></_>
        <_>
          <internalNodes>
            0 -1 26 -537881099 1945127221 -787480193 -106360776
            1831414717 -1396674560 -892483859 -1691861576</internalNodes>
          <leafValues>
            -1.1877861022949219e+00 1.2712986469268799e+00</leafValues></_></weakClassifiers></_>
    <!-- stage 1 -->
    <_>
      <maxWeakCount>3</maxWeakCount>
      <stageThreshold>-1.7353482246398926e+00</stageThreshold>
      <weakClassifiers>
        <_>
          <internalNodes>
            0 -1 36 419467672 -116359023 67174743 -586071791 -2071807848
            -855635840 -1744797207 -1890023408</internalNodes>
          <leafValues>
            -1.6537102460861206e+00 1.2350230216979980e+00</leafValues></_>
        <_>
          <internalNodes>
            0 -1 71 1052824 454033433 -805234285 -687779557 67152873
            -1147566031 -1711274337 -1115029356</internalNodes>
          <leafValues>
            -1.3885481357574463e+00 1.2268986701965332e+00</leafValues></_>
        <_>
          <internalNodes>
            0 -1 33 1059083729 -1073778728 2121269245 -134521089
            2147123134 -1073774849 -1074323969 -1615199171</internalNodes>
          <leafValues>
            -1.1507059335708618e+00 1.3069102764129639e+00</leafValues></_></weakClassifiers></_>
    <!-- stage 2 -->
    <_>
      <maxWeakCount>4</maxWeakCount>
      <stageThreshold>-2.0987205505371094e+00</stageThreshold>
      <weakClassifiers>
        <_>
          <internalNodes>
            0 -1 102 -18350205 1660420079 -4168 -285278273 -134775003
            905444367 -134252794 -671612945</internalNodes>
          <leafValues>
            -1.3343328237533569e+00 1.4714714288711548e+00</leafValues></_>
        <_>
          <internalNodes>
            0 -1 41 -273680722 -21 -18570494 -642793611 -134218021
            -4227073 -943477041 -8388609</internalNodes>
          <leafValues>
            -1.0340148210525513e+00 1.5148937702178955e+00</leafValues></_>
        <_>
          <internalNodes>
            0 -1 64 1063416 -1689251707 -2130640487 -644677231
            -2012802818 -1432649590 185252031 -1631975267</internalNodes>
          <leafValues>
            -1.2913992404937744e+00 1.0637109279632568e+00</leafValues></_>
        <_>
          <internalNodes>
            0 -1 79 -607127841 -574627842 1397751390 -1048577 -402722821
            -269488209 -6310145 -17473</internalNodes>
          <leafValues>
            -7.9408389329910278e-01 2.7183473110198975e+00</leafValues></_></weakClassifiers></_>
    <!-- stage 3 -->
    <_>
      <maxWeakCount>4</maxWeakCount>
      <stageThreshold>-2.3777039051055908e+00</stageThreshold>
      <weakClassifiers>
        <_>
          <internalNodes>
            0 -1 17 397942237 -2138629 1467990015 -163841 -1747058945
            -1073741825 -1342179329 -1079042622</internalNodes>
          <leafValues>
            -1.3383915424346924e+00 1.4134896993637085e+00</leafValues></_>
        <_>
          <internalNodes>
            0 -1 31 286322840 1494286865 1073840607 2130776101
            -117399377 1495310480 1409581567 520822923</internalNodes>
          <leafValues>
            -1.1518894433975220e+00 1.3149807453155518e+00</leafValues></_>
        <_>
          <internalNodes>
            0 -1 62 -879255090 2043527499 -2096593777 2097916037
            402895775 1227116586 -536429685 -149163265</internalNodes>
          <leafValues>
            -1.1239967346191406e+00 1.2680917978286743e+00</leafValues></_>
        <_>
          <internalNodes>
            0 -1 20 -71500035 -1073741832 -1 -17155 1065287643
            -1073741955 -286064641 -1166533284</internalNodes>
          <leafValues>
            -1.0025851726531982e+00 1.2365738153457642e+00</leafValues></_></weakClassifiers></_>
    <!-- stage 4 -->
    <_>
      <maxWeakCount>5</maxWeakCount>
      <stageThreshold>-3.8059816360473633e+00</stageThreshold>
      <weakClassifiers>
        <_>
          <internalNodes>
            0 -1 87 549459455 -2098345 -796704257 -12865027 -1985320449
            -1450581334 -1198659445 -1162211096</internalNodes>
          <leafValues>
            -1.5834829807281494e+00 1.0880360603332520e+00</leafValues></_>
        <_>
          <internalNodes>
            0 -1 11 -810025713 -396779709 -180251378 -1396207158
            1359041559 1092601723 -519916941 -948442779</internalNodes>
          <leafValues>
            -1.4611964225769043e+00 9.5056807994842529e-01</leafValues></_>
        <_>
          <internalNodes>
            0 -1 65 1056726525 2146203389 -285231115 -134291459
            1073610751 -1 -1095172111 -1103610552</internalNodes>
          <leafValues>
            -1.0689961910247803e+00 1.3492666482925415e+00</leafValues></_>
        <_>
          <internalNodes>
            0 -1 19 1897163708 -753644144 266651 1971851558 813965481
            1670553728 -671083861 -1643641832</internalNodes>
          <leafValues>
            -1.2599029541015625e+00 9.3383133411407471e-01</leafValues></_>
        <_>
          <internalNodes>
            0 -1 68 -1074258561 1340984316 -65805 -1493271047 -302710788
            -4243628 903806975 -1623167524</internalNodes>
          <leafValues>
            -1.1039223670959473e+00 1.2032022476196289e+00</leafValues></_></weakClassifiers></_>
    <!-- stage 5 -->
    <_>
      <maxWeakCount>4</maxWeakCount>
      <stageThreshold>-2.6380448341369629e+00</stageThreshold>
      <weakClassifiers>
        <_>
          <internalNodes>
            0 -1 59 -1069038582 -753819391 -1055801339 -922513209
            -2127834433 -1811388215 -534282085 -729034613</internalNodes>
          <leafValues>
            -1.3957307338714600e+00 1.1508951187133789e+00</leafValues></_>
        <_>
          <internalNodes>
            0 -1 82 -685783166 -733897832 1084883080 352553728
            -670916132 16779608 1800565775 1876941475</internalNodes>
          <leafValues>
            -1.3219217061996460e+00 1.0777747631072998e+00</leafValues></_>
        <_>
          <internalNodes>
            0 -1 47 285216784 -686599875 -1643937783 -1152055039
            422070943 -276152023 -1987968193 -1081409397</internalNodes>
          <leafValues>
            -1.3766205310821533e+00 9.6061486005783081e-01</leafValues></_>
        <_>
          <internalNodes>
            0 -1 29 -643786568 -536932353 519768339 -151052804
            2143166190 -9027841 928919551 536485119</internalNodes>
          <leafValues>
            -1.0903975963592529e+00 1.1639094352722168e+00</leafValues></_></weakClassifiers></_>
    <!-- stage 6 -->
    <_>
      <maxWeakCount>5</maxWeakCount>
      <stageThreshold>-2.0090131759643555e+00</stageThreshold>
      <weakClassifiers>
        <_>
          <internalNodes>
            0 -1 6 -355473914 -297548409 -1039990779 -699173813
            -1067072605 -1610547191 -1070739313 -438320505</internalNodes>
          <leafValues>
            -1.3546326160430908e+00 1.1978609561920166e+00</leafValues></_>
        <_>
          <internalNodes>
            0 -1 103 -39336177 144546258 1104392192 -931180197
            1132805458 62947719 -475705065 -139470641</internalNodes>
          <leafValues>
            -1.1496102809906006e+00 1.2864427566528320e+00</leafValues></_>
        <_>
          <internalNodes>
            0 -1 66 268448473 -14937773 -788151939 -1626759727 335599773
            -337536703 -2121144131 731520193</internalNodes>
          <leafValues>
            -1.3972702026367188e+00 9.7595614194869995e-01</leafValues></_>
        <_>
          <internalNodes>
            0 -1 72 -680789246 -115879531 1410351440 -202841337
            -503164511 1426088066 -1072080320 2139083439</internalNodes>
          <leafValues>
            -1.2227956056594849e+00 9.3980139493942261e-01</leafValues></_>
        <_>
          <internalNodes>
            0 -1 49 -832832218 170036227 -1052606463 -2137799417
            1112179013 536936491 -989109503 -626528553</internalNodes>
          <leafValues>
            -1.1531853675842285e+00 9.5269852876663208e-01</leafValues></_></weakClassifiers></_>
    <!-- stage 7 -->
    <_>
      <maxWeakCount>3</maxWeakCount>
      <stageThreshold>-1.3617305755615234e+00</stageThreshold>
      <weakClassifiers>
        <_>
          <internalNodes>
            0 -1 30 16846085 -181959267 92352699 -77865769 -1201553413
            -1142259410 -1600033377 -2586149</internalNodes>
          <leafValues>
            -1.4539474248886108e+00 1.2346938848495483e+00</leafValues></_>
        <_>
          <internalNodes>
            0 -1 90 269488607 -82747051 -241930853 -1078523947
            -1684313907 -11556729 -1683829093 -1613225504</internalNodes>
          <leafValues>
            -1.1670604944229126e+00 1.2954463958740234e+00</leafValues></_>
        <_>
          <internalNodes>
            0 -1 85 -1364041735 -1375731916 -1073807377 2146401785
            1069416447 -4333701 -10551300 -1633665652</internalNodes>
          <leafValues>
            -1.1228607892990112e+00 1.2592772245407104e+00</leafValues></_></weakClassifiers></_>
    <!-- stage 8 -->
    <_>
      <maxWeakCount>4</maxWeakCount>
      <stageThreshold>-2.6356022357940674e+00</stageThreshold>
      <weakClassifiers>
        <_>
          <internalNodes>
            0 -1 16 3151197 -586088007 -1727458057 -1152810552
            -1715430979 -1081562473 -811971873 -1080032032</internalNodes>
          <leafValues>
            -1.5107914209365845e+00 9.9099099636077881e-01</leafValues></_>
        <_>
          <internalNodes>
            0 -1 104 -406854705 -1568082909 -989788864 -1439973115
            -1015868412 654419777 -774977276 -138940031</internalNodes>
          <leafValues>
            -1.2532109022140503e+00 1.2070848941802979e+00</leafValues></_>
        <_>
          <internalNodes>
            0 -1 78 -675419762 -6340607 803660 -1115892321 -451696217
            1368916137 1636014447 -137898039</internalNodes>
          <leafValues>
            -1.2278114557266235e+00 1.2118314504623413e+00</leafValues></_>
        <_>
          <internalNodes>
            0 -1 10 1090525660 -1983840168 1885507672 1604059136
            -1048015194 -376798812 -125268952 -1081866104</internalNodes>
          <leafValues>
            -1.1040844917297363e+00 1.1340198516845703e+00</leafValues></_></weakClassifiers></_>
    <!-- stage 9 -->
    <_>
      <maxWeakCount>6</maxWeakCount>
      <stageThreshold>-3.6247384548187256e+00</stageThreshold>
      <weakClassifiers>
        <_>
          <internalNodes>
            0 -1 23 -11544666 858920211 1107329026 -254197037 1107693983
            1382023808 -1553889317 -71565345</internalNodes>
          <leafValues>
            -1.3198127746582031e+00 1.2423398494720459e+00</leafValues></_>
        <_>
          <internalNodes>
            0 -1 12 -105333380 -98580 2130706431 -612377475 -9109509
            -545368195 -1098981889 -807747879</internalNodes>
          <leafValues>
            -1.0509971380233765e+00 1.4198516607284546e+00</leafValues></_>
        <_>
          <internalNodes>
            0 -1 77 -93852950 1375879618 -531028925 1084199051
            -985401853 41123840 1898533259 1122228943</internalNodes>
          <leafValues>
            -1.2705286741256714e+00 1.0045676231384277e+00</leafValues></_>
        <_>
          <internalNodes>
            0 -1 73 1384117231 1903949695 -134217905 -67109121
            -134260786 1996486635 -851969 2009857687</internalNodes>
          <leafValues>
            -9.4911193847656250e-01 1.3245773315429688e+00</leafValues></_>
        <_>
          <internalNodes>
            0 -1 98 -336593009 -1733296401 -16777461 -1879130161
            2144796135 935329791 -1073744479 -335544321</internalNodes>
          <leafValues>
            -8.4005010128021240e-01 1.8280290365219116e+00</leafValues></_>
        <_>
          <internalNodes>
            0 -1 40 -1249905073 -37748787 -9453586 -8979002 -524290
            -589962 -2097202 -103824122</internalNodes>
          <leafValues>
            -1.1899940967559814e+00 1.8057621717453003e+00</leafValues></_></weakClassifiers></_>
    <!-- stage 10 -->
    <_>
      <maxWeakCount>8</maxWeakCount>
      <stageThreshold>-4.6259875297546387e+00</stageThreshold>
      <weakClassifiers>
        <_>
          <internalNodes>
            0 -1 2 -505417809 571461894 -1062191026 -935075825
            -546725033 1830912654 -1425276564 -72619569</internalNodes>
          <leafValues>
            -1.3046251535415649e+00 1.1206433773040771e+00</leafValues></_>
        <_>
          <internalNodes>
            0 -1 88 -1148840552 -167014081 -1760214251 -649509292
            -1180653333 -123273068 -1689525512 -1079375730</internalNodes>
          <leafValues>
            -1.3032824993133545e+00 1.0132305622100830e+00</leafValues></_>
        <_>
          <internalNodes>
            0 -1 32 1073823972 1566064799 1092050847 -619634336
            -1602059570 -610740072 51233428 -272423317</internalNodes>
          <leafValues>
            -1.2229613065719604e+00 9.8640424013137817e-01</leafValues></_>
        <_>
          <internalNodes>
            0 -1 43 -2007873831 18927888 419693051 -50265975 -905892888
            -1451196278 419954919 -1892663020</internalNodes>
          <leafValues>
            -1.0459682941436768e+00 1.0832682847976685e+00</leafValues></_>
        <_>
          <internalNodes>
            0 -1 8 -168257 -152240451 -16781460 -184619155 2147450679
            435978109 -137 -268468265</internalNodes>
          <leafValues>
            -9.5821380615234375e-01 1.3259762525558472e+00</leafValues></_>
        <_>
          <internalNodes>
            0 -1 39 -150995089 586153983 -150995986 -67112982 -142623809
            1711275903 -50 -20</internalNodes>
          <leafValues>
            -1.1582473516464233e+00 1.5639739036560059e+00</leafValues></_>
        <_>
          <internalNodes>
            0 -1 46 -277876969 -1224753157 -17043665 -227557522 -17027
            -1543504001 -33622234 -266289</internalNodes>
          <leafValues>
            -8.5954427719116211e-01 2.6686122417449951e+00</leafValues></_>
        <_>
          <internalNodes>
            0 -1 5 -1056961 2146435062 -276889601 -201392146 -1074798594
            -133257 1992290303 -554018322</internalNodes>
          <leafValues>
            -1.2990236282348633e+00 1.8172657489776611e+00</leafValues></_></weakClassifiers></_>
    <!-- stage 11 -->
    <_>
      <maxWeakCount>4</maxWeakCount>
      <stageThreshold>-8.2745695114135742e-01</stageThreshold>
      <weakClassifiers>
        <_>
          <internalNodes>
            0 -1 24 -141099106 1073800458 298881440 -1761286069
            -333542675 1493209378 -158857304 -71315621</internalNodes>
          <leafValues>
            -1.4285714626312256e+00 9.0909093618392944e-01</leafValues></_>
        <_>
          <internalNodes>
            0 -1 51 -478679510 -368660389 -1073016671 -362024821
            1615157271 1083703298 1647023107 -140511018</internalNodes>
          <leafValues>
            -1.2341852188110352e+00 1.0753351449966431e+00</leafValues></_>
        <_>
          <internalNodes>
            0 -1 93 165151197 822674817 -1442838763 -50028376
            -1462574881 -1333751415 -1560040533 -1368911732</internalNodes>
          <leafValues>
            -1.2353577613830566e+00 9.9084848165512085e-01</leafValues></_>
        <_>
          <internalNodes>
            0 -1 37 1901613948 553652505 156387605 756220976 -1325355080
            2030178320 151013549 964853996</internalNodes>
          <leafValues>
            -1.2886098623275757e+00 8.4445112943649292e-01</leafValues></_></weakClassifiers></_>
    <!-- stage 12 -->
    <_>
      <maxWeakCount>5</maxWeakCount>
      <stageThreshold>-1.6724995374679565e+00</stageThreshold>
      <weakClassifiers>
        <_>
          <internalNodes>
            0 -1 101 -213391601 691110345 352534790 -846609593
            -372125373 755877 -473698043 -203169849</internalNodes>
          <leafValues>
            -1.2900158166885376e+00 1.1219512224197388e+00</leafValues></_>
        <_>
          <internalNodes>
            0 -1 3 -32510194 216207680 -503242710 -366851954 -946119053
            806011233 -2021405211 -265362737</internalNodes>
          <leafValues>
            -1.2437179088592529e+00 1.0082622766494751e+00</leafValues></_>
        <_>
          <internalNodes>
            0 -1 25 956570076 1501615201 -1056767657 826638929 143280782
            -15678806 194709919 255131875</internalNodes>
          <leafValues>
            -1.4128458499908447e+00 8.8505589962005615e-01</leafValues></_>
        <_>
          <internalNodes>
            0 -1 83 1426559182 -1873505792 -2084429808 1159307653
            -644885878 1686110336 1636937887 1637551051</internalNodes>
          <leafValues>
            -1.2029548883438110e+00 9.6394127607345581e-01</leafValues></_>
        <_>
          <internalNodes>
            0 -1 61 -781721171 -16387 -4097 -536887377 1442840063 -1
            -4117 -570440981</internalNodes>
          <leafValues>
            -9.2929142713546753e-01 1.3101388216018677e+00</leafValues></_></weakClassifiers></_>
    <!-- stage 13 -->
    <_>
      <maxWeakCount>7</maxWeakCount>
      <stageThreshold>-3.9698343276977539e+00</stageThreshold>
      <weakClassifiers>
        <_>
          <internalNodes>
            0 -1 86 1103135370 -1853783717 868713421 -120908461
            -351538705 -393541501 -1065229937 -70276722</internalNodes>
          <leafValues>
            -1.4923076629638672e+00 7.8333336114883423e-01</leafValues></_>
        <_>
          <internalNodes>
            0 -1 13 919608472 -1075375464 -1568647337 -11992036
            -2145089089 -1369267958 1770426869 -1885721707</internalNodes>
          <leafValues>
            -1.3966118097305298e+00 8.9953756332397461e-01</leafValues></_>
        <_>
          <internalNodes>
            0 -1 97 -575681750 -1334487689 -469516224 164559113
            -1994434493 545834381 -1342027661 -537134171</internalNodes>
          <leafValues>
            -1.1854041814804077e+00 1.0007963180541992e+00</leafValues></_>
        <_>
          <internalNodes>
            0 -1 4 1862266815 1291780079 1861205862 -1392508945 -532681
            -722010113 2013263732 -27852819</internalNodes>
          <leafValues>
            -8.8037234544754028e-01 1.1549375057220459e+00</leafValues></_>
        <_>
          <internalNodes>
            0 -1 70 -306278653 419430334 -276828233 2147418111 360021799
            1457389501 -2057 -526489</internalNodes>
          <leafValues>
            -1.0197818279266357e+00 1.1479412317276001e+00</leafValues></_>
        <_>
          <internalNodes>
            0 -1 7 -99754521 1237401635 -394163956 -1365295077
            1481214747 -352288358 -1457274573 -626628419</internalNodes>
          <leafValues>
            -1.2179262638092041e+00 8.8486945629119873e-01</leafValues></_>
        <_>
          <internalNodes>
            0 -1 22 -276943171 -1073745971 -1610633537 2147221503
            1608437711 -9863177 -1476461073 -1883361300</internalNodes>
          <leafValues>
            -9.9894070625305176e-01 1.8441814184188843e+00</leafValues></_></weakClassifiers></_>
    <!-- stage 14 -->
    <_>
      <maxWeakCount>4</maxWeakCount>
      <stageThreshold>-8.5431951284408569e-01</stageThreshold>
      <weakClassifiers>
        <_>
          <internalNodes>
            0 -1 54 324016093 -710999375 2146835797 -1110584343
            -1184210978 -22445952 -1115306769 -1148449280</internalNodes>
          <leafValues>
            -1.4472168684005737e+00 7.3903965950012207e-01</leafValues></_>
        <_>
          <internalNodes>
            0 -1 92 2039097332 352584468 681607312 -638078960
            -1851749236 -1685577416 120113343 -1073746235</internalNodes>
          <leafValues>
            -1.3925175666809082e+00 8.8083255290985107e-01</leafValues></_>
        <_>
          <internalNodes>
            0 -1 48 -870667481 -1601351751 -1811621565 1074513487
            1712275559 63465479 1095300211 -531634201</internalNodes>
          <leafValues>
            -1.1702908277511597e+00 9.9444454908370972e-01</leafValues></_>
        <_>
          <internalNodes>
            0 -1 50 1409513006 990057235 756109577 1625313309 1393205983
            11214981 -536702581 -2699633</internalNodes>
          <leafValues>
            -1.1466786861419678e+00 9.9097037315368652e-01</leafValues></_></weakClassifiers></_>
    <!-- stage 15 -->
    <_>
      <maxWeakCount>6</maxWeakCount>
      <stageThreshold>-1.9312102794647217e+00</stageThreshold>
      <weakClassifiers>
        <_>
          <internalNodes>
            0 -1 84 -6773768 999434389 823168345 -644019705 -1602184531
            -1643011071 -398280053 -1144813335</internalNodes>
          <leafValues>
            -1.3722627162933350e+00 7.7876108884811401e-01</leafValues></_>
        <_>
          <internalNodes>
            0 -1 58 811611549 1830494685 -868396111 -83398359 877215881
            -791494528 -1478299682 1068775080</internalNodes>
          <leafValues>
            -1.6565641164779663e+00 6.6581785678863525e-01</leafValues></_>
        <_>
          <internalNodes>
            0 -1 60 -790105725 -17 2147483647 -4097 -167838725
            -268468225 -2129930 -587733153</internalNodes>
          <leafValues>
            -8.3724051713943481e-01 1.3992487192153931e+00</leafValues></_>
        <_>
          <internalNodes>
            0 -1 38 -553087029 -1059079 265256797 -604009123 -813391908
            -1056786 103796599 -806680017</internalNodes>
          <leafValues>
            -6.7327284812927246e-01 1.3400578498840332e+00</leafValues></_>
        <_>
          <internalNodes>
            0 -1 27 -1208410627 -514 -16395 -835 2130468796 -268437507
            -34344961 -1611940741</internalNodes>
          <leafValues>
            -6.5146225690841675e-01 2.2078719139099121e+00</leafValues></_>
        <_>
          <internalNodes>
            0 -1 21 1866233561 -1078201475 -1476610319 -1074036950
            2147417595 -5 -1879161347 -4802628</internalNodes>
          <leafValues>
            -9.9022763967514038e-01 1.6207158565521240e+00</leafValues></_></weakClassifiers></_>
    <!-- stage 16 -->
    <_>
      <maxWeakCount>9</maxWeakCount>
      <stageThreshold>-5.2068791389465332e+00</stageThreshold>
      <weakClassifiers>
        <_>
          <internalNodes>
            0 -1 95 -1258032712 470585433 -1056859947 2107627803
            -1861648980 -1465792984 -1742487300 -1094726727</internalNodes>
          <leafValues>
            -1.4060150384902954e+00 7.4358975887298584e-01</leafValues></_>
        <_>
          <internalNodes>
            0 -1 45 -136577146 -779227763 -1606418261 -738084742
            1082905610 1233261610 -913852989 -2130983672</internalNodes>
          <leafValues>
            -1.1914495229721069e+00 9.8927962779998779e-01</leafValues></_>
        <_>
          <internalNodes>
            0 -1 35 -360977405 1861996215 -805393353 -318787665 -16623
            1207861215 1996486455 -201589409</internalNodes>
          <leafValues>
            -1.0587121248245239e+00 1.1714942455291748e+00</leafValues></_>
        <_>
          <internalNodes>
            0 -1 9 -653095686 -105840624 2265361 -1824314336 1080558248
            -635764478 -2121654077 135931602</internalNodes>
          <leafValues>
            -1.3422926664352417e+00 8.3171761035919189e-01</leafValues></_>
        <_>
          <internalNodes>
            0 -1 0 -1057504025 1640219107 -1598269374 -926044131
            -1400727489 1904836739 -788275190 -460595445</internalNodes>
          <leafValues>
            -9.8279690742492676e-01 9.8752057552337646e-01</leafValues></_>
        <_>
          <internalNodes>
            0 -1 91 -539037734 2139600687 1594371231 1602064317 -606502
            -285491271 -1210589233 -625213975</internalNodes>
          <leafValues>
            -9.2870074510574341e-01 1.2513473033905029e+00</leafValues></_>
        <_>
          <internalNodes>
            0 -1 94 -268437523 973074300 2147351224 -17301511 -276857476
            1971322807 1060454397 2139094525</internalNodes>
          <leafValues>
            -1.0998404026031494e+00 1.2822747230529785e+00</leafValues></_>
        <_>
          <internalNodes>
            0 -1 44 -244851593 -34783516 -1073758337 -536904195
            1609494203 -268554356 -268502326 -145258551</internalNodes>
          <leafValues>
            -9.0089088678359985e-01 1.6837453842163086e+00</leafValues></_>
        <_>
          <internalNodes>
            0 -1 56 -1730519683 -573222620 889508059 390531393
            1489089439 -1934344055 -1979709056 -1091820599</internalNodes>
          <leafValues>
            -1.3044635057449341e+00 1.1191829442977905e+00</leafValues></_></weakClassifiers></_>
    <!-- stage 17 -->
    <_>
      <maxWeakCount>10</maxWeakCount>
      <stageThreshold>-4.6786890029907227e+00</stageThreshold>
      <weakClassifiers>
        <_>
          <internalNodes>
            0 -1 100 -211824889 1196763307 -520027904 -1029611053
            2005439047 1384866306 -611609535 -413405001</internalNodes>
          <leafValues>
            -1.2929292917251587e+00 9.0640395879745483e-01</leafValues></_>
        <_>
          <internalNodes>
            0 -1 52 -619859012 -615280609 487621884 895595853 -401026854
            -1736441655 -1008881649 -105195443</internalNodes>
          <leafValues>
            -1.1614530086517334e+00 1.0732517242431641e+00</leafValues></_>
        <_>
          <internalNodes>
            0 -1 81 -827473023 -1071431625 289415435 -462844859
            2048557247 622600 -758983290 -155592277</internalNodes>
          <leafValues>
            -9.7076976299285889e-01 1.1609666347503662e+00</leafValues></_>
        <_>
          <internalNodes>
            0 -1 67 -661548107 -934992 2147483583 2146926451 -27871749
            -67665993 2004201471 2069303731</internalNodes>
          <leafValues>
            -9.5319706201553345e-01 1.1340910196304321e+00</leafValues></_>
        <_>
          <internalNodes>
            0 -1 14 -32769 -1 -9 -1 -1 -524417 -513 -1</internalNodes>
          <leafValues>
            -1.7765162885189056e-01 9.5450935363769531e+00</leafValues></_>
        <_>
          <internalNodes>
            0 -1 18 -757727761 275032091 -2107998206 -685947831
            -2100734278 26259458 -1778250550 -208747641</internalNodes>
          <leafValues>
            -9.8994380235671997e-01 9.2687803506851196e-01</leafValues></_>
        <_>
          <internalNodes>
            0 -1 75 -1826488120 -1316913071 -1052749634 -640317431
            25722012 -1165393117 -2105374033 -292911089</internalNodes>
          <leafValues>
            -1.0837006568908691e+00 9.3390846252441406e-01</leafValues></_>
        <_>
          <internalNodes>
            0 -1 76 -1823105057 385916934 8471 -1868529141 -1999058035
            706232448 -1967128381 -1075152443</internalNodes>
          <leafValues>
            -1.1834977865219116e+00 8.2474160194396973e-01</leafValues></_>
        <_>
          <internalNodes>
            0 -1 89 -9054213 -539361554 327098635 2013163262 -873504801
            1140701167 -102826001 1996488174</internalNodes>
          <leafValues>
            -1.0098063945770264e+00 1.4329980611801147e+00</leafValues></_>
        <_>
          <internalNodes>
            0 -1 15 -536870913 -2097153 -71307265 -8388609 -1 -1
            -4194305 -5</internalNodes>
          <leafValues>
            -1.7773257195949554e-01 9.7187290191650391e+00</leafValues></_></weakClassifiers></_>
    <!-- stage 18 -->
    <_>
      <maxWeakCount>7</maxWeakCount>
      <stageThreshold>-3.6337544918060303e+00</stageThreshold>
      <weakClassifiers>
        <_>
          <internalNodes>
            0 -1 55 -405290193 -1905389029 1342931990 -992042831
            1628105594 48595742 2023657633 -234881793</internalNodes>
          <leafValues>
            -1.2745097875595093e+00 9.7938144207000732e-01</leafValues></_>
        <_>
          <internalNodes>
            0 -1 80 -202382550 -892134581 5155778 -1771319019 136571074
            1242832962 -1190444606 1960174863</internalNodes>
          <leafValues>
            -1.3644491434097290e+00 8.8434386253356934e-01</leafValues></_>
        <_>
          <internalNodes>
            0 -1 42 404530424 869384337 525996503 868319957 -470871
            -2004745980 578984062 -1685579475</internalNodes>
          <leafValues>
            -1.3878395557403564e+00 8.0407989025115967e-01</leafValues></_>
        <_>
          <internalNodes>
            0 -1 99 -863254742 -1060679550 -1073722560 -469139191
            579863570 1083252754 -629046970 -188749929</internalNodes>
          <leafValues>
            -1.1071289777755737e+00 7.3227751255035400e-01</leafValues></_>
        <_>
          <internalNodes>
            0 -1 99 -863254677 -1060679550 -1073722560 -469139191
            579863571 1083252754 -629046970 -188749929</internalNodes>
          <leafValues>
            -1.1090519428253174e+00 8.0815565586090088e-01</leafValues></_>
        <_>
          <internalNodes>
            0 -1 34 -139265 -65 -1073741889 1879048191 -1342197761
            -131073 -8388609 -2097153</internalNodes>
          <leafValues>
            -6.2094271183013916e-01 4.6707062721252441e+00</leafValues></_>
        <_>
          <internalNodes>
            0 -1 63 -934283449 -292871907 277316869 1250701653 35881149
            -1609965312 -1618416621 -443885529</internalNodes>
          <leafValues>
            -1.1953879594802856e+00 9.8137456178665161e-01</leafValues></_></weakClassifiers></_>
    <!-- stage 19 -->
    <_>
      <maxWeakCount>5</maxWeakCount>
      <stageThreshold>-1.3925395011901855e+00</stageThreshold>
      <weakClassifiers>
        <_>
          <internalNodes>
            0 -1 53 -875040881 -829242955 1683832872 -1567932007
            407425293 1728954392 -1852918255 -138419713</internalNodes>
          <leafValues>
            -1.3642857074737549e+00 8.2727271318435669e-01</leafValues></_>
        <_>
          <internalNodes>
            0 -1 74 311439665 -46061641 -788310571 625058127 172264883
            -82535277 -1056341765 -1439688320</internalNodes>
          <leafValues>
            -1.3473851680755615e+00 8.1097221374511719e-01</leafValues></_>
        <_>
          <internalNodes>
            0 -1 57 1933760731 -245793168 1887436367 -1511000714
            -1857632769 -9635841 -899743809 93265915</internalNodes>
          <leafValues>
            -1.0234864950180054e+00 1.1137324571609497e+00</leafValues></_>
        <_>
          <internalNodes>
            0 -1 28 -605302526 197296193 604061760 -1010155372 37819295
            178262092 44065715 2072234987</internalNodes>
          <leafValues>
            -1.1032078266143799e+00 9.9337828159332275e-01</leafValues></_>
        <_>
          <internalNodes>
            0 -1 69 -146299161 2147221503 -1083179011 -268468225
            2010640383 -203 -7342497 -138940609</internalNodes>
          <leafValues>
            -7.8797936439514160e-01 1.7156542539596558e+00</leafValues></_></weakClassifiers></_></stages>
  <features>
    <_>
      <rect>
        0 8 2 3</rect></_>
    <_>
      <rect>
        0 9 2 2</rect></_>
    <_>
      <rect>
        0 9 2 3</rect></_>
    <_>
      <rect>
        0 9 2 4</rect></_>
    <_>
      <rect>
        0 13 1 2</rect></_>
    <_>
      <rect>
        0 21 6 1</rect></_>
    <_>
      <rect>
        1 0 2 6</rect></_>
    <_>
      <rect>
        1 11 2 1</rect></_>
    <_>
      <rect>
        1 16 1 2</rect></_>
    <_>
      <rect>
        1 16 17 2</rect></_>
    <_>
      <rect>
        1 18 8 2</rect></_>
    <_>
      <rect>
        2 11 2 1</rect></_>
    <_>
      <rect>
        2 18 18 2</rect></_>
    <_>
      <rect>
        3 17 14 2</rect></_>
    <_>
      <rect>
        4 9 8 1</rect></_>
    <_>
      <rect>
        4 12 18 3</rect></_>
    <_>
      <rect>
        5 1 3 1</rect></_>
    <_>
      <rect>
        5 1 9 2</rect></_>
    <_>
      <rect>
        5 12 3 2</rect></_>
    <_>
      <rect>
        6 18 4 2</rect></_>
    <_>
      <rect>
        6 21 6 1</rect></_>
    <_>
      <rect>
        7 6 12 1</rect></_>
    <_>
      <rect>
        7 8 16 1</rect></_>
    <_>
      <rect>
        7 10 3 4</rect></_>
    <_>
      <rect>
        7 12 2 4</rect></_>
    <_>
      <rect>
        8 5 15 2</rect></_>
    <_>
      <rect>
        8 18 8 2</rect></_>
    <_>
      <rect>
        8 19 5 1</rect></_>
    <_>
      <rect>
        9 10 2 3</rect></_>
    <_>
      <rect>
        9 16 16 2</rect></_>
    <_>
      <rect>
        10 0 14 5</rect></_>
    <_>
      <rect>
        10 4 15 2</rect></_>
    <_>
      <rect>
        10 6 14 2</rect></_>
    <_>
      <rect>
        11 1 8 2</rect></_>
    <_>
      <rect>
        11 5 12 2</rect></_>
    <_>
      <rect>
        11 12 1 2</rect></_>
    <_>
      <rect>
        11 18 16 2</rect></_>
    <_>
      <rect>
        12 17 6 2</rect></_>
    <_>
      <rect>
        13 6 9 2</rect></_>
    <_>
      <rect>
        13 11 2 2</rect></_>
    <_>
      <rect>
        14 5 3 3</rect></_>
    <_>
      <rect>
        14 10 9 3</rect></_>
    <_>
      <rect>
        14 18 11 2</rect></_>
    <_>
      <rect>
        14 21 6 1</rect></_>
    <_>
      <rect>
        15 5 11 3</rect></_>
    <_>
      <rect>
        15 7 2 3</rect></_>
    <_>
      <rect>
        15 11 1 2</rect></_>
    <_>
      <rect>
        17 4 6 2</rect></_>
    <_>
      <rect>
        17 9 1 2</rect></_>
    <_>
      <rect>
        17 10 1 3</rect></_>
    <_>
      <rect>
        18 9 6 4</rect></_>
    <_>
      <rect>
        18 11 1 2</rect></_>
    <_>
      <rect>
        18 12 6 4</rect></_>
    <_>
      <rect>
        18 14 1 1</rect></_>
    <_>
      <rect>
        19 1 2 1</rect></_>
    <_>
      <rect>
        19 14 1 1</rect></_>
    <_>
      <rect>
        20 0 3 1</rect></_>
    <_>
      <rect>
        20 8 11 2</rect></_>
    <_>
      <rect>
        21 1 1 1</rect></_>
    <_>
      <rect>
        21 1 2 4</rect></_>
    <_>
      <rect>
        21 2 2 4</rect></_>
    <_>
      <rect>
        21 3 2 3</rect></_>
    <_>
      <rect>
        21 11 4 3</rect></_>
    <_>
      <rect>
        23 12 3 2</rect></_>
    <_>
      <rect>
        24 1 11 2</rect></_>
    <_>
      <rect>
        24 20 5 1</rect></_>
    <_>
      <rect>
        25 0 8 2</rect></_>
    <_>
      <rect>
        25 6 6 2</rect></_>
    <_>
      <rect>
        25 21 11 1</rect></_>
    <_>
      <rect>
        26 5 3 3</rect></_>
    <_>
      <rect>
        26 9 2 1</rect></_>
    <_>
      <rect>
        27 3 6 1</rect></_>
    <_>
      <rect>
        27 10 3 3</rect></_>
    <_>
      <rect>
        29 6 3 3</rect></_>
    <_>
      <rect>
        30 2 3 1</rect></_>
    <_>
      <rect>
        30 18 4 1</rect></_>
    <_>
      <rect>
        31 15 2 3</rect></_>
    <_>
      <rect>
        32 8 2 3</rect></_>
    <_>
      <rect>
        32 10 3 3</rect></_>
    <_>
      <rect>
        33 8 3 2</rect></_>
    <_>
      <rect>
        34 7 2 4</rect></_>
    <_>
      <rect>
        34 9 1 1</rect></_>
    <_>
      <rect>
        34 12 2 3</rect></_>
    <_>
      <rect>
        36 11 3 3</rect></_>
    <_>
      <rect>
        38 16 3 2</rect></_>
    <_>
      <rect>
        38 21 6 1</rect></_>
    <_>
      <rect>
        39 0 3 5</rect></_>
    <_>
      <rect>
        42 0 4 2</rect></_>
    <_>
      <rect>
        43 2 5 2</rect></_>
    <_>
      <rect>
        44 9 3 3</rect></_>
    <_>
      <rect>
        45 2 2 1</rect></_>
    <_>
      <rect>
        45 11 4 3</rect></_>
    <_>
      <rect>
        45 15 3 3</rect></_>
    <_>
      <rect>
        45 20 2 1</rect></_>
    <_>
      <rect>
        48 13 4 3</rect></_>
    <_>
      <rect>
        51 18 3 2</rect></_>
    <_>
      <rect>
        52 6 2 4</rect></_>
    <_>
      <rect>
        54 11 2 3</rect></_>
    <_>
      <rect>
        54 12 2 3</rect></_>
    <_>
      <rect>
        56 14 1 1</rect></_>
    <_>
      <rect>
        57 6 1 2</rect></_>
    <_>
      <rect>
        57 7 1 2</rect></_>
    <_>
      <rect>
        57 8 1 3</rect></_>
    <_>
      <rect>
        57 12 1 1</rect></_>
    <_>
      <rect>
        57 15 1 2</rect></_></features></cascade>
</opencv_storage>
