<?xml version="1.0"?>
<opencv_storage>
<stage15>
  <maxWeakCount>6</maxWeakCount>
  <stageThreshold>-1.9312102794647217e+00</stageThreshold>
  <weakClassifiers>
    <_>
      <internalNodes>
        0 -1 47782 -6773768 999434389 823168345 -644019705 -1602184531
        -1643011071 -398280053 -1144813335</internalNodes>
      <leafValues>
        -1.3722627162933350e+00 7.7876108884811401e-01</leafValues></_>
    <_>
      <internalNodes>
        0 -1 31660 811611549 1830494685 -868396111 -83398359 877215881
        -791494528 -1478299682 1068775080</internalNodes>
      <leafValues>
        -1.6565641164779663e+00 6.6581785678863525e-01</leafValues></_>
    <_>
      <internalNodes>
        0 -1 31761 -790105725 -17 2147483647 -4097 -167838725 -268468225
        -2129930 -587733153</internalNodes>
      <leafValues>
        -8.3724051713943481e-01 1.3992487192153931e+00</leafValues></_>
    <_>
      <internalNodes>
        0 -1 21824 -553087029 -1059079 265256797 -604009123 -813391908
        -1056786 103796599 -806680017</internalNodes>
      <leafValues>
        -6.7327284812927246e-01 1.3400578498840332e+00</leafValues></_>
    <_>
      <internalNodes>
        0 -1 15133 -1208410627 -514 -16395 -835 2130468796 -268437507
        -34344961 -1611940741</internalNodes>
      <leafValues>
        -6.5146225690841675e-01 2.2078719139099121e+00</leafValues></_>
    <_>
      <internalNodes>
        0 -1 12815 1866233561 -1078201475 -1476610319 -1074036950
        2147417595 -5 -1879161347 -4802628</internalNodes>
      <leafValues>
        -9.9022763967514038e-01 1.6207158565521240e+00</leafValues></_></weakClassifiers></stage15>
</opencv_storage>
