<?xml version="1.0"?>
<opencv_storage>
<stage4>
  <maxWeakCount>5</maxWeakCount>
  <stageThreshold>-3.8059816360473633e+00</stageThreshold>
  <weakClassifiers>
    <_>
      <internalNodes>
        0 -1 49613 549459455 -2098345 -796704257 -12865027 -1985320449
        -1450581334 -1198659445 -1162211096</internalNodes>
      <leafValues>
        -1.5834829807281494e+00 1.0880360603332520e+00</leafValues></_>
    <_>
      <internalNodes>
        0 -1 4846 -810025713 -396779709 -180251378 -1396207158
        1359041559 1092601723 -519916941 -948442779</internalNodes>
      <leafValues>
        -1.4611964225769043e+00 9.5056807994842529e-01</leafValues></_>
    <_>
      <internalNodes>
        0 -1 36044 1056726525 2146203389 -285231115 -134291459
        1073610751 -1 -1095172111 -1103610552</internalNodes>
      <leafValues>
        -1.0689961910247803e+00 1.3492666482925415e+00</leafValues></_>
    <_>
      <internalNodes>
        0 -1 11969 1897163708 -753644144 266651 1971851558 813965481
        1670553728 -671083861 -1643641832</internalNodes>
      <leafValues>
        -1.2599029541015625e+00 9.3383133411407471e-01</leafValues></_>
    <_>
      <internalNodes>
        0 -1 37075 -1074258561 1340984316 -65805 -1493271047 -302710788
        -4243628 903806975 -1623167524</internalNodes>
      <leafValues>
        -1.1039223670959473e+00 1.2032022476196289e+00</leafValues></_></weakClassifiers></stage4>
</opencv_storage>
