<?xml version="1.0"?>
<opencv_storage>
<stage6>
  <maxWeakCount>5</maxWeakCount>
  <stageThreshold>-2.0090131759643555e+00</stageThreshold>
  <weakClassifiers>
    <_>
      <internalNodes>
        0 -1 1853 -355473914 -297548409 -1039990779 -699173813
        -1067072605 -1610547191 -1070739313 -438320505</internalNodes>
      <leafValues>
        -1.3546326160430908e+00 1.1978609561920166e+00</leafValues></_>
    <_>
      <internalNodes>
        0 -1 54258 -39336177 144546258 1104392192 -931180197 1132805458
        62947719 -475705065 -139470641</internalNodes>
      <leafValues>
        -1.1496102809906006e+00 1.2864427566528320e+00</leafValues></_>
    <_>
      <internalNodes>
        0 -1 36121 268448473 -14937773 -788151939 -1626759727 335599773
        -337536703 -2121144131 731520193</internalNodes>
      <leafValues>
        -1.3972702026367188e+00 9.7595614194869995e-01</leafValues></_>
    <_>
      <internalNodes>
        0 -1 38780 -680789246 -115879531 1410351440 -202841337
        -503164511 1426088066 -1072080320 2139083439</internalNodes>
      <leafValues>
        -1.2227956056594849e+00 9.3980139493942261e-01</leafValues></_>
    <_>
      <internalNodes>
        0 -1 27458 -832832218 170036227 -1052606463 -2137799417
        1112179013 536936491 -989109503 -626528553</internalNodes>
      <leafValues>
        -1.1531853675842285e+00 9.5269852876663208e-01</leafValues></_></weakClassifiers></stage6>
</opencv_storage>
