<?xml version="1.0"?>
<opencv_storage>
<stage12>
  <maxWeakCount>5</maxWeakCount>
  <stageThreshold>-1.6724995374679565e+00</stageThreshold>
  <weakClassifiers>
    <_>
      <internalNodes>
        0 -1 54236 -213391601 691110345 352534790 -846609593 -372125373
        755877 -473698043 -203169849</internalNodes>
      <leafValues>
        -1.2900158166885376e+00 1.1219512224197388e+00</leafValues></_>
    <_>
      <internalNodes>
        0 -1 1148 -32510194 216207680 -503242710 -366851954 -946119053
        806011233 -2021405211 -265362737</internalNodes>
      <leafValues>
        -1.2437179088592529e+00 1.0082622766494751e+00</leafValues></_>
    <_>
      <internalNodes>
        0 -1 14296 956570076 1501615201 -1056767657 826638929 143280782
        -15678806 194709919 255131875</internalNodes>
      <leafValues>
        -1.4128458499908447e+00 8.8505589962005615e-01</leafValues></_>
    <_>
      <internalNodes>
        0 -1 46354 1426559182 -1873505792 -2084429808 1159307653
        -644885878 1686110336 1636937887 1637551051</internalNodes>
      <leafValues>
        -1.2029548883438110e+00 9.6394127607345581e-01</leafValues></_>
    <_>
      <internalNodes>
        0 -1 31851 -781721171 -16387 -4097 -536887377 1442840063 -1
        -4117 -570440981</internalNodes>
      <leafValues>
        -9.2929142713546753e-01 1.3101388216018677e+00</leafValues></_></weakClassifiers></stage12>
</opencv_storage>
