<?xml version="1.0"?>
<opencv_storage>
<stage17>
  <maxWeakCount>10</maxWeakCount>
  <stageThreshold>-4.6786890029907227e+00</stageThreshold>
  <weakClassifiers>
    <_>
      <internalNodes>
        0 -1 54230 -211824889 1196763307 -520027904 -1029611053
        2005439047 1384866306 -611609535 -413405001</internalNodes>
      <leafValues>
        -1.2929292917251587e+00 9.0640395879745483e-01</leafValues></_>
    <_>
      <internalNodes>
        0 -1 28879 -619859012 -615280609 487621884 895595853 -401026854
        -1736441655 -1008881649 -105195443</internalNodes>
      <leafValues>
        -1.1614530086517334e+00 1.0732517242431641e+00</leafValues></_>
    <_>
      <internalNodes>
        0 -1 44800 -827473023 -1071431625 289415435 -462844859
        2048557247 622600 -758983290 -155592277</internalNodes>
      <leafValues>
        -9.7076976299285889e-01 1.1609666347503662e+00</leafValues></_>
    <_>
      <internalNodes>
        0 -1 36546 -661548107 -934992 2147483583 2146926451 -27871749
        -67665993 2004201471 2069303731</internalNodes>
      <leafValues>
        -9.5319706201553345e-01 1.1340910196304321e+00</leafValues></_>
    <_>
      <internalNodes>
        0 -1 8145 -32769 -1 -9 -1 -1 -524417 -513 -1</internalNodes>
      <leafValues>
        -1.7765162885189056e-01 9.5450935363769531e+00</leafValues></_>
    <_>
      <internalNodes>
        0 -1 10009 -757727761 275032091 -2107998206 -685947831
        -2100734278 26259458 -1778250550 -208747641</internalNodes>
      <leafValues>
        -9.8994380235671997e-01 9.2687803506851196e-01</leafValues></_>
    <_>
      <internalNodes>
        0 -1 41816 -1826488120 -1316913071 -1052749634 -640317431
        25722012 -1165393117 -2105374033 -292911089</internalNodes>
      <leafValues>
        -1.0837006568908691e+00 9.3390846252441406e-01</leafValues></_>
    <_>
      <internalNodes>
        0 -1 42585 -1823105057 385916934 8471 -1868529141 -1999058035
        706232448 -1967128381 -1075152443</internalNodes>
      <leafValues>
        -1.1834977865219116e+00 8.2474160194396973e-01</leafValues></_>
    <_>
      <internalNodes>
        0 -1 50897 -9054213 -539361554 327098635 2013163262 -873504801
        1140701167 -102826001 1996488174</internalNodes>
      <leafValues>
        -1.0098063945770264e+00 1.4329980611801147e+00</leafValues></_>
    <_>
      <internalNodes>
        0 -1 8414 -536870913 -2097153 -71307265 -8388609 -1 -1 -4194305
        -5</internalNodes>
      <leafValues>
        -1.7773257195949554e-01 9.7187290191650391e+00</leafValues></_></weakClassifiers></stage17>
</opencv_storage>
