<?xml version="1.0"?>
<opencv_storage>
<stage3>
  <maxWeakCount>4</maxWeakCount>
  <stageThreshold>-2.3777039051055908e+00</stageThreshold>
  <weakClassifiers>
    <_>
      <internalNodes>
        0 -1 8941 397942237 -2138629 1467990015 -163841 -1747058945
        -1073741825 -1342179329 -1079042622</internalNodes>
      <leafValues>
        -1.3383915424346924e+00 1.4134896993637085e+00</leafValues></_>
    <_>
      <internalNodes>
        0 -1 17293 286322840 1494286865 1073840607 2130776101 -117399377
        1495310480 1409581567 520822923</internalNodes>
      <leafValues>
        -1.1518894433975220e+00 1.3149807453155518e+00</leafValues></_>
    <_>
      <internalNodes>
        0 -1 32428 -879255090 2043527499 -2096593777 2097916037
        402895775 1227116586 -536429685 -149163265</internalNodes>
      <leafValues>
        -1.1239967346191406e+00 1.2680917978286743e+00</leafValues></_>
    <_>
      <internalNodes>
        0 -1 12039 -71500035 -1073741832 -1 -17155 1065287643
        -1073741955 -286064641 -1166533284</internalNodes>
      <leafValues>
        -1.0025851726531982e+00 1.2365738153457642e+00</leafValues></_></weakClassifiers></stage3>
</opencv_storage>
