<?xml version="1.0"?>
<opencv_storage>
<stage16>
  <maxWeakCount>9</maxWeakCount>
  <stageThreshold>-5.2068791389465332e+00</stageThreshold>
  <weakClassifiers>
    <_>
      <internalNodes>
        0 -1 53442 -1258032712 470585433 -1056859947 2107627803
        -1861648980 -1465792984 -1742487300 -1094726727</internalNodes>
      <leafValues>
        -1.4060150384902954e+00 7.4358975887298584e-01</leafValues></_>
    <_>
      <internalNodes>
        0 -1 24632 -136577146 -779227763 -1606418261 -738084742
        1082905610 1233261610 -913852989 -2130983672</internalNodes>
      <leafValues>
        -1.1914495229721069e+00 9.8927962779998779e-01</leafValues></_>
    <_>
      <internalNodes>
        0 -1 19337 -360977405 1861996215 -805393353 -318787665 -16623
        1207861215 1996486455 -201589409</internalNodes>
      <leafValues>
        -1.0587121248245239e+00 1.1714942455291748e+00</leafValues></_>
    <_>
      <internalNodes>
        0 -1 3450 -653095686 -105840624 2265361 -1824314336 1080558248
        -635764478 -2121654077 135931602</internalNodes>
      <leafValues>
        -1.3422926664352417e+00 8.3171761035919189e-01</leafValues></_>
    <_>
      <internalNodes>
        0 -1 1047 -1057504025 1640219107 -1598269374 -926044131
        -1400727489 1904836739 -788275190 -460595445</internalNodes>
      <leafValues>
        -9.8279690742492676e-01 9.8752057552337646e-01</leafValues></_>
    <_>
      <internalNodes>
        0 -1 51404 -539037734 2139600687 1594371231 1602064317 -606502
        -285491271 -1210589233 -625213975</internalNodes>
      <leafValues>
        -9.2870074510574341e-01 1.2513473033905029e+00</leafValues></_>
    <_>
      <internalNodes>
        0 -1 52563 -268437523 973074300 2147351224 -17301511 -276857476
        1971322807 1060454397 2139094525</internalNodes>
      <leafValues>
        -1.0998404026031494e+00 1.2822747230529785e+00</leafValues></_>
    <_>
      <internalNodes>
        0 -1 24507 -244851593 -34783516 -1073758337 -536904195
        1609494203 -268554356 -268502326 -145258551</internalNodes>
      <leafValues>
        -9.0089088678359985e-01 1.6837453842163086e+00</leafValues></_>
    <_>
      <internalNodes>
        0 -1 30376 -1730519683 -573222620 889508059 390531393 1489089439
        -1934344055 -1979709056 -1091820599</internalNodes>
      <leafValues>
        -1.3044635057449341e+00 1.1191829442977905e+00</leafValues></_></weakClassifiers></stage16>
</opencv_storage>
