<?xml version="1.0"?>
<opencv_storage>
<stage19>
  <maxWeakCount>5</maxWeakCount>
  <stageThreshold>-1.3925395011901855e+00</stageThreshold>
  <weakClassifiers>
    <_>
      <internalNodes>
        0 -1 28954 -875040881 -829242955 1683832872 -1567932007
        407425293 1728954392 -1852918255 -138419713</internalNodes>
      <leafValues>
        -1.3642857074737549e+00 8.2727271318435669e-01</leafValues></_>
    <_>
      <internalNodes>
        0 -1 41104 311439665 -46061641 -788310571 625058127 172264883
        -82535277 -1056341765 -1439688320</internalNodes>
      <leafValues>
        -1.3473851680755615e+00 8.1097221374511719e-01</leafValues></_>
    <_>
      <internalNodes>
        0 -1 31087 1933760731 -245793168 1887436367 -1511000714
        -1857632769 -9635841 -899743809 93265915</internalNodes>
      <leafValues>
        -1.0234864950180054e+00 1.1137324571609497e+00</leafValues></_>
    <_>
      <internalNodes>
        0 -1 16240 -605302526 197296193 604061760 -1010155372 37819295
        178262092 44065715 2072234987</internalNodes>
      <leafValues>
        -1.1032078266143799e+00 9.9337828159332275e-01</leafValues></_>
    <_>
      <internalNodes>
        0 -1 37475 -146299161 2147221503 -1083179011 -268468225
        2010640383 -203 -7342497 -138940609</internalNodes>
      <leafValues>
        -7.8797936439514160e-01 1.7156542539596558e+00</leafValues></_></weakClassifiers></stage19>
</opencv_storage>
