<?xml version="1.0"?>
<opencv_storage>
<stage18>
  <maxWeakCount>7</maxWeakCount>
  <stageThreshold>-3.6337544918060303e+00</stageThreshold>
  <weakClassifiers>
    <_>
      <internalNodes>
        0 -1 30165 -405290193 -1905389029 1342931990 -992042831
        1628105594 48595742 2023657633 -234881793</internalNodes>
      <leafValues>
        -1.2745097875595093e+00 9.7938144207000732e-01</leafValues></_>
    <_>
      <internalNodes>
        0 -1 44728 -202382550 -892134581 5155778 -1771319019 136571074
        1242832962 -1190444606 1960174863</internalNodes>
      <leafValues>
        -1.3644491434097290e+00 8.8434386253356934e-01</leafValues></_>
    <_>
      <internalNodes>
        0 -1 23866 404530424 869384337 525996503 868319957 -470871
        -2004745980 578984062 -1685579475</internalNodes>
      <leafValues>
        -1.3878395557403564e+00 8.0407989025115967e-01</leafValues></_>
    <_>
      <internalNodes>
        0 -1 54173 -863254742 -1060679550 -1073722560 -469139191
        579863570 1083252754 -629046970 -188749929</internalNodes>
      <leafValues>
        -1.1071289777755737e+00 7.3227751255035400e-01</leafValues></_>
    <_>
      <internalNodes>
        0 -1 54173 -863254677 -1060679550 -1073722560 -469139191
        579863571 1083252754 -629046970 -188749929</internalNodes>
      <leafValues>
        -1.1090519428253174e+00 8.0815565586090088e-01</leafValues></_>
    <_>
      <internalNodes>
        0 -1 18843 -139265 -65 -1073741889 1879048191 -1342197761
        -131073 -8388609 -2097153</internalNodes>
      <leafValues>
        -6.2094271183013916e-01 4.6707062721252441e+00</leafValues></_>
    <_>
      <internalNodes>
        0 -1 34705 -934283449 -292871907 277316869 1250701653 35881149
        -1609965312 -1618416621 -443885529</internalNodes>
      <leafValues>
        -1.1953879594802856e+00 9.8137456178665161e-01</leafValues></_></weakClassifiers></stage18>
</opencv_storage>
