<?xml version="1.0"?>
<opencv_storage>
<stage2>
  <maxWeakCount>5</maxWeakCount>
  <stageThreshold>-1.1730064153671265e+00</stageThreshold>
  <weakClassifiers>
    <_>
      <internalNodes>
        0 -1 77508 -17998914 -116662507 2013401116 889716743 -889023762
        -661089916 2040175598 -5572625</internalNodes>
      <leafValues>
        -8.7730062007904053e-01 7.4617463350296021e-01</leafValues></_>
    <_>
      <internalNodes>
        0 -1 60370 1635207711 -985327579 21046559 1528238415 286050527
        -884260087 -92219233 2131386047</internalNodes>
      <leafValues>
        -7.9725366830825806e-01 6.9288504123687744e-01</leafValues></_>
    <_>
      <internalNodes>
        0 -1 65127 -218244018 -1929276922 -953482694 362621070
        -1677462994 -619480894 -1441713713 -257163602</internalNodes>
      <leafValues>
        -8.6633014678955078e-01 6.2976574897766113e-01</leafValues></_>
    <_>
      <internalNodes>
        0 -1 31811 -670150116 -1860058107 1078988877 -687734775
        -1743627860 1478500360 -1073423393 -2440822</internalNodes>
      <leafValues>
        -8.6632794141769409e-01 8.2416307926177979e-01</leafValues></_>
    <_>
      <internalNodes>
        0 -1 44049 -804825767 -1018445822 -2129031160 -653684733
        -524042037 -2095152000 -1742468965 -1442780289</internalNodes>
      <leafValues>
        -8.6316704750061035e-01 7.3811012506484985e-01</leafValues></_></weakClassifiers></stage2>
</opencv_storage>
