<?xml version="1.0"?>
<opencv_storage>
<stage12>
  <maxWeakCount>7</maxWeakCount>
  <stageThreshold>-1.4348633289337158e+00</stageThreshold>
  <weakClassifiers>
    <_>
      <internalNodes>
        0 -1 70201 1040007360 -532458415 411223157 -130723481 -351870037
        -266234878 -1541640081 -762683973</internalNodes>
      <leafValues>
        -8.2608693838119507e-01 6.2563240528106689e-01</leafValues></_>
    <_>
      <internalNodes>
        0 -1 77030 -679402311 -1894489841 668307356 -582338387
        1109426937 -517814161 1889580282 -410326084</internalNodes>
      <leafValues>
        -7.1198546886444092e-01 5.8019369840621948e-01</leafValues></_>
    <_>
      <internalNodes>
        0 -1 77451 -149687329 -1693240497 1350642305 -108580461
        -753231722 -1696989168 1253760655 -923104850</internalNodes>
      <leafValues>
        -6.1933028697967529e-01 6.8514525890350342e-01</leafValues></_>
    <_>
      <internalNodes>
        0 -1 89897 -1160556429 -715309054 171983259 1281116241
        -2004746117 -939505118 2031779979 1795705599</internalNodes>
      <leafValues>
        -7.8098326921463013e-01 7.5131422281265259e-01</leafValues></_>
    <_>
      <internalNodes>
        0 -1 36113 1120865611 -950312873 1611302229 -717197149
        -1949298545 -2117357179 126126729 -14632481</internalNodes>
      <leafValues>
        -9.1355919837951660e-01 5.6281483173370361e-01</leafValues></_>
    <_>
      <internalNodes>
        0 -1 77022 -203955829 -2092761059 287982506 -38398109
        -1979689582 -1311266164 1343292131 -585148246</internalNodes>
      <leafValues>
        -7.9717016220092773e-01 6.5777277946472168e-01</leafValues></_>
    <_>
      <internalNodes>
        0 -1 73049 -104446068 -1916677137 42926375 1579437845
        -2136807217 -1744207739 1208136011 -204233841</internalNodes>
      <leafValues>
        -9.1470015048980713e-01 5.6467586755752563e-01</leafValues></_></weakClassifiers></stage12>
</opencv_storage>
