<?xml version="1.0"?>
<opencv_storage>
<cascade>
  <stageType>BOOST</stageType>
  <featureType>LBP</featureType>
  <height>40</height>
  <width>54</width>
  <stageParams>
    <boostType>GAB</boostType>
    <minHitRate>9.9900001287460327e-01</minHitRate>
    <maxFalseAlarm>5.0000000000000000e-01</maxFalseAlarm>
    <weightTrimRate>9.4999999999999996e-01</weightTrimRate>
    <maxDepth>1</maxDepth>
    <maxWeakCount>100</maxWeakCount></stageParams>
  <featureParams>
    <maxCatCount>256</maxCatCount></featureParams>
  <stageNum>20</stageNum>
  <stages>
    <!-- stage 0 -->
    <_>
      <maxWeakCount>2</maxWeakCount>
      <stageThreshold>-3.1564176082611084e-01</stageThreshold>
      <weakClassifiers>
        <_>
          <internalNodes>
            0 -1 16 -646719282 -44613338 -1610072036 1951281154
            -729560882 -1953914343 -158807862 -1124103478</internalNodes>
          <leafValues>
            -9.3435448408126831e-01 7.2353458404541016e-01</leafValues></_>
        <_>
          <internalNodes>
            0 -1 77 -540017714 453477890 268993235 2072216355 -924785177
            98304 384024650 1399319075</internalNodes>
          <leafValues>
            -9.0116709470748901e-01 6.1871272325515747e-01</leafValues></_></weakClassifiers></_>
    <!-- stage 1 -->
    <_>
      <maxWeakCount>2</maxWeakCount>
      <stageThreshold>-1.0688626021146774e-01</stageThreshold>
      <weakClassifiers>
        <_>
          <internalNodes>
            0 -1 13 -183443256 -191819767 1073827999 -788221553
            -523714360 -1735786472 -1027038993 -204240977</internalNodes>
          <leafValues>
            -8.7903225421905518e-01 7.5724637508392334e-01</leafValues></_>
        <_>
          <internalNodes>
            0 -1 47 1942937023 -1740521457 324042831 -585914089
            -268402006 -1463514947 2030457740 -552411141</internalNodes>
          <leafValues>
            -7.3613703250885010e-01 7.7214598655700684e-01</leafValues></_></weakClassifiers></_>
    <!-- stage 2 -->
    <_>
      <maxWeakCount>5</maxWeakCount>
      <stageThreshold>-1.1730064153671265e+00</stageThreshold>
      <weakClassifiers>
        <_>
          <internalNodes>
            0 -1 58 -17998914 -116662507 2013401116 889716743 -889023762
            -661089916 2040175598 -5572625</internalNodes>
          <leafValues>
            -8.7730062007904053e-01 7.4617463350296021e-01</leafValues></_>
        <_>
          <internalNodes>
            0 -1 17 1635207711 -985327579 21046559 1528238415 286050527
            -884260087 -92219233 2131386047</internalNodes>
          <leafValues>
            -7.9725366830825806e-01 6.9288504123687744e-01</leafValues></_>
        <_>
          <internalNodes>
            0 -1 22 -218244018 -1929276922 -953482694 362621070
            -1677462994 -619480894 -1441713713 -257163602</internalNodes>
          <leafValues>
            -8.6633014678955078e-01 6.2976574897766113e-01</leafValues></_>
        <_>
          <internalNodes>
            0 -1 3 -670150116 -1860058107 1078988877 -687734775
            -1743627860 1478500360 -1073423393 -2440822</internalNodes>
          <leafValues>
            -8.6632794141769409e-01 8.2416307926177979e-01</leafValues></_>
        <_>
          <internalNodes>
            0 -1 10 -804825767 -1018445822 -2129031160 -653684733
            -524042037 -2095152000 -1742468965 -1442780289</internalNodes>
          <leafValues>
            -8.6316704750061035e-01 7.3811012506484985e-01</leafValues></_></weakClassifiers></_>
    <!-- stage 3 -->
    <_>
      <maxWeakCount>4</maxWeakCount>
      <stageThreshold>-3.8055440783500671e-01</stageThreshold>
      <weakClassifiers>
        <_>
          <internalNodes>
            0 -1 12 -11482112 -419278767 -645703261 -70021887 -374095649
            -1377105599 -1165318581 -282929529</internalNodes>
          <leafValues>
            -8.9616250991821289e-01 6.8885046243667603e-01</leafValues></_>
        <_>
          <internalNodes>
            0 -1 66 -281290019 1568793615 -1961689074 -1759559599
            1074797592 67239944 1771559675 -555758178</internalNodes>
          <leafValues>
            -7.6120132207870483e-01 7.0000159740447998e-01</leafValues></_>
        <_>
          <internalNodes>
            0 -1 89 855594099 -211478422 -799319853 1398763783
            -2096998353 -360703277 -1289043745 1999297743</internalNodes>
          <leafValues>
            -8.0591684579849243e-01 6.3014346361160278e-01</leafValues></_>
        <_>
          <internalNodes>
            0 -1 69 -483149585 -921370289 1092632851 -754900657
            -1061993941 -2147368704 287408615 1497186631</internalNodes>
          <leafValues>
            -8.1453686952590942e-01 7.9827421903610229e-01</leafValues></_></weakClassifiers></_>
    <!-- stage 4 -->
    <_>
      <maxWeakCount>5</maxWeakCount>
      <stageThreshold>-1.0897916555404663e+00</stageThreshold>
      <weakClassifiers>
        <_>
          <internalNodes>
            0 -1 68 -543407979 2145151668 17535251 -134270073
            -1865900125 -274200565 -1030821665 -153160773</internalNodes>
          <leafValues>
            -7.2972971200942993e-01 7.1903884410858154e-01</leafValues></_>
        <_>
          <internalNodes>
            0 -1 63 -1185435201 1570349567 406897461 -305016807
            -1841083720 1621786697 1077991459 1377024943</internalNodes>
          <leafValues>
            -8.4676235914230347e-01 6.3267827033996582e-01</leafValues></_>
        <_>
          <internalNodes>
            0 -1 83 -1135894430 -148561210 1937981727 -548433397
            -1006589942 -1282301815 1782773643 -640942109</internalNodes>
          <leafValues>
            -7.6283776760101318e-01 6.7463093996047974e-01</leafValues></_>
        <_>
          <internalNodes>
            0 -1 9 -1836030666 -1623090544 273705226 -111767150
            -2126474312 -134217088 134277509 -3233602</internalNodes>
          <leafValues>
            -8.6969381570816040e-01 8.0846744775772095e-01</leafValues></_>
        <_>
          <internalNodes>
            0 -1 46 536862207 -16843009 -98305 -1085931651 -4210754
            -81921 -98466 -1086652417</internalNodes>
          <leafValues>
            -7.6700520515441895e-01 7.9165470600128174e-01</leafValues></_></weakClassifiers></_>
    <!-- stage 5 -->
    <_>
      <maxWeakCount>4</maxWeakCount>
      <stageThreshold>-1.7090163230895996e+00</stageThreshold>
      <weakClassifiers>
        <_>
          <internalNodes>
            0 -1 74 -214178610 -610823548 -226256838 -147205352
            -82330710 -1626930158 -1155338545 1661403935</internalNodes>
          <leafValues>
            -9.4458436965942383e-01 6.4422279596328735e-01</leafValues></_>
        <_>
          <internalNodes>
            0 -1 26 -591801251 -1081787389 -738075297 -175847393
            -720318801 -879198069 -1067933303 1563425711</internalNodes>
          <leafValues>
            -7.9946058988571167e-01 6.0159438848495483e-01</leafValues></_>
        <_>
          <internalNodes>
            0 -1 42 1392219378 -148700891 37535835 -237465189
            -1826561830 -745774894 -1701262849 -136459349</internalNodes>
          <leafValues>
            -7.5284892320632935e-01 6.3286370038986206e-01</leafValues></_>
        <_>
          <internalNodes>
            0 -1 1 1187987843 2009563670 67666449 855666843 1082261922
            1744831618 23199898 -83867247</internalNodes>
          <leafValues>
            -8.0092960596084595e-01 7.7820891141891479e-01</leafValues></_></weakClassifiers></_>
    <!-- stage 6 -->
    <_>
      <maxWeakCount>4</maxWeakCount>
      <stageThreshold>-4.5235982537269592e-01</stageThreshold>
      <weakClassifiers>
        <_>
          <internalNodes>
            0 -1 33 -1290540374 -112148096 -1861532800 858751744
            50461179 -1853452159 -267523401 -788799669</internalNodes>
          <leafValues>
            -7.6890754699707031e-01 6.8149465322494507e-01</leafValues></_>
        <_>
          <internalNodes>
            0 -1 15 -531955472 -14978862 -721413861 -250007531
            -1333300865 553705874 -223675989 -83747853</internalNodes>
          <leafValues>
            -8.4398388862609863e-01 5.8265531063079834e-01</leafValues></_>
        <_>
          <internalNodes>
            0 -1 99 -744297854 -972865528 -1056800224 -754431966
            -1341996671 510082 134365515 1125119947</internalNodes>
          <leafValues>
            -8.0967724323272705e-01 5.9023618698120117e-01</leafValues></_>
        <_>
          <internalNodes>
            0 -1 5 -661467522 -1020194704 336778070 1511030988
            -528481494 -1564467197 1074451434 1298778995</internalNodes>
          <leafValues>
            -8.8010674715042114e-01 7.0671617984771729e-01</leafValues></_></weakClassifiers></_>
    <!-- stage 7 -->
    <_>
      <maxWeakCount>5</maxWeakCount>
      <stageThreshold>-8.7857043743133545e-01</stageThreshold>
      <weakClassifiers>
        <_>
          <internalNodes>
            0 -1 7 -1321435055 -107888621 268652636 1884782648
            -1449534882 -425829 -1374966789 -68202113</internalNodes>
          <leafValues>
            -6.4579606056213379e-01 7.3102784156799316e-01</leafValues></_>
        <_>
          <internalNodes>
            0 -1 35 -11429473 290719902 3196281 -616611589 1887623635
            -895942125 1067598665 992622351</internalNodes>
          <leafValues>
            -7.9092794656753540e-01 5.9054881334304810e-01</leafValues></_>
        <_>
          <internalNodes>
            0 -1 45 -1742799908 -669855545 285804547 1594225427
            -1622947186 96666194 404969999 -579895521</internalNodes>
          <leafValues>
            -8.0324763059616089e-01 5.8094620704650879e-01</leafValues></_>
        <_>
          <internalNodes>
            0 -1 11 2129596731 1307697151 -3 -1966087 -536944641
            1878982654 -65537 1868627965</internalNodes>
          <leafValues>
            -6.3728344440460205e-01 8.0522674322128296e-01</leafValues></_>
        <_>
          <internalNodes>
            0 -1 72 -85982993 -1868365411 -2139050477 1719961739
            -1257701299 -113246177 -1860593017 1530632475</internalNodes>
          <leafValues>
            -7.6233315467834473e-01 7.2258371114730835e-01</leafValues></_></weakClassifiers></_>
    <!-- stage 8 -->
    <_>
      <maxWeakCount>4</maxWeakCount>
      <stageThreshold>-3.1390112638473511e-01</stageThreshold>
      <weakClassifiers>
        <_>
          <internalNodes>
            0 -1 64 -681577054 -574121834 -921472990 1462225632
            -477559815 -1878769021 -871638109 1459869187</internalNodes>
          <leafValues>
            -8.8630491495132446e-01 6.1253088712692261e-01</leafValues></_>
        <_>
          <internalNodes>
            0 -1 62 -456465279 -208916073 -2008739427 -1802198579
            806367370 -1964302206 -223827809 -1587073</internalNodes>
          <leafValues>
            -7.3600000143051147e-01 6.2737929821014404e-01</leafValues></_>
        <_>
          <internalNodes>
            0 -1 104 1894269036 -1115484004 -1043824247 834097243
            -1573862997 -813023067 -259069273 -292892691</internalNodes>
          <leafValues>
            -8.1798440217971802e-01 5.4336988925933838e-01</leafValues></_>
        <_>
          <internalNodes>
            0 -1 20 -1078141385 2130575342 -45380 -28311633 1069186943
            -1073938433 -1073807425 1057161215</internalNodes>
          <leafValues>
            -6.8263185024261475e-01 7.6503384113311768e-01</leafValues></_></weakClassifiers></_>
    <!-- stage 9 -->
    <_>
      <maxWeakCount>6</maxWeakCount>
      <stageThreshold>-1.8511513471603394e+00</stageThreshold>
      <weakClassifiers>
        <_>
          <internalNodes>
            0 -1 41 -1928862974 -882831100 -782196701 1979517258
            -2113683038 -889044683 115690 -93931898</internalNodes>
          <leafValues>
            -8.4886652231216431e-01 6.1263507604598999e-01</leafValues></_>
        <_>
          <internalNodes>
            0 -1 67 -63491890 322177045 -2038328289 2110788185
            -662175602 -50200189 -519390277 -331697</internalNodes>
          <leafValues>
            -7.2304195165634155e-01 5.8100455999374390e-01</leafValues></_>
        <_>
          <internalNodes>
            0 -1 55 -1715214934 1828946182 -1042167808 -1320689133
            151216550 406975506 521370585 -2071987427</internalNodes>
          <leafValues>
            -8.6779361963272095e-01 5.0994354486465454e-01</leafValues></_>
        <_>
          <internalNodes>
            0 -1 40 -1073690544 -1825420015 -2088467862 -412122231
            -813523746 -1733731839 -1316818762 1983808235</internalNodes>
          <leafValues>
            -8.7181925773620605e-01 7.0813965797424316e-01</leafValues></_>
        <_>
          <internalNodes>
            0 -1 8 -224229876 -915009251 -2097131055 -240123377
            -258938487 152797184 -1066276365 -362050773</internalNodes>
          <leafValues>
            -8.6288338899612427e-01 6.8807446956634521e-01</leafValues></_>
        <_>
          <internalNodes>
            0 -1 61 1968390399 -135299097 -59834370 -135299489 -33619970
            -134250625 -8454145 -857997569</internalNodes>
          <leafValues>
            -6.8920606374740601e-01 8.2315915822982788e-01</leafValues></_></weakClassifiers></_>
    <!-- stage 10 -->
    <_>
      <maxWeakCount>4</maxWeakCount>
      <stageThreshold>-4.6662515401840210e-01</stageThreshold>
      <weakClassifiers>
        <_>
          <internalNodes>
            0 -1 48 -1207962334 1095483567 -1073741522 -241196150
            -919633014 1771176090 604111258 1942484422</internalNodes>
          <leafValues>
            -8.0600464344024658e-01 6.4181661605834961e-01</leafValues></_>
        <_>
          <internalNodes>
            0 -1 100 1917582912 1947482736 584040747 2131853952
            -1055928370 -1060994893 -519657078 -168843890</internalNodes>
          <leafValues>
            -7.2977489233016968e-01 5.8542734384536743e-01</leafValues></_>
        <_>
          <internalNodes>
            0 -1 27 -1855901403 1798128057 -1054633726 2064847510
            -890725658 -998121277 781951922 -1063407373</internalNodes>
          <leafValues>
            -7.6409107446670532e-01 5.4841232299804688e-01</leafValues></_>
        <_>
          <internalNodes>
            0 -1 32 -237507798 -2007268450 -1056631934 -1249892960
            -2082537044 -1593048665 -1853106552 890760162</internalNodes>
          <leafValues>
            -9.2707926034927368e-01 7.1410304307937622e-01</leafValues></_></weakClassifiers></_>
    <!-- stage 11 -->
    <_>
      <maxWeakCount>8</maxWeakCount>
      <stageThreshold>-2.2483155727386475e+00</stageThreshold>
      <weakClassifiers>
        <_>
          <internalNodes>
            0 -1 29 -24755132 2078623167 25369917 1544094807 -1964974609
            -840838717 -1506405889 -409966637</internalNodes>
          <leafValues>
            -9.5415472984313965e-01 5.8593124151229858e-01</leafValues></_>
        <_>
          <internalNodes>
            0 -1 86 -797451388 -1038546643 -1056755054 -778468773
            1803749254 1077280988 192974098 -103813146</internalNodes>
          <leafValues>
            -7.6716583967208862e-01 5.5074065923690796e-01</leafValues></_>
        <_>
          <internalNodes>
            0 -1 91 -7495126 -4215809 -1080198392 792420963 -1079008561
            1858071471 -1073774789 92261119</internalNodes>
          <leafValues>
            -6.9793665409088135e-01 7.7315872907638550e-01</leafValues></_>
        <_>
          <internalNodes>
            0 -1 54 1376511906 -2096168949 -2146876928 -298847221
            -469690701 10158568 2047256083 -998275493</internalNodes>
          <leafValues>
            -7.5775939226150513e-01 6.8427968025207520e-01</leafValues></_>
        <_>
          <internalNodes>
            0 -1 54 1376511906 -2096168949 -2130099580 -298847221
            -469690701 10158568 2047256083 -192969125</internalNodes>
          <leafValues>
            -7.3049765825271606e-01 7.1692901849746704e-01</leafValues></_>
        <_>
          <internalNodes>
            0 -1 56 -251427141 -80482159 -1853783675 -589963007
            -1323217991 -594982867 -38027177 1554863595</internalNodes>
          <leafValues>
            -8.4519481658935547e-01 7.7364134788513184e-01</leafValues></_>
        <_>
          <internalNodes>
            0 -1 70 -242875286 1107640412 274210561 -666041845
            -1073459016 -1633156608 -635813286 -16843029</internalNodes>
          <leafValues>
            -9.7263121604919434e-01 5.7261246442794800e-01</leafValues></_>
        <_>
          <internalNodes>
            0 -1 78 -74712241 -1173909483 688965231 101158147 -750598842
            453759368 816506938 1206862139</internalNodes>
          <leafValues>
            -9.7903835773468018e-01 6.1903220415115356e-01</leafValues></_></weakClassifiers></_>
    <!-- stage 12 -->
    <_>
      <maxWeakCount>7</maxWeakCount>
      <stageThreshold>-1.4348633289337158e+00</stageThreshold>
      <weakClassifiers>
        <_>
          <internalNodes>
            0 -1 30 1040007360 -532458415 411223157 -130723481
            -351870037 -266234878 -1541640081 -762683973</internalNodes>
          <leafValues>
            -8.2608693838119507e-01 6.2563240528106689e-01</leafValues></_>
        <_>
          <internalNodes>
            0 -1 52 -679402311 -1894489841 668307356 -582338387
            1109426937 -517814161 1889580282 -410326084</internalNodes>
          <leafValues>
            -7.1198546886444092e-01 5.8019369840621948e-01</leafValues></_>
        <_>
          <internalNodes>
            0 -1 57 -149687329 -1693240497 1350642305 -108580461
            -753231722 -1696989168 1253760655 -923104850</internalNodes>
          <leafValues>
            -6.1933028697967529e-01 6.8514525890350342e-01</leafValues></_>
        <_>
          <internalNodes>
            0 -1 81 -1160556429 -715309054 171983259 1281116241
            -2004746117 -939505118 2031779979 1795705599</internalNodes>
          <leafValues>
            -7.8098326921463013e-01 7.5131422281265259e-01</leafValues></_>
        <_>
          <internalNodes>
            0 -1 4 1120865611 -950312873 1611302229 -717197149
            -1949298545 -2117357179 126126729 -14632481</internalNodes>
          <leafValues>
            -9.1355919837951660e-01 5.6281483173370361e-01</leafValues></_>
        <_>
          <internalNodes>
            0 -1 50 -203955829 -2092761059 287982506 -38398109
            -1979689582 -1311266164 1343292131 -585148246</internalNodes>
          <leafValues>
            -7.9717016220092773e-01 6.5777277946472168e-01</leafValues></_>
        <_>
          <internalNodes>
            0 -1 37 -104446068 -1916677137 42926375 1579437845
            -2136807217 -1744207739 1208136011 -204233841</internalNodes>
          <leafValues>
            -9.1470015048980713e-01 5.6467586755752563e-01</leafValues></_></weakClassifiers></_>
    <!-- stage 13 -->
    <_>
      <maxWeakCount>6</maxWeakCount>
      <stageThreshold>-7.6799297332763672e-01</stageThreshold>
      <weakClassifiers>
        <_>
          <internalNodes>
            0 -1 85 406059579 826699946 -2112997257 -736307059 554934771
            -685301618 1410642479 336072710</internalNodes>
          <leafValues>
            -8.7431693077087402e-01 5.8346837759017944e-01</leafValues></_>
        <_>
          <internalNodes>
            0 -1 23 1426498090 1463128297 -770614183 2014144576
            1225140746 -1694428752 432674983 -73926261</internalNodes>
          <leafValues>
            -8.3354896306991577e-01 4.9502411484718323e-01</leafValues></_>
        <_>
          <internalNodes>
            0 -1 25 -402326496 1277494512 -1840249547 1980171408
            -684553038 -1524300790 -132325243 -334329698</internalNodes>
          <leafValues>
            -9.1823852062225342e-01 6.9248169660568237e-01</leafValues></_>
        <_>
          <internalNodes>
            0 -1 79 -278154366 -1171287896 -981445850 -707002349
            -1329529862 10781064 1737245610 1995047562</internalNodes>
          <leafValues>
            -9.4152528047561646e-01 5.5251139402389526e-01</leafValues></_>
        <_>
          <internalNodes>
            0 -1 2 1427150065 -1794014273 69278936 -266465272
            -1988054773 -70876536 -762250337 -45110005</internalNodes>
          <leafValues>
            -7.7287274599075317e-01 6.3440060615539551e-01</leafValues></_>
        <_>
          <internalNodes>
            0 -1 80 1365339477 -2008507000 -717225780 -834616738
            388854235 1073808403 -2088639769 1503394511</internalNodes>
          <leafValues>
            -8.5075324773788452e-01 6.2068742513656616e-01</leafValues></_></weakClassifiers></_>
    <!-- stage 14 -->
    <_>
      <maxWeakCount>10</maxWeakCount>
      <stageThreshold>-3.9621496200561523e+00</stageThreshold>
      <weakClassifiers>
        <_>
          <internalNodes>
            0 -1 18 423460674 1963022131 -1677720185 135187754
            1073820346 -1795026471 -1044368394 -72354180</internalNodes>
          <leafValues>
            -7.7239710092544556e-01 6.0572874546051025e-01</leafValues></_>
        <_>
          <internalNodes>
            0 -1 94 -1604894712 -1416132602 -1744699005 -2015919189
            -753917510 1175094433 -679366287 -1017122415</internalNodes>
          <leafValues>
            -7.4724191427230835e-01 5.3040492534637451e-01</leafValues></_>
        <_>
          <internalNodes>
            0 -1 36 -1196438279 -526048409 -2147448541 -349762935
            -132469109 -2013052149 -387773777 -310650771</internalNodes>
          <leafValues>
            -6.6458773612976074e-01 6.2109768390655518e-01</leafValues></_>
        <_>
          <internalNodes>
            0 -1 96 -270204960 2116802402 -20498 1331560414 2007695342
            1647712054 1417141021 1533018111</internalNodes>
          <leafValues>
            -7.0936036109924316e-01 7.3814958333969116e-01</leafValues></_>
        <_>
          <internalNodes>
            0 -1 34 957044117 -1723825969 -1584297355 1439433101
            1073791190 -1609596927 1932483534 -1097138689</internalNodes>
          <leafValues>
            -8.2186454534530640e-01 5.8247476816177368e-01</leafValues></_>
        <_>
          <internalNodes>
            0 -1 6 1520804031 1585479701 -973004641 -657688443
            1078526091 1277362240 -2004247933 -599273842</internalNodes>
          <leafValues>
            -8.8444370031356812e-01 5.9559160470962524e-01</leafValues></_>
        <_>
          <internalNodes>
            0 -1 98 428956116 -1651600642 -1858010026 -1858694757
            1277578019 -2122053615 704807583 -1165046579</internalNodes>
          <leafValues>
            -9.2927980422973633e-01 5.1173210144042969e-01</leafValues></_>
        <_>
          <internalNodes>
            0 -1 28 -782961670 2014855761 318813590 464952150
            -1710192112 -1182105431 -880161125 -138752275</internalNodes>
          <leafValues>
            -9.6921437978744507e-01 5.8382552862167358e-01</leafValues></_>
        <_>
          <internalNodes>
            0 -1 84 -1942072805 -1853701018 -1605775043 -469694464
            1090703311 -1732521933 1188475102 -105516122</internalNodes>
          <leafValues>
            -9.8560452461242676e-01 6.6917318105697632e-01</leafValues></_>
        <_>
          <internalNodes>
            0 -1 97 1499422832 -800927728 -1861156784 -1861940291
            -1072509252 -2010597352 -265559925 -1118900525</internalNodes>
          <leafValues>
            -9.9112570285797119e-01 6.9620865583419800e-01</leafValues></_></weakClassifiers></_>
    <!-- stage 15 -->
    <_>
      <maxWeakCount>4</maxWeakCount>
      <stageThreshold>-7.7290087938308716e-02</stageThreshold>
      <weakClassifiers>
        <_>
          <internalNodes>
            0 -1 60 -272632648 800833211 -755180043 -814359107 -606306
            -1074102530 -1361273602 -81592333</internalNodes>
          <leafValues>
            -5.7651245594024658e-01 6.9749516248703003e-01</leafValues></_>
        <_>
          <internalNodes>
            0 -1 51 -1280200004 -176043901 -475446973 -475504297
            1493268783 -1010859866 -2007895121 -579098325</internalNodes>
          <leafValues>
            -6.1312335729598999e-01 6.5331506729125977e-01</leafValues></_>
        <_>
          <internalNodes>
            0 -1 93 -1492273608 1703637065 -1861253973 -682735582
            423314305 -819322741 -209606678 -474005857</internalNodes>
          <leafValues>
            -6.3966614007949829e-01 6.8260830640792847e-01</leafValues></_>
        <_>
          <internalNodes>
            0 -1 44 -805046774 1393540872 -250414326 -644369703
            -1861141821 1108557827 156320157 -17040549</internalNodes>
          <leafValues>
            -7.8843426704406738e-01 5.6151998043060303e-01</leafValues></_></weakClassifiers></_>
    <!-- stage 16 -->
    <_>
      <maxWeakCount>9</maxWeakCount>
      <stageThreshold>-1.8378702402114868e+00</stageThreshold>
      <weakClassifiers>
        <_>
          <internalNodes>
            0 -1 88 -208121775 986857875 -1053831165 -22937457
            -728065137 -1146999497 -1425821406 -266069982</internalNodes>
          <leafValues>
            -8.1865286827087402e-01 5.8978581428527832e-01</leafValues></_>
        <_>
          <internalNodes>
            0 -1 92 -16338692 -183486180 1207959700 1330339321
            -1064120132 164135048 402776491 -876614981</internalNodes>
          <leafValues>
            -7.6741629838943481e-01 4.8345482349395752e-01</leafValues></_>
        <_>
          <internalNodes>
            0 -1 49 -636148976 -751892401 1627933611 2071599186
            -868111501 578882195 1883290230 1477145335</internalNodes>
          <leafValues>
            -8.4951543807983398e-01 7.2138142585754395e-01</leafValues></_>
        <_>
          <internalNodes>
            0 -1 21 2077515029 1082224640 1879235715 -238988844
            841146129 -1593749293 -2147430003 -637912743</internalNodes>
          <leafValues>
            -6.4937627315521240e-01 6.5804201364517212e-01</leafValues></_>
        <_>
          <internalNodes>
            0 -1 38 -82160301 -1459781795 2147483647 1878998910 -2196225
            -131296 -65537 -16236553</internalNodes>
          <leafValues>
            -6.3550204038619995e-01 6.9420802593231201e-01</leafValues></_>
        <_>
          <internalNodes>
            0 -1 24 1364678494 1704022132 538986965 2115043377 671144457
            -167747583 1909123541 -133524281</internalNodes>
          <leafValues>
            -8.1804710626602173e-01 6.0495513677597046e-01</leafValues></_>
        <_>
          <internalNodes>
            0 -1 102 -712246720 -527756533 -1874657005 1646483264
            -2046699357 -905445247 -263480953 1359192110</internalNodes>
          <leafValues>
            -9.3655216693878174e-01 5.1769936084747314e-01</leafValues></_>
        <_>
          <internalNodes>
            0 -1 71 -1098578159 1753563611 17744155 1636372549
            -669595459 -1996028889 -2045849429 -1406885754</internalNodes>
          <leafValues>
            -9.6864420175552368e-01 5.2101308107376099e-01</leafValues></_>
        <_>
          <internalNodes>
            0 -1 76 -217181145 -800214974 -640564453 -981400950
            1057469752 -863399415 588046490 -188420607</internalNodes>
          <leafValues>
            -9.7760170698165894e-01 6.0946893692016602e-01</leafValues></_></weakClassifiers></_>
    <!-- stage 17 -->
    <_>
      <maxWeakCount>8</maxWeakCount>
      <stageThreshold>-1.0596587657928467e+00</stageThreshold>
      <weakClassifiers>
        <_>
          <internalNodes>
            0 -1 73 -787308114 406606146 -1929160313 -1927871743
            -1279090485 -117429469 -265834753 829634859</internalNodes>
          <leafValues>
            -7.8325122594833374e-01 6.0134005546569824e-01</leafValues></_>
        <_>
          <internalNodes>
            0 -1 53 1443221263 553908099 1249968129 753103531
            -1430183646 -459145087 -1335413545 1744795583</internalNodes>
          <leafValues>
            -7.0663046836853027e-01 5.3981506824493408e-01</leafValues></_>
        <_>
          <internalNodes>
            0 -1 43 1359009105 437682451 -120368193 -1732247289
            -2003680627 620888339 -645118718 -1080406209</internalNodes>
          <leafValues>
            -7.9849171638488770e-01 4.6528983116149902e-01</leafValues></_>
        <_>
          <internalNodes>
            0 -1 87 -660421138 -1056128054 -1928920794 501025282
            1154563080 416538858 2360135 2011021822</internalNodes>
          <leafValues>
            -8.5191005468368530e-01 6.7536318302154541e-01</leafValues></_>
        <_>
          <internalNodes>
            0 -1 87 -660421138 -1056128054 -1928920786 -1646458366
            1154563080 416538859 2360135 2145239550</internalNodes>
          <leafValues>
            -8.1461936235427856e-01 6.5824353694915771e-01</leafValues></_>
        <_>
          <internalNodes>
            0 -1 65 1346296218 1628488339 303153552 -1937387511
            -1034825965 1220610311 833601999 -587729981</internalNodes>
          <leafValues>
            -8.0119735002517700e-01 6.5102350711822510e-01</leafValues></_>
        <_>
          <internalNodes>
            0 -1 105 -721181782 -1869351977 -778710784 1101431381
            997696148 1644896994 -1071317728 -262932157</internalNodes>
          <leafValues>
            -8.8116496801376343e-01 5.8272737264633179e-01</leafValues></_>
        <_>
          <internalNodes>
            0 -1 101 -813693826 -75087806 -1744547679 -231374847
            -557344833 -1367121655 -2102672917 -1279410038</internalNodes>
          <leafValues>
            -9.3275678157806396e-01 6.6490572690963745e-01</leafValues></_></weakClassifiers></_>
    <!-- stage 18 -->
    <_>
      <maxWeakCount>8</maxWeakCount>
      <stageThreshold>-2.5954473018646240e+00</stageThreshold>
      <weakClassifiers>
        <_>
          <internalNodes>
            0 -1 90 -1789264058 -1872576402 88546027 -116807510
            1129429943 -265967169 -953422387 1078059491</internalNodes>
          <leafValues>
            -8.7368422746658325e-01 6.0000002384185791e-01</leafValues></_>
        <_>
          <internalNodes>
            0 -1 95 -254304188 1681634446 -1927708367 1540330340
            1090956223 -510230388 -269560224 -1347961927</internalNodes>
          <leafValues>
            -7.0931810140609741e-01 5.3689420223236084e-01</leafValues></_>
        <_>
          <internalNodes>
            0 -1 82 157080084 -1822356587 -1433456381 -1467528136
            -94838977 -484564223 -341265629 -38893954</internalNodes>
          <leafValues>
            -8.6883836984634399e-01 4.4654986262321472e-01</leafValues></_>
        <_>
          <internalNodes>
            0 -1 39 -121855876 -1551150949 85148242 -1316968954
            1900122794 816229027 1182957699 1898709389</internalNodes>
          <leafValues>
            -8.8792073726654053e-01 6.2708646059036255e-01</leafValues></_>
        <_>
          <internalNodes>
            0 -1 39 -121855876 -1551150949 85148242 -1316968954
            -247360854 816229027 1182957699 1898742156</internalNodes>
          <leafValues>
            -9.1917365789413452e-01 5.7553160190582275e-01</leafValues></_>
        <_>
          <internalNodes>
            0 -1 0 -96336753 -703528943 545364407 -161720929 -2105473537
            -293396478 -2138347861 1807901355</internalNodes>
          <leafValues>
            -8.5349911451339722e-01 5.6368136405944824e-01</leafValues></_>
        <_>
          <internalNodes>
            0 -1 19 1933283711 895162781 1413502786 235144142 -752639137
            -1602125624 -354372889 -1151638566</internalNodes>
          <leafValues>
            -9.2593967914581299e-01 5.9140974283218384e-01</leafValues></_>
        <_>
          <internalNodes>
            0 -1 14 468918057 1191909939 -929510658 -482342627 948773450
            165970048 -821852481 -13073992</internalNodes>
          <leafValues>
            -9.6457922458648682e-01 6.5385407209396362e-01</leafValues></_></weakClassifiers></_>
    <!-- stage 19 -->
    <_>
      <maxWeakCount>4</maxWeakCount>
      <stageThreshold>-4.6639615297317505e-01</stageThreshold>
      <weakClassifiers>
        <_>
          <internalNodes>
            0 -1 75 -79052914 -1614511931 -2137849025 -2134132751
            -1300581502 143261833 540271379 1475080515</internalNodes>
          <leafValues>
            -7.5845408439636230e-01 6.0202360153198242e-01</leafValues></_>
        <_>
          <internalNodes>
            0 -1 103 -842508931 1258645999 -1743814443 -437305193
            -1476386565 -259973031 866156552 522341327</internalNodes>
          <leafValues>
            -8.1813305616378784e-01 4.8658508062362671e-01</leafValues></_>
        <_>
          <internalNodes>
            0 -1 59 688477952 -752672039 1091649805 -787412974 143853774
            210405528 402723851 139172098</internalNodes>
          <leafValues>
            -8.6295735836029053e-01 6.9268572330474854e-01</leafValues></_>
        <_>
          <internalNodes>
            0 -1 31 966094730 -1774120734 -1194261577 -210722779
            -600534612 -619708339 -660818966 -1625218393</internalNodes>
          <leafValues>
            -7.3612213134765625e-01 6.1267060041427612e-01</leafValues></_></weakClassifiers></_></stages>
  <features>
    <_>
      <rect>
        0 1 11 5</rect></_>
    <_>
      <rect>
        6 10 6 8</rect></_>
    <_>
      <rect>
        6 23 13 3</rect></_>
    <_>
      <rect>
        7 7 12 11</rect></_>
    <_>
      <rect>
        8 10 7 9</rect></_>
    <_>
      <rect>
        9 11 13 8</rect></_>
    <_>
      <rect>
        9 13 5 4</rect></_>
    <_>
      <rect>
        9 23 11 3</rect></_>
    <_>
      <rect>
        10 5 8 7</rect></_>
    <_>
      <rect>
        10 10 11 10</rect></_>
    <_>
      <rect>
        10 12 6 9</rect></_>
    <_>
      <rect>
        10 14 6 7</rect></_>
    <_>
      <rect>
        11 5 9 7</rect></_>
    <_>
      <rect>
        11 10 12 5</rect></_>
    <_>
      <rect>
        12 14 9 3</rect></_>
    <_>
      <rect>
        13 4 5 5</rect></_>
    <_>
      <rect>
        13 14 8 6</rect></_>
    <_>
      <rect>
        15 3 7 5</rect></_>
    <_>
      <rect>
        15 14 7 4</rect></_>
    <_>
      <rect>
        15 15 8 4</rect></_>
    <_>
      <rect>
        15 20 5 5</rect></_>
    <_>
      <rect>
        16 2 5 6</rect></_>
    <_>
      <rect>
        16 15 4 4</rect></_>
    <_>
      <rect>
        16 23 6 2</rect></_>
    <_>
      <rect>
        17 7 5 3</rect></_>
    <_>
      <rect>
        17 11 6 4</rect></_>
    <_>
      <rect>
        17 13 8 6</rect></_>
    <_>
      <rect>
        17 19 7 2</rect></_>
    <_>
      <rect>
        17 26 12 4</rect></_>
    <_>
      <rect>
        18 3 7 8</rect></_>
    <_>
      <rect>
        18 5 4 5</rect></_>
    <_>
      <rect>
        18 12 7 6</rect></_>
    <_>
      <rect>
        18 13 4 4</rect></_>
    <_>
      <rect>
        18 16 4 3</rect></_>
    <_>
      <rect>
        18 16 5 8</rect></_>
    <_>
      <rect>
        18 21 3 5</rect></_>
    <_>
      <rect>
        19 1 7 11</rect></_>
    <_>
      <rect>
        19 3 8 8</rect></_>
    <_>
      <rect>
        19 6 3 3</rect></_>
    <_>
      <rect>
        19 7 8 10</rect></_>
    <_>
      <rect>
        19 8 8 7</rect></_>
    <_>
      <rect>
        19 9 3 5</rect></_>
    <_>
      <rect>
        19 12 9 5</rect></_>
    <_>
      <rect>
        19 16 4 8</rect></_>
    <_>
      <rect>
        19 18 3 3</rect></_>
    <_>
      <rect>
        19 19 4 3</rect></_>
    <_>
      <rect>
        19 19 4 6</rect></_>
    <_>
      <rect>
        19 20 4 5</rect></_>
    <_>
      <rect>
        20 12 3 4</rect></_>
    <_>
      <rect>
        20 12 5 5</rect></_>
    <_>
      <rect>
        20 13 6 5</rect></_>
    <_>
      <rect>
        20 13 6 6</rect></_>
    <_>
      <rect>
        20 13 7 4</rect></_>
    <_>
      <rect>
        20 15 2 3</rect></_>
    <_>
      <rect>
        20 16 2 3</rect></_>
    <_>
      <rect>
        20 17 2 3</rect></_>
    <_>
      <rect>
        20 17 5 4</rect></_>
    <_>
      <rect>
        20 18 6 4</rect></_>
    <_>
      <rect>
        20 19 3 5</rect></_>
    <_>
      <rect>
        20 20 5 3</rect></_>
    <_>
      <rect>
        20 23 2 2</rect></_>
    <_>
      <rect>
        21 8 5 4</rect></_>
    <_>
      <rect>
        21 12 7 4</rect></_>
    <_>
      <rect>
        21 14 5 4</rect></_>
    <_>
      <rect>
        21 15 3 3</rect></_>
    <_>
      <rect>
        21 16 2 3</rect></_>
    <_>
      <rect>
        21 19 5 4</rect></_>
    <_>
      <rect>
        21 23 4 3</rect></_>
    <_>
      <rect>
        22 7 6 6</rect></_>
    <_>
      <rect>
        22 16 3 4</rect></_>
    <_>
      <rect>
        22 23 4 3</rect></_>
    <_>
      <rect>
        23 4 4 7</rect></_>
    <_>
      <rect>
        23 12 7 3</rect></_>
    <_>
      <rect>
        23 17 3 1</rect></_>
    <_>
      <rect>
        23 17 3 2</rect></_>
    <_>
      <rect>
        23 19 2 2</rect></_>
    <_>
      <rect>
        24 11 2 3</rect></_>
    <_>
      <rect>
        24 17 2 3</rect></_>
    <_>
      <rect>
        24 18 2 3</rect></_>
    <_>
      <rect>
        24 19 2 1</rect></_>
    <_>
      <rect>
        24 20 6 4</rect></_>
    <_>
      <rect>
        25 9 4 3</rect></_>
    <_>
      <rect>
        25 10 3 5</rect></_>
    <_>
      <rect>
        25 12 3 5</rect></_>
    <_>
      <rect>
        25 12 3 6</rect></_>
    <_>
      <rect>
        25 17 4 2</rect></_>
    <_>
      <rect>
        25 18 1 1</rect></_>
    <_>
      <rect>
        25 19 2 2</rect></_>
    <_>
      <rect>
        26 6 3 6</rect></_>
    <_>
      <rect>
        26 10 3 2</rect></_>
    <_>
      <rect>
        26 17 2 2</rect></_>
    <_>
      <rect>
        26 17 2 4</rect></_>
    <_>
      <rect>
        26 21 2 4</rect></_>
    <_>
      <rect>
        27 18 1 1</rect></_>
    <_>
      <rect>
        27 18 1 2</rect></_>
    <_>
      <rect>
        27 19 1 1</rect></_>
    <_>
      <rect>
        27 20 2 2</rect></_>
    <_>
      <rect>
        27 24 6 5</rect></_>
    <_>
      <rect>
        28 22 5 6</rect></_>
    <_>
      <rect>
        29 19 1 3</rect></_>
    <_>
      <rect>
        30 12 8 7</rect></_>
    <_>
      <rect>
        30 15 4 3</rect></_>
    <_>
      <rect>
        30 16 1 3</rect></_>
    <_>
      <rect>
        34 9 4 5</rect></_>
    <_>
      <rect>
        34 16 3 3</rect></_>
    <_>
      <rect>
        36 21 6 3</rect></_></features></cascade>
</opencv_storage>
