<?xml version="1.0"?>
<opencv_storage>
<stage18>
  <maxWeakCount>8</maxWeakCount>
  <stageThreshold>-2.5954473018646240e+00</stageThreshold>
  <weakClassifiers>
    <_>
      <internalNodes>
        0 -1 92852 -1789264058 -1872576402 88546027 -116807510
        1129429943 -265967169 -953422387 1078059491</internalNodes>
      <leafValues>
        -8.7368422746658325e-01 6.0000002384185791e-01</leafValues></_>
    <_>
      <internalNodes>
        0 -1 95310 -254304188 1681634446 -1927708367 1540330340
        1090956223 -510230388 -269560224 -1347961927</internalNodes>
      <leafValues>
        -7.0931810140609741e-01 5.3689420223236084e-01</leafValues></_>
    <_>
      <internalNodes>
        0 -1 89979 157080084 -1822356587 -1433456381 -1467528136
        -94838977 -484564223 -341265629 -38893954</internalNodes>
      <leafValues>
        -8.6883836984634399e-01 4.4654986262321472e-01</leafValues></_>
    <_>
      <internalNodes>
        0 -1 73550 -121855876 -1551150949 85148242 -1316968954
        1900122794 816229027 1182957699 1898709389</internalNodes>
      <leafValues>
        -8.8792073726654053e-01 6.2708646059036255e-01</leafValues></_>
    <_>
      <internalNodes>
        0 -1 73550 -121855876 -1551150949 85148242 -1316968954
        -247360854 816229027 1182957699 1898742156</internalNodes>
      <leafValues>
        -9.1917365789413452e-01 5.7553160190582275e-01</leafValues></_>
    <_>
      <internalNodes>
        0 -1 368 -96336753 -703528943 545364407 -161720929 -2105473537
        -293396478 -2138347861 1807901355</internalNodes>
      <leafValues>
        -8.5349911451339722e-01 5.6368136405944824e-01</leafValues></_>
    <_>
      <internalNodes>
        0 -1 61939 1933283711 895162781 1413502786 235144142 -752639137
        -1602125624 -354372889 -1151638566</internalNodes>
      <leafValues>
        -9.2593967914581299e-01 5.9140974283218384e-01</leafValues></_>
    <_>
      <internalNodes>
        0 -1 51594 468918057 1191909939 -929510658 -482342627 948773450
        165970048 -821852481 -13073992</internalNodes>
      <leafValues>
        -9.6457922458648682e-01 6.5385407209396362e-01</leafValues></_></weakClassifiers></stage18>
</opencv_storage>
