<?xml version="1.0"?>
<opencv_storage>
<stage13>
  <maxWeakCount>6</maxWeakCount>
  <stageThreshold>-7.6799297332763672e-01</stageThreshold>
  <weakClassifiers>
    <_>
      <internalNodes>
        0 -1 90526 406059579 826699946 -2112997257 -736307059 554934771
        -685301618 1410642479 336072710</internalNodes>
      <leafValues>
        -8.7431693077087402e-01 5.8346837759017944e-01</leafValues></_>
    <_>
      <internalNodes>
        0 -1 65786 1426498090 1463128297 -770614183 2014144576
        1225140746 -1694428752 432674983 -73926261</internalNodes>
      <leafValues>
        -8.3354896306991577e-01 4.9502411484718323e-01</leafValues></_>
    <_>
      <internalNodes>
        0 -1 67848 -402326496 1277494512 -1840249547 1980171408
        -684553038 -1524300790 -132325243 -334329698</internalNodes>
      <leafValues>
        -9.1823852062225342e-01 6.9248169660568237e-01</leafValues></_>
    <_>
      <internalNodes>
        0 -1 88227 -278154366 -1171287896 -981445850 -707002349
        -1329529862 10781064 1737245610 1995047562</internalNodes>
      <leafValues>
        -9.4152528047561646e-01 5.5251139402389526e-01</leafValues></_>
    <_>
      <internalNodes>
        0 -1 29762 1427150065 -1794014273 69278936 -266465272
        -1988054773 -70876536 -762250337 -45110005</internalNodes>
      <leafValues>
        -7.7287274599075317e-01 6.3440060615539551e-01</leafValues></_>
    <_>
      <internalNodes>
        0 -1 88323 1365339477 -2008507000 -717225780 -834616738
        388854235 1073808403 -2088639769 1503394511</internalNodes>
      <leafValues>
        -8.5075324773788452e-01 6.2068742513656616e-01</leafValues></_></weakClassifiers></stage13>
</opencv_storage>
