<?xml version="1.0"?>
<opencv_storage>
<stage11>
  <maxWeakCount>8</maxWeakCount>
  <stageThreshold>-2.2483155727386475e+00</stageThreshold>
  <weakClassifiers>
    <_>
      <internalNodes>
        0 -1 69955 -24755132 2078623167 25369917 1544094807 -1964974609
        -840838717 -1506405889 -409966637</internalNodes>
      <leafValues>
        -9.5415472984313965e-01 5.8593124151229858e-01</leafValues></_>
    <_>
      <internalNodes>
        0 -1 90567 -797451388 -1038546643 -1056755054 -778468773
        1803749254 1077280988 192974098 -103813146</internalNodes>
      <leafValues>
        -7.6716583967208862e-01 5.5074065923690796e-01</leafValues></_>
    <_>
      <internalNodes>
        0 -1 92854 -7495126 -4215809 -1080198392 792420963 -1079008561
        1858071471 -1073774789 92261119</internalNodes>
      <leafValues>
        -6.9793665409088135e-01 7.7315872907638550e-01</leafValues></_>
    <_>
      <internalNodes>
        0 -1 77258 1376511906 -2096168949 -2146876928 -298847221
        -469690701 10158568 2047256083 -998275493</internalNodes>
      <leafValues>
        -7.5775939226150513e-01 6.8427968025207520e-01</leafValues></_>
    <_>
      <internalNodes>
        0 -1 77258 1376511906 -2096168949 -2130099580 -298847221
        -469690701 10158568 2047256083 -192969125</internalNodes>
      <leafValues>
        -7.3049765825271606e-01 7.1692901849746704e-01</leafValues></_>
    <_>
      <internalNodes>
        0 -1 77367 -251427141 -80482159 -1853783675 -589963007
        -1323217991 -594982867 -38027177 1554863595</internalNodes>
      <leafValues>
        -8.4519481658935547e-01 7.7364134788513184e-01</leafValues></_>
    <_>
      <internalNodes>
        0 -1 83287 -242875286 1107640412 274210561 -666041845
        -1073459016 -1633156608 -635813286 -16843029</internalNodes>
      <leafValues>
        -9.7263121604919434e-01 5.7261246442794800e-01</leafValues></_>
    <_>
      <internalNodes>
        0 -1 88159 -74712241 -1173909483 688965231 101158147 -750598842
        453759368 816506938 1206862139</internalNodes>
      <leafValues>
        -9.7903835773468018e-01 6.1903220415115356e-01</leafValues></_></weakClassifiers></stage11>
</opencv_storage>
