<?xml version="1.0"?>
<opencv_storage>
<model type_id="opencv-haar-classifier">
  <size>
    48 24</size>
  <stages>
    <_>
      <!-- stage 0 -->
      <trees>
        <_>
          <!-- tree 0 -->
          <_>
            <!-- root node -->
            <feature>
              <rects>
                <_>
                  0 3 8 15 -1.</_>
                <_>
                  2 3 4 15 2.</_></rects>
              <tilted>0</tilted></feature>
            <threshold>-1.2156059965491295e-02</threshold>
            <left_val>8.2905572652816772e-01</left_val>
            <right_val>-9.2179149389266968e-01</right_val></_></_>
        <_>
          <!-- tree 1 -->
          <_>
            <!-- root node -->
            <feature>
              <rects>
                <_>
                  28 4 8 13 -1.</_>
                <_>
                  30 4 4 13 2.</_></rects>
              <tilted>0</tilted></feature>
            <threshold>-1.4599350281059742e-02</threshold>
            <left_val>9.0762758255004883e-01</left_val>
            <right_val>-5.1586008071899414e-01</right_val></_></_>
        <_>
          <!-- tree 2 -->
          <_>
            <!-- root node -->
            <feature>
              <rects>
                <_>
                  21 11 6 2 -1.</_>
                <_>
                  23 11 2 2 3.</_></rects>
              <tilted>0</tilted></feature>
            <threshold>3.1065929215401411e-03</threshold>
            <left_val>-6.4055341482162476e-01</left_val>
            <right_val>8.9009529352188110e-01</right_val></_></_>
        <_>
          <!-- tree 3 -->
          <_>
            <!-- root node -->
            <feature>
              <rects>
                <_>
                  27 5 9 10 -1.</_>
                <_>
                  30 5 3 10 3.</_></rects>
              <tilted>0</tilted></feature>
            <threshold>1.2685240246355534e-02</threshold>
            <left_val>-2.3201540112495422e-01</left_val>
            <right_val>7.6774072647094727e-01</right_val></_></_></trees>
      <stage_threshold>-1.3104640245437622e+00</stage_threshold>
      <parent>-1</parent>
      <next>-1</next></_>
    <_>
      <!-- stage 1 -->
      <trees>
        <_>
          <!-- tree 0 -->
          <_>
            <!-- root node -->
            <feature>
              <rects>
                <_>
                  12 4 8 13 -1.</_>
                <_>
                  14 4 4 13 2.</_></rects>
              <tilted>0</tilted></feature>
            <threshold>-1.5784129500389099e-02</threshold>
            <left_val>7.9525101184844971e-01</left_val>
            <right_val>-7.3006188869476318e-01</right_val></_></_>
        <_>
          <!-- tree 1 -->
          <_>
            <!-- root node -->
            <feature>
              <rects>
                <_>
                  17 0 22 4 -1.</_>
                <_>
                  17 2 22 2 2.</_></rects>
              <tilted>0</tilted></feature>
            <threshold>2.2747470065951347e-02</threshold>
            <left_val>-5.4663872718811035e-01</left_val>
            <right_val>8.6607140302658081e-01</right_val></_></_>
        <_>
          <!-- tree 2 -->
          <_>
            <!-- root node -->
            <feature>
              <rects>
                <_>
                  0 7 6 6 -1.</_>
                <_>
                  3 7 3 6 2.</_></rects>
              <tilted>0</tilted></feature>
            <threshold>-7.9199792817234993e-03</threshold>
            <left_val>6.3985067605972290e-01</left_val>
            <right_val>-7.7189177274703979e-01</right_val></_></_></trees>
      <stage_threshold>-6.3684988021850586e-01</stage_threshold>
      <parent>0</parent>
      <next>-1</next></_>
    <_>
      <!-- stage 2 -->
      <trees>
        <_>
          <!-- tree 0 -->
          <_>
            <!-- root node -->
            <feature>
              <rects>
                <_>
                  18 11 4 2 -1.</_>
                <_>
                  20 11 2 2 2.</_></rects>
              <tilted>0</tilted></feature>
            <threshold>-1.9692990463227034e-03</threshold>
            <left_val>7.4922758340835571e-01</left_val>
            <right_val>-6.8750482797622681e-01</right_val></_></_>
        <_>
          <!-- tree 1 -->
          <_>
            <!-- root node -->
            <feature>
              <rects>
                <_>
                  0 0 48 2 -1.</_>
                <_>
                  0 1 48 1 2.</_></rects>
              <tilted>0</tilted></feature>
            <threshold>1.1041670106351376e-02</threshold>
            <left_val>-6.1129420995712280e-01</left_val>
            <right_val>8.1645858287811279e-01</right_val></_></_>
        <_>
          <!-- tree 2 -->
          <_>
            <!-- root node -->
            <feature>
              <rects>
                <_>
                  7 11 6 1 -1.</_>
                <_>
                  9 11 2 1 3.</_></rects>
              <tilted>0</tilted></feature>
            <threshold>-2.0081880502402782e-03</threshold>
            <left_val>8.0449038743972778e-01</left_val>
            <right_val>-5.5768728256225586e-01</right_val></_></_></trees>
      <stage_threshold>-4.9430871009826660e-01</stage_threshold>
      <parent>1</parent>
      <next>-1</next></_>
    <_>
      <!-- stage 3 -->
      <trees>
        <_>
          <!-- tree 0 -->
          <_>
            <!-- root node -->
            <feature>
              <rects>
                <_>
                  12 1 8 17 -1.</_>
                <_>
                  14 1 4 17 2.</_></rects>
              <tilted>0</tilted></feature>
            <threshold>-2.6682009920477867e-02</threshold>
            <left_val>6.4337462186813354e-01</left_val>
            <right_val>-5.9937489032745361e-01</right_val></_></_>
        <_>
          <!-- tree 1 -->
          <_>
            <!-- root node -->
            <feature>
              <rects>
                <_>
                  24 7 5 4 -1.</_>
                <_>
                  24 9 5 2 2.</_></rects>
              <tilted>0</tilted></feature>
            <threshold>-4.1040228679776192e-03</threshold>
            <left_val>-3.4840750694274902e-01</left_val>
            <right_val>6.9392882287502289e-02</right_val></_></_>
        <_>
          <!-- tree 2 -->
          <_>
            <!-- root node -->
            <feature>
              <rects>
                <_>
                  19 7 5 4 -1.</_>
                <_>
                  19 9 5 2 2.</_></rects>
              <tilted>0</tilted></feature>
            <threshold>1.4590700156986713e-03</threshold>
            <left_val>-8.1233298778533936e-01</left_val>
            <right_val>5.4076498746871948e-01</right_val></_></_></trees>
      <stage_threshold>-5.1736587285995483e-01</stage_threshold>
      <parent>2</parent>
      <next>-1</next></_>
    <_>
      <!-- stage 4 -->
      <trees>
        <_>
          <!-- tree 0 -->
          <_>
            <!-- root node -->
            <feature>
              <rects>
                <_>
                  0 5 9 9 -1.</_>
                <_>
                  3 5 3 9 3.</_></rects>
              <tilted>0</tilted></feature>
            <threshold>-2.3664180189371109e-02</threshold>
            <left_val>6.0053998231887817e-01</left_val>
            <right_val>-7.3619699478149414e-01</right_val></_></_>
        <_>
          <!-- tree 1 -->
          <_>
            <!-- root node -->
            <feature>
              <rects>
                <_>
                  0 22 48 2 -1.</_>
                <_>
                  0 23 48 1 2.</_></rects>
              <tilted>0</tilted></feature>
            <threshold>-9.8668113350868225e-03</threshold>
            <left_val>7.4295741319656372e-01</left_val>
            <right_val>-5.9271407127380371e-01</right_val></_></_>
        <_>
          <!-- tree 2 -->
          <_>
            <!-- root node -->
            <feature>
              <rects>
                <_>
                  10 0 18 4 -1.</_>
                <_>
                  10 2 18 2 2.</_></rects>
              <tilted>0</tilted></feature>
            <threshold>1.8628159537911415e-02</threshold>
            <left_val>-5.7546210289001465e-01</left_val>
            <right_val>7.4520611763000488e-01</right_val></_></_>
        <_>
          <!-- tree 3 -->
          <_>
            <!-- root node -->
            <feature>
              <rects>
                <_>
                  45 3 3 16 -1.</_>
                <_>
                  46 3 1 16 3.</_></rects>
              <tilted>0</tilted></feature>
            <threshold>6.3400589860975742e-03</threshold>
            <left_val>-3.9016181230545044e-01</left_val>
            <right_val>7.0542901754379272e-01</right_val></_></_></trees>
      <stage_threshold>-9.5886349678039551e-01</stage_threshold>
      <parent>3</parent>
      <next>-1</next></_>
    <_>
      <!-- stage 5 -->
      <trees>
        <_>
          <!-- tree 0 -->
          <_>
            <!-- root node -->
            <feature>
              <rects>
                <_>
                  20 8 3 6 -1.</_>
                <_>
                  21 8 1 6 3.</_></rects>
              <tilted>0</tilted></feature>
            <threshold>-2.0001379307359457e-03</threshold>
            <left_val>5.8049982786178589e-01</left_val>
            <right_val>-7.1826881170272827e-01</right_val></_></_>
        <_>
          <!-- tree 1 -->
          <_>
            <!-- root node -->
            <feature>
              <rects>
                <_>
                  19 2 16 18 -1.</_>
                <_>
                  23 2 8 18 2.</_></rects>
              <tilted>0</tilted></feature>
            <threshold>1.4715459838043898e-04</threshold>
            <left_val>-2.4959379434585571e-01</left_val>
            <right_val>1.8169020116329193e-01</right_val></_></_>
        <_>
          <!-- tree 2 -->
          <_>
            <!-- root node -->
            <feature>
              <rects>
                <_>
                  13 4 16 17 -1.</_>
                <_>
                  17 4 8 17 2.</_></rects>
              <tilted>0</tilted></feature>
            <threshold>2.9140250757336617e-02</threshold>
            <left_val>-6.7896878719329834e-01</left_val>
            <right_val>6.6113221645355225e-01</right_val></_></_>
        <_>
          <!-- tree 3 -->
          <_>
            <!-- root node -->
            <feature>
              <rects>
                <_>
                  25 5 2 9 -1.</_>
                <_>
                  25 8 2 3 3.</_></rects>
              <tilted>0</tilted></feature>
            <threshold>5.1298597827553749e-04</threshold>
            <left_val>-4.1187191009521484e-01</left_val>
            <right_val>2.8059670329093933e-01</right_val></_></_>
        <_>
          <!-- tree 4 -->
          <_>
            <!-- root node -->
            <feature>
              <rects>
                <_>
                  21 5 2 9 -1.</_>
                <_>
                  21 8 2 3 3.</_></rects>
              <tilted>0</tilted></feature>
            <threshold>1.5516970306634903e-03</threshold>
            <left_val>-8.6163550615310669e-01</left_val>
            <right_val>5.2335792779922485e-01</right_val></_></_>
        <_>
          <!-- tree 5 -->
          <_>
            <!-- root node -->
            <feature>
              <rects>
                <_>
                  45 3 3 19 -1.</_>
                <_>
                  46 3 1 19 3.</_></rects>
              <tilted>0</tilted></feature>
            <threshold>4.3171080760657787e-03</threshold>
            <left_val>-7.2142940759658813e-01</left_val>
            <right_val>6.1891609430313110e-01</right_val></_></_>
        <_>
          <!-- tree 6 -->
          <_>
            <!-- root node -->
            <feature>
              <rects>
                <_>
                  9 12 8 1 -1.</_>
                <_>
                  11 12 4 1 2.</_></rects>
              <tilted>0</tilted></feature>
            <threshold>5.4636038839817047e-04</threshold>
            <left_val>-9.1843682527542114e-01</left_val>
            <right_val>6.1755472421646118e-01</right_val></_></_></trees>
      <stage_threshold>-1.4035819768905640e+00</stage_threshold>
      <parent>4</parent>
      <next>-1</next></_>
    <_>
      <!-- stage 6 -->
      <trees>
        <_>
          <!-- tree 0 -->
          <_>
            <!-- root node -->
            <feature>
              <rects>
                <_>
                  3 6 8 14 -1.</_>
                <_>
                  5 6 4 14 2.</_></rects>
              <tilted>0</tilted></feature>
            <threshold>4.1601369157433510e-03</threshold>
            <left_val>-8.8942497968673706e-01</left_val>
            <right_val>7.8533959388732910e-01</right_val></_></_>
        <_>
          <!-- tree 1 -->
          <_>
            <!-- root node -->
            <feature>
              <rects>
                <_>
                  14 9 33 8 -1.</_>
                <_>
                  14 13 33 4 2.</_></rects>
              <tilted>0</tilted></feature>
            <threshold>9.1996800620108843e-05</threshold>
            <left_val>-8.7852627038955688e-01</left_val>
            <right_val>6.1722481250762939e-01</right_val></_></_>
        <_>
          <!-- tree 2 -->
          <_>
            <!-- root node -->
            <feature>
              <rects>
                <_>
                  1 0 38 2 -1.</_>
                <_>
                  1 1 38 1 2.</_></rects>
              <tilted>0</tilted></feature>
            <threshold>4.1756969876587391e-03</threshold>
            <left_val>-9.6812087297439575e-01</left_val>
            <right_val>7.8935557603836060e-01</right_val></_></_>
        <_>
          <!-- tree 3 -->
          <_>
            <!-- root node -->
            <feature>
              <rects>
                <_>
                  46 3 2 8 -1.</_>
                <_>
                  46 7 2 4 2.</_></rects>
              <tilted>0</tilted></feature>
            <threshold>-3.1591061269864440e-04</threshold>
            <left_val>5.4102551937103271e-01</left_val>
            <right_val>-9.7688752412796021e-01</right_val></_></_>
        <_>
          <!-- tree 4 -->
          <_>
            <!-- root node -->
            <feature>
              <rects>
                <_>
                  20 0 3 19 -1.</_>
                <_>
                  21 0 1 19 3.</_></rects>
              <tilted>0</tilted></feature>
            <threshold>-1.8793210620060563e-04</threshold>
            <left_val>8.3785212039947510e-01</left_val>
            <right_val>-9.8287028074264526e-01</right_val></_></_>
        <_>
          <!-- tree 5 -->
          <_>
            <!-- root node -->
            <feature>
              <rects>
                <_>
                  45 15 3 9 -1.</_>
                <_>
                  46 18 1 3 9.</_></rects>
              <tilted>0</tilted></feature>
            <threshold>1.1946140148211271e-04</threshold>
            <left_val>-7.9982841014862061e-01</left_val>
            <right_val>2.9566448926925659e-01</right_val></_></_>
        <_>
          <!-- tree 6 -->
          <_>
            <!-- root node -->
            <feature>
              <rects>
                <_>
                  1 9 20 8 -1.</_>
                <_>
                  1 13 20 4 2.</_></rects>
              <tilted>0</tilted></feature>
            <threshold>5.0903728697448969e-04</threshold>
            <left_val>-9.8410367965698242e-01</left_val>
            <right_val>7.5378251075744629e-01</right_val></_></_>
        <_>
          <!-- tree 7 -->
          <_>
            <!-- root node -->
            <feature>
              <rects>
                <_>
                  28 12 4 10 -1.</_>
                <_>
                  30 12 2 5 2.</_>
                <_>
                  28 17 2 5 2.</_></rects>
              <tilted>0</tilted></feature>
            <threshold>7.5069828890264034e-03</threshold>
            <left_val>-9.3875557184219360e-01</left_val>
            <right_val>1.</right_val></_></_>
        <_>
          <!-- tree 8 -->
          <_>
            <!-- root node -->
            <feature>
              <rects>
                <_>
                  0 0 2 2 -1.</_>
                <_>
                  1 0 1 2 2.</_></rects>
              <tilted>0</tilted></feature>
            <threshold>-5.1751361752394587e-05</threshold>
            <left_val>1.</left_val>
            <right_val>-1.</right_val></_></_>
        <_>
          <!-- tree 9 -->
          <_>
            <!-- root node -->
            <feature>
              <rects>
                <_>
                  25 5 8 11 -1.</_>
                <_>
                  27 5 4 11 2.</_></rects>
              <tilted>0</tilted></feature>
            <threshold>5.5238499044207856e-05</threshold>
            <left_val>-8.7827330827713013e-01</left_val>
            <right_val>7.8339642286300659e-01</right_val></_></_>
        <_>
          <!-- tree 10 -->
          <_>
            <!-- root node -->
            <feature>
              <rects>
                <_>
                  0 12 48 12 -1.</_>
                <_>
                  16 12 16 12 3.</_></rects>
              <tilted>0</tilted></feature>
            <threshold>3.6926050670444965e-03</threshold>
            <left_val>-1.</left_val>
            <right_val>1.0000020265579224e+00</right_val></_></_>
        <_>
          <!-- tree 11 -->
          <_>
            <!-- root node -->
            <feature>
              <rects>
                <_>
                  46 0 2 1 -1.</_>
                <_>
                  46 0 1 1 2.</_></rects>
              <tilted>0</tilted></feature>
            <threshold>0.</threshold>
            <left_val>0.</left_val>
            <right_val>-1.</right_val></_></_>
        <_>
          <!-- tree 12 -->
          <_>
            <!-- root node -->
            <feature>
              <rects>
                <_>
                  0 2 6 8 -1.</_>
                <_>
                  0 2 3 4 2.</_>
                <_>
                  3 6 3 4 2.</_></rects>
              <tilted>0</tilted></feature>
            <threshold>-7.2343001374974847e-04</threshold>
            <left_val>1.</left_val>
            <right_val>-1.</right_val></_></_>
        <_>
          <!-- tree 13 -->
          <_>
            <!-- root node -->
            <feature>
              <rects>
                <_>
                  19 2 16 12 -1.</_>
                <_>
                  23 2 8 12 2.</_></rects>
              <tilted>0</tilted></feature>
            <threshold>-5.3245290182530880e-03</threshold>
            <left_val>7.8292667865753174e-01</left_val>
            <right_val>-8.5302460193634033e-01</right_val></_></_>
        <_>
          <!-- tree 14 -->
          <_>
            <!-- root node -->
            <feature>
              <rects>
                <_>
                  16 10 6 10 -1.</_>
                <_>
                  18 10 2 10 3.</_></rects>
              <tilted>0</tilted></feature>
            <threshold>4.6810661442577839e-03</threshold>
            <left_val>-9.4313001632690430e-01</left_val>
            <right_val>9.6418040990829468e-01</right_val></_></_>
        <_>
          <!-- tree 15 -->
          <_>
            <!-- root node -->
            <feature>
              <rects>
                <_>
                  34 10 4 4 -1.</_>
                <_>
                  34 10 2 4 2.</_></rects>
              <tilted>0</tilted></feature>
            <threshold>-1.2505289632827044e-03</threshold>
            <left_val>1.</left_val>
            <right_val>-9.1030412912368774e-01</right_val></_></_>
        <_>
          <!-- tree 16 -->
          <_>
            <!-- root node -->
            <feature>
              <rects>
                <_>
                  0 0 2 20 -1.</_>
                <_>
                  0 5 2 10 2.</_></rects>
              <tilted>0</tilted></feature>
            <threshold>6.0104171279817820e-04</threshold>
            <left_val>-9.7888767719268799e-01</left_val>
            <right_val>9.2210227251052856e-01</right_val></_></_>
        <_>
          <!-- tree 17 -->
          <_>
            <!-- root node -->
            <feature>
              <rects>
                <_>
                  32 14 6 2 -1.</_>
                <_>
                  32 14 3 2 2.</_></rects>
              <tilted>0</tilted></feature>
            <threshold>1.8764029955491424e-03</threshold>
            <left_val>-9.2743897438049316e-01</left_val>
            <right_val>8.7013989686965942e-01</right_val></_></_>
        <_>
          <!-- tree 18 -->
          <_>
            <!-- root node -->
            <feature>
              <rects>
                <_>
                  0 0 10 2 -1.</_>
                <_>
                  0 1 10 1 2.</_></rects>
              <tilted>0</tilted></feature>
            <threshold>5.2151381969451904e-03</threshold>
            <left_val>-1.</left_val>
            <right_val>1.0000029802322388e+00</right_val></_></_>
        <_>
          <!-- tree 19 -->
          <_>
            <!-- root node -->
            <feature>
              <rects>
                <_>
                  46 0 2 1 -1.</_>
                <_>
                  46 0 1 1 2.</_></rects>
              <tilted>0</tilted></feature>
            <threshold>0.</threshold>
            <left_val>0.</left_val>
            <right_val>-1.</right_val></_></_>
        <_>
          <!-- tree 20 -->
          <_>
            <!-- root node -->
            <feature>
              <rects>
                <_>
                  0 8 14 10 -1.</_>
                <_>
                  0 13 14 5 2.</_></rects>
              <tilted>0</tilted></feature>
            <threshold>8.2963338354602456e-04</threshold>
            <left_val>-1.</left_val>
            <right_val>1.0000029802322388e+00</right_val></_></_>
        <_>
          <!-- tree 21 -->
          <_>
            <!-- root node -->
            <feature>
              <rects>
                <_>
                  46 0 2 1 -1.</_>
                <_>
                  46 0 1 1 2.</_></rects>
              <tilted>0</tilted></feature>
            <threshold>0.</threshold>
            <left_val>0.</left_val>
            <right_val>-1.</right_val></_></_>
        <_>
          <!-- tree 22 -->
          <_>
            <!-- root node -->
            <feature>
              <rects>
                <_>
                  0 0 8 8 -1.</_>
                <_>
                  2 0 4 8 2.</_></rects>
              <tilted>0</tilted></feature>
            <threshold>-2.6446610718267038e-05</threshold>
            <left_val>1.</left_val>
            <right_val>-1.</right_val></_></_>
        <_>
          <!-- tree 23 -->
          <_>
            <!-- root node -->
            <feature>
              <rects>
                <_>
                  6 2 40 14 -1.</_>
                <_>
                  6 2 20 14 2.</_></rects>
              <tilted>0</tilted></feature>
            <threshold>-4.1598998941481113e-03</threshold>
            <left_val>1.</left_val>
            <right_val>-8.2831281423568726e-01</right_val></_></_>
        <_>
          <!-- tree 24 -->
          <_>
            <!-- root node -->
            <feature>
              <rects>
                <_>
                  7 5 6 15 -1.</_>
                <_>
                  9 10 2 5 9.</_></rects>
              <tilted>0</tilted></feature>
            <threshold>-5.3752418607473373e-03</threshold>
            <left_val>9.7713041305541992e-01</left_val>
            <right_val>-1.0000050067901611e+00</right_val></_></_>
        <_>
          <!-- tree 25 -->
          <_>
            <!-- root node -->
            <feature>
              <rects>
                <_>
                  21 10 6 3 -1.</_>
                <_>
                  23 11 2 1 9.</_></rects>
              <tilted>0</tilted></feature>
            <threshold>1.6518229676876217e-04</threshold>
            <left_val>-9.8035359382629395e-01</left_val>
            <right_val>9.3112367391586304e-01</right_val></_></_>
        <_>
          <!-- tree 26 -->
          <_>
            <!-- root node -->
            <feature>
              <rects>
                <_>
                  13 1 8 5 -1.</_>
                <_>
                  17 1 4 5 2.</_></rects>
              <tilted>0</tilted></feature>
            <threshold>5.7806528639048338e-04</threshold>
            <left_val>-9.9576532840728760e-01</left_val>
            <right_val>9.9999928474426270e-01</right_val></_></_>
        <_>
          <!-- tree 27 -->
          <_>
            <!-- root node -->
            <feature>
              <rects>
                <_>
                  44 0 4 4 -1.</_>
                <_>
                  44 0 2 4 2.</_></rects>
              <tilted>0</tilted></feature>
            <threshold>-2.9425168759189546e-04</threshold>
            <left_val>1.</left_val>
            <right_val>-1.</right_val></_></_>
        <_>
          <!-- tree 28 -->
          <_>
            <!-- root node -->
            <feature>
              <rects>
                <_>
                  4 18 36 6 -1.</_>
                <_>
                  4 20 36 2 3.</_></rects>
              <tilted>0</tilted></feature>
            <threshold>1.7042640596628189e-02</threshold>
            <left_val>-9.9586349725723267e-01</left_val>
            <right_val>1.0000059604644775e+00</right_val></_></_>
        <_>
          <!-- tree 29 -->
          <_>
            <!-- root node -->
            <feature>
              <rects>
                <_>
                  46 0 2 1 -1.</_>
                <_>
                  46 0 1 1 2.</_></rects>
              <tilted>0</tilted></feature>
            <threshold>0.</threshold>
            <left_val>0.</left_val>
            <right_val>-1.</right_val></_></_>
        <_>
          <!-- tree 30 -->
          <_>
            <!-- root node -->
            <feature>
              <rects>
                <_>
                  9 6 16 9 -1.</_>
                <_>
                  17 6 8 9 2.</_></rects>
              <tilted>0</tilted></feature>
            <threshold>6.3679582672193646e-04</threshold>
            <left_val>-1.</left_val>
            <right_val>1.0000029802322388e+00</right_val></_></_>
        <_>
          <!-- tree 31 -->
          <_>
            <!-- root node -->
            <feature>
              <rects>
                <_>
                  46 0 2 1 -1.</_>
                <_>
                  46 0 1 1 2.</_></rects>
              <tilted>0</tilted></feature>
            <threshold>0.</threshold>
            <left_val>0.</left_val>
            <right_val>-1.</right_val></_></_>
        <_>
          <!-- tree 32 -->
          <_>
            <!-- root node -->
            <feature>
              <rects>
                <_>
                  3 10 16 8 -1.</_>
                <_>
                  3 14 16 4 2.</_></rects>
              <tilted>0</tilted></feature>
            <threshold>9.1996800620108843e-05</threshold>
            <left_val>-1.</left_val>
            <right_val>9.9999958276748657e-01</right_val></_></_>
        <_>
          <!-- tree 33 -->
          <_>
            <!-- root node -->
            <feature>
              <rects>
                <_>
                  46 0 2 1 -1.</_>
                <_>
                  46 0 1 1 2.</_></rects>
              <tilted>0</tilted></feature>
            <threshold>0.</threshold>
            <left_val>0.</left_val>
            <right_val>-1.</right_val></_></_>
        <_>
          <!-- tree 34 -->
          <_>
            <!-- root node -->
            <feature>
              <rects>
                <_>
                  21 11 2 6 -1.</_>
                <_>
                  22 11 1 6 2.</_></rects>
              <tilted>0</tilted></feature>
            <threshold>4.1751871322048828e-05</threshold>
            <left_val>-1.</left_val>
            <right_val>1.0000029802322388e+00</right_val></_></_>
        <_>
          <!-- tree 35 -->
          <_>
            <!-- root node -->
            <feature>
              <rects>
                <_>
                  47 0 1 2 -1.</_>
                <_>
                  47 1 1 1 2.</_></rects>
              <tilted>0</tilted></feature>
            <threshold>-9.7084921435452998e-05</threshold>
            <left_val>1.</left_val>
            <right_val>-9.9999988079071045e-01</right_val></_></_>
        <_>
          <!-- tree 36 -->
          <_>
            <!-- root node -->
            <feature>
              <rects>
                <_>
                  19 8 2 16 -1.</_>
                <_>
                  19 8 1 8 2.</_>
                <_>
                  20 16 1 8 2.</_></rects>
              <tilted>0</tilted></feature>
            <threshold>2.8692289561149664e-05</threshold>
            <left_val>-1.</left_val>
            <right_val>9.5131981372833252e-01</right_val></_></_>
        <_>
          <!-- tree 37 -->
          <_>
            <!-- root node -->
            <feature>
              <rects>
                <_>
                  1 2 47 6 -1.</_>
                <_>
                  1 5 47 3 2.</_></rects>
              <tilted>0</tilted></feature>
            <threshold>6.7832112312316895e-02</threshold>
            <left_val>-9.9498367309570312e-01</left_val>
            <right_val>1.</right_val></_></_>
        <_>
          <!-- tree 38 -->
          <_>
            <!-- root node -->
            <feature>
              <rects>
                <_>
                  0 0 2 1 -1.</_>
                <_>
                  1 0 1 1 2.</_></rects>
              <tilted>0</tilted></feature>
            <threshold>0.</threshold>
            <left_val>0.</left_val>
            <right_val>-1.</right_val></_></_>
        <_>
          <!-- tree 39 -->
          <_>
            <!-- root node -->
            <feature>
              <rects>
                <_>
                  39 0 9 12 -1.</_>
                <_>
                  42 0 3 12 3.</_></rects>
              <tilted>0</tilted></feature>
            <threshold>-7.9680781345814466e-04</threshold>
            <left_val>1.</left_val>
            <right_val>-8.9595681428909302e-01</right_val></_></_>
        <_>
          <!-- tree 40 -->
          <_>
            <!-- root node -->
            <feature>
              <rects>
                <_>
                  4 5 8 6 -1.</_>
                <_>
                  6 5 4 6 2.</_></rects>
              <tilted>0</tilted></feature>
            <threshold>1.8920380171039142e-05</threshold>
            <left_val>-1.</left_val>
            <right_val>1.0000009536743164e+00</right_val></_></_>
        <_>
          <!-- tree 41 -->
          <_>
            <!-- root node -->
            <feature>
              <rects>
                <_>
                  44 0 4 10 -1.</_>
                <_>
                  46 0 2 5 2.</_>
                <_>
                  44 5 2 5 2.</_></rects>
              <tilted>0</tilted></feature>
            <threshold>3.0700750648975372e-03</threshold>
            <left_val>-9.6661287546157837e-01</left_val>
            <right_val>1.</right_val></_></_>
        <_>
          <!-- tree 42 -->
          <_>
            <!-- root node -->
            <feature>
              <rects>
                <_>
                  0 0 1 2 -1.</_>
                <_>
                  0 1 1 1 2.</_></rects>
              <tilted>0</tilted></feature>
            <threshold>8.8851365944719873e-06</threshold>
            <left_val>-1.</left_val>
            <right_val>1.</right_val></_></_>
        <_>
          <!-- tree 43 -->
          <_>
            <!-- root node -->
            <feature>
              <rects>
                <_>
                  46 0 2 1 -1.</_>
                <_>
                  46 0 1 1 2.</_></rects>
              <tilted>0</tilted></feature>
            <threshold>0.</threshold>
            <left_val>0.</left_val>
            <right_val>-1.</right_val></_></_>
        <_>
          <!-- tree 44 -->
          <_>
            <!-- root node -->
            <feature>
              <rects>
                <_>
                  0 0 4 4 -1.</_>
                <_>
                  0 2 4 2 2.</_></rects>
              <tilted>0</tilted></feature>
            <threshold>1.0320480214431882e-03</threshold>
            <left_val>-1.</left_val>
            <right_val>1.0000040531158447e+00</right_val></_></_>
        <_>
          <!-- tree 45 -->
          <_>
            <!-- root node -->
            <feature>
              <rects>
                <_>
                  46 0 2 1 -1.</_>
                <_>
                  46 0 1 1 2.</_></rects>
              <tilted>0</tilted></feature>
            <threshold>0.</threshold>
            <left_val>0.</left_val>
            <right_val>-1.</right_val></_></_>
        <_>
          <!-- tree 46 -->
          <_>
            <!-- root node -->
            <feature>
              <rects>
                <_>
                  0 1 9 18 -1.</_>
                <_>
                  3 1 3 18 3.</_></rects>
              <tilted>0</tilted></feature>
            <threshold>-1.4663729816675186e-02</threshold>
            <left_val>1.</left_val>
            <right_val>-1.</right_val></_></_>
        <_>
          <!-- tree 47 -->
          <_>
            <!-- root node -->
            <feature>
              <rects>
                <_>
                  26 9 12 6 -1.</_>
                <_>
                  30 11 4 2 9.</_></rects>
              <tilted>0</tilted></feature>
            <threshold>-2.2236520890146494e-03</threshold>
            <left_val>9.3413460254669189e-01</left_val>
            <right_val>-9.5265477895736694e-01</right_val></_></_>
        <_>
          <!-- tree 48 -->
          <_>
            <!-- root node -->
            <feature>
              <rects>
                <_>
                  14 0 15 21 -1.</_>
                <_>
                  19 7 5 7 9.</_></rects>
              <tilted>0</tilted></feature>
            <threshold>5.4773269221186638e-03</threshold>
            <left_val>-1.</left_val>
            <right_val>9.7463089227676392e-01</right_val></_></_>
        <_>
          <!-- tree 49 -->
          <_>
            <!-- root node -->
            <feature>
              <rects>
                <_>
                  46 0 2 6 -1.</_>
                <_>
                  47 0 1 3 2.</_>
                <_>
                  46 3 1 3 2.</_></rects>
              <tilted>0</tilted></feature>
            <threshold>1.2325910211075097e-04</threshold>
            <left_val>-9.9144119024276733e-01</left_val>
            <right_val>5.9969460964202881e-01</right_val></_></_>
        <_>
          <!-- tree 50 -->
          <_>
            <!-- root node -->
            <feature>
              <rects>
                <_>
                  0 0 2 2 -1.</_>
                <_>
                  0 0 1 1 2.</_>
                <_>
                  1 1 1 1 2.</_></rects>
              <tilted>0</tilted></feature>
            <threshold>7.2457178248441778e-06</threshold>
            <left_val>-1.</left_val>
            <right_val>1.0000029802322388e+00</right_val></_></_>
        <_>
          <!-- tree 51 -->
          <_>
            <!-- root node -->
            <feature>
              <rects>
                <_>
                  46 0 2 1 -1.</_>
                <_>
                  46 0 1 1 2.</_></rects>
              <tilted>0</tilted></feature>
            <threshold>0.</threshold>
            <left_val>0.</left_val>
            <right_val>-1.</right_val></_></_>
        <_>
          <!-- tree 52 -->
          <_>
            <!-- root node -->
            <feature>
              <rects>
                <_>
                  19 2 4 10 -1.</_>
                <_>
                  20 2 2 10 2.</_></rects>
              <tilted>0</tilted></feature>
            <threshold>-6.7694822791963816e-04</threshold>
            <left_val>1.</left_val>
            <right_val>-1.0000009536743164e+00</right_val></_></_>
        <_>
          <!-- tree 53 -->
          <_>
            <!-- root node -->
            <feature>
              <rects>
                <_>
                  19 1 10 10 -1.</_>
                <_>
                  19 1 5 10 2.</_></rects>
              <tilted>0</tilted></feature>
            <threshold>2.8937330353073776e-04</threshold>
            <left_val>-1.</left_val>
            <right_val>9.2899537086486816e-01</right_val></_></_>
        <_>
          <!-- tree 54 -->
          <_>
            <!-- root node -->
            <feature>
              <rects>
                <_>
                  0 0 2 2 -1.</_>
                <_>
                  0 0 1 1 2.</_>
                <_>
                  1 1 1 1 2.</_></rects>
              <tilted>0</tilted></feature>
            <threshold>-1.0708899935707450e-03</threshold>
            <left_val>1.</left_val>
            <right_val>-1.</right_val></_></_>
        <_>
          <!-- tree 55 -->
          <_>
            <!-- root node -->
            <feature>
              <rects>
                <_>
                  20 11 8 1 -1.</_>
                <_>
                  22 11 4 1 2.</_></rects>
              <tilted>0</tilted></feature>
            <threshold>1.0728799679782242e-04</threshold>
            <left_val>-1.</left_val>
            <right_val>9.4257020950317383e-01</right_val></_></_>
        <_>
          <!-- tree 56 -->
          <_>
            <!-- root node -->
            <feature>
              <rects>
                <_>
                  0 0 2 1 -1.</_>
                <_>
                  1 0 1 1 2.</_></rects>
              <tilted>0</tilted></feature>
            <threshold>6.3184903410729021e-05</threshold>
            <left_val>-1.</left_val>
            <right_val>1.</right_val></_></_>
        <_>
          <!-- tree 57 -->
          <_>
            <!-- root node -->
            <feature>
              <rects>
                <_>
                  46 0 2 1 -1.</_>
                <_>
                  46 0 1 1 2.</_></rects>
              <tilted>0</tilted></feature>
            <threshold>0.</threshold>
            <left_val>0.</left_val>
            <right_val>-1.</right_val></_></_>
        <_>
          <!-- tree 58 -->
          <_>
            <!-- root node -->
            <feature>
              <rects>
                <_>
                  0 0 2 14 -1.</_>
                <_>
                  0 7 2 7 2.</_></rects>
              <tilted>0</tilted></feature>
            <threshold>1.7540330009069294e-04</threshold>
            <left_val>-1.</left_val>
            <right_val>1.0000020265579224e+00</right_val></_></_>
        <_>
          <!-- tree 59 -->
          <_>
            <!-- root node -->
            <feature>
              <rects>
                <_>
                  46 0 2 1 -1.</_>
                <_>
                  46 0 1 1 2.</_></rects>
              <tilted>0</tilted></feature>
            <threshold>0.</threshold>
            <left_val>0.</left_val>
            <right_val>-1.</right_val></_></_>
        <_>
          <!-- tree 60 -->
          <_>
            <!-- root node -->
            <feature>
              <rects>
                <_>
                  1 14 24 10 -1.</_>
                <_>
                  9 14 8 10 3.</_></rects>
              <tilted>0</tilted></feature>
            <threshold>-3.9602559991180897e-03</threshold>
            <left_val>1.</left_val>
            <right_val>-9.9999850988388062e-01</right_val></_></_>
        <_>
          <!-- tree 61 -->
          <_>
            <!-- root node -->
            <feature>
              <rects>
                <_>
                  33 9 13 8 -1.</_>
                <_>
                  33 13 13 4 2.</_></rects>
              <tilted>0</tilted></feature>
            <threshold>1.8063740571960807e-03</threshold>
            <left_val>-7.9305642843246460e-01</left_val>
            <right_val>9.1101151704788208e-01</right_val></_></_>
        <_>
          <!-- tree 62 -->
          <_>
            <!-- root node -->
            <feature>
              <rects>
                <_>
                  3 2 40 12 -1.</_>
                <_>
                  3 2 20 6 2.</_>
                <_>
                  23 8 20 6 2.</_></rects>
              <tilted>0</tilted></feature>
            <threshold>9.0259761782363057e-04</threshold>
            <left_val>-1.</left_val>
            <right_val>1.0000040531158447e+00</right_val></_></_>
        <_>
          <!-- tree 63 -->
          <_>
            <!-- root node -->
            <feature>
              <rects>
                <_>
                  46 0 2 1 -1.</_>
                <_>
                  46 0 1 1 2.</_></rects>
              <tilted>0</tilted></feature>
            <threshold>0.</threshold>
            <left_val>0.</left_val>
            <right_val>-1.</right_val></_></_>
        <_>
          <!-- tree 64 -->
          <_>
            <!-- root node -->
            <feature>
              <rects>
                <_>
                  0 0 8 17 -1.</_>
                <_>
                  2 0 4 17 2.</_></rects>
              <tilted>0</tilted></feature>
            <threshold>-7.4050517287105322e-04</threshold>
            <left_val>1.</left_val>
            <right_val>-1.0000009536743164e+00</right_val></_></_>
        <_>
          <!-- tree 65 -->
          <_>
            <!-- root node -->
            <feature>
              <rects>
                <_>
                  34 1 3 18 -1.</_>
                <_>
                  35 7 1 6 9.</_></rects>
              <tilted>0</tilted></feature>
            <threshold>2.1583009511232376e-02</threshold>
            <left_val>-8.6590182781219482e-01</left_val>
            <right_val>1.</right_val></_></_>
        <_>
          <!-- tree 66 -->
          <_>
            <!-- root node -->
            <feature>
              <rects>
                <_>
                  0 0 4 12 -1.</_>
                <_>
                  0 0 2 6 2.</_>
                <_>
                  2 6 2 6 2.</_></rects>
              <tilted>0</tilted></feature>
            <threshold>-2.8007070068269968e-03</threshold>
            <left_val>1.</left_val>
            <right_val>-1.</right_val></_></_>
        <_>
          <!-- tree 67 -->
          <_>
            <!-- root node -->
            <feature>
              <rects>
                <_>
                  33 0 9 24 -1.</_>
                <_>
                  36 0 3 24 3.</_></rects>
              <tilted>0</tilted></feature>
            <threshold>-2.2441290784627199e-03</threshold>
            <left_val>1.</left_val>
            <right_val>-9.7695761919021606e-01</right_val></_></_>
        <_>
          <!-- tree 68 -->
          <_>
            <!-- root node -->
            <feature>
              <rects>
                <_>
                  6 2 9 10 -1.</_>
                <_>
                  9 2 3 10 3.</_></rects>
              <tilted>0</tilted></feature>
            <threshold>-8.1973317719530314e-05</threshold>
            <left_val>9.3402647972106934e-01</left_val>
            <right_val>-9.8883801698684692e-01</right_val></_></_></trees>
      <stage_threshold>-2.3236200213432312e-01</stage_threshold>
      <parent>5</parent>
      <next>-1</next></_></stages></model>
</opencv_storage>
