<?xml version="1.0"?>
<opencv_storage>
<cascade>
  <stageType>BOOST</stageType>
  <featureType>HAAR</featureType>
  <height>24</height>
  <width>60</width>
  <stageParams>
    <boostType>GAB</boostType>
    <minHitRate>9.9500000476837158e-01</minHitRate>
    <maxFalseAlarm>5.0000000000000000e-01</maxFalseAlarm>
    <weightTrimRate>9.4999999999999996e-01</weightTrimRate>
    <maxDepth>1</maxDepth>
    <maxWeakCount>100</maxWeakCount></stageParams>
  <featureParams>
    <maxCatCount>0</maxCatCount>
    <featSize>1</featSize>
    <mode>CORE</mode></featureParams>
  <stageNum>20</stageNum>
  <stages>
    <!-- stage 0 -->
    <_>
      <maxWeakCount>7</maxWeakCount>
      <stageThreshold>-1.0694649219512939e+00</stageThreshold>
      <weakClassifiers>
        <_>
          <internalNodes>
            0 -1 29 -7.7856825664639473e-03</internalNodes>
          <leafValues>
            5.7230144739151001e-01 -5.7581764459609985e-01</leafValues></_>
        <_>
          <internalNodes>
            0 -1 236 1.1149886064231396e-02</internalNodes>
          <leafValues>
            -2.9608538746833801e-01 8.3382999897003174e-01</leafValues></_>
        <_>
          <internalNodes>
            0 -1 86 1.3068174943327904e-02</internalNodes>
          <leafValues>
            -4.4703620672225952e-01 4.6700495481491089e-01</leafValues></_>
        <_>
          <internalNodes>
            0 -1 114 -2.8697116067633033e-04</internalNodes>
          <leafValues>
            -8.2110410928726196e-01 2.3975445330142975e-01</leafValues></_>
        <_>
          <internalNodes>
            0 -1 131 -2.5962912477552891e-03</internalNodes>
          <leafValues>
            7.8082162141799927e-01 -2.5920119881629944e-01</leafValues></_>
        <_>
          <internalNodes>
            0 -1 206 1.8644295050762594e-04</internalNodes>
          <leafValues>
            2.3802405595779419e-01 -8.7233370542526245e-01</leafValues></_>
        <_>
          <internalNodes>
            0 -1 206 -2.6116269873455167e-04</internalNodes>
          <leafValues>
            -9.0241295099258423e-01 1.7771446704864502e-01</leafValues></_></weakClassifiers></_>
    <!-- stage 1 -->
    <_>
      <maxWeakCount>9</maxWeakCount>
      <stageThreshold>-1.0298154354095459e+00</stageThreshold>
      <weakClassifiers>
        <_>
          <internalNodes>
            0 -1 145 -8.4332991391420364e-03</internalNodes>
          <leafValues>
            5.8974361419677734e-01 -5.5813956260681152e-01</leafValues></_>
        <_>
          <internalNodes>
            0 -1 30 -1.5098878182470798e-02</internalNodes>
          <leafValues>
            5.4217612743377686e-01 -4.9697098135948181e-01</leafValues></_>
        <_>
          <internalNodes>
            0 -1 45 4.8956377431750298e-03</internalNodes>
          <leafValues>
            -3.1071886420249939e-01 7.1908777952194214e-01</leafValues></_>
        <_>
          <internalNodes>
            0 -1 54 5.7135522365570068e-03</internalNodes>
          <leafValues>
            -3.0398499965667725e-01 6.4953792095184326e-01</leafValues></_>
        <_>
          <internalNodes>
            0 -1 142 -1.8695097416639328e-02</internalNodes>
          <leafValues>
            7.1836429834365845e-01 -2.4813476204872131e-01</leafValues></_>
        <_>
          <internalNodes>
            0 -1 26 4.5531209558248520e-02</internalNodes>
          <leafValues>
            -2.8609392046928406e-01 6.9878661632537842e-01</leafValues></_>
        <_>
          <internalNodes>
            0 -1 186 1.5710662119090557e-03</internalNodes>
          <leafValues>
            -2.0728716254234314e-01 7.8618210554122925e-01</leafValues></_>
        <_>
          <internalNodes>
            0 -1 62 1.5368585009127855e-03</internalNodes>
          <leafValues>
            -2.2740270197391510e-01 7.1158301830291748e-01</leafValues></_>
        <_>
          <internalNodes>
            0 -1 164 -9.8884676117449999e-04</internalNodes>
          <leafValues>
            6.5539455413818359e-01 -2.2166541218757629e-01</leafValues></_></weakClassifiers></_>
    <!-- stage 2 -->
    <_>
      <maxWeakCount>9</maxWeakCount>
      <stageThreshold>-1.2695126533508301e+00</stageThreshold>
      <weakClassifiers>
        <_>
          <internalNodes>
            0 -1 36 -2.2247966378927231e-02</internalNodes>
          <leafValues>
            5.5778896808624268e-01 -4.7368422150611877e-01</leafValues></_>
        <_>
          <internalNodes>
            0 -1 105 5.5306041613221169e-03</internalNodes>
          <leafValues>
            -3.9453107118606567e-01 4.8547440767288208e-01</leafValues></_>
        <_>
          <internalNodes>
            0 -1 118 1.1247340589761734e-02</internalNodes>
          <leafValues>
            -3.0979034304618835e-01 5.7756733894348145e-01</leafValues></_>
        <_>
          <internalNodes>
            0 -1 217 4.3329233303666115e-03</internalNodes>
          <leafValues>
            -2.3407185077667236e-01 7.2173935174942017e-01</leafValues></_>
        <_>
          <internalNodes>
            0 -1 43 1.2487306958064437e-04</internalNodes>
          <leafValues>
            2.3692357540130615e-01 -8.6365437507629395e-01</leafValues></_>
        <_>
          <internalNodes>
            0 -1 43 -1.2653309386223555e-04</internalNodes>
          <leafValues>
            -7.8240680694580078e-01 2.1264375746250153e-01</leafValues></_>
        <_>
          <internalNodes>
            0 -1 147 3.0208793468773365e-03</internalNodes>
          <leafValues>
            -2.7650845050811768e-01 5.7648271322250366e-01</leafValues></_>
        <_>
          <internalNodes>
            0 -1 230 -1.9162791431881487e-04</internalNodes>
          <leafValues>
            -7.9113161563873291e-01 2.2164191305637360e-01</leafValues></_>
        <_>
          <internalNodes>
            0 -1 187 2.7912724763154984e-03</internalNodes>
          <leafValues>
            -2.4801816046237946e-01 7.4291461706161499e-01</leafValues></_></weakClassifiers></_>
    <!-- stage 3 -->
    <_>
      <maxWeakCount>10</maxWeakCount>
      <stageThreshold>-1.1035574674606323e+00</stageThreshold>
      <weakClassifiers>
        <_>
          <internalNodes>
            0 -1 235 2.0281650125980377e-02</internalNodes>
          <leafValues>
            -4.3405675888061523e-01 7.2847682237625122e-01</leafValues></_>
        <_>
          <internalNodes>
            0 -1 87 3.2805739901959896e-03</internalNodes>
          <leafValues>
            -2.1536409854888916e-01 7.5246441364288330e-01</leafValues></_>
        <_>
          <internalNodes>
            0 -1 96 1.4720221515744925e-03</internalNodes>
          <leafValues>
            -2.6975432038307190e-01 6.0993319749832153e-01</leafValues></_>
        <_>
          <internalNodes>
            0 -1 238 -1.4929450117051601e-03</internalNodes>
          <leafValues>
            5.5801570415496826e-01 -2.6343947649002075e-01</leafValues></_>
        <_>
          <internalNodes>
            0 -1 230 2.1922562154941261e-04</internalNodes>
          <leafValues>
            2.4865430593490601e-01 -7.7665174007415771e-01</leafValues></_>
        <_>
          <internalNodes>
            0 -1 80 2.1993909031152725e-03</internalNodes>
          <leafValues>
            -2.4276961386203766e-01 6.9361901283264160e-01</leafValues></_>
        <_>
          <internalNodes>
            0 -1 157 -2.6229268405586481e-04</internalNodes>
          <leafValues>
            -7.6398140192031860e-01 1.9239869713783264e-01</leafValues></_>
        <_>
          <internalNodes>
            0 -1 99 2.1323300898075104e-03</internalNodes>
          <leafValues>
            -2.1745228767395020e-01 7.1314358711242676e-01</leafValues></_>
        <_>
          <internalNodes>
            0 -1 88 -4.9954811111092567e-03</internalNodes>
          <leafValues>
            4.5644953846931458e-01 -3.3333966135978699e-01</leafValues></_>
        <_>
          <internalNodes>
            0 -1 170 4.1467767208814621e-02</internalNodes>
          <leafValues>
            -2.8153079748153687e-01 5.8142769336700439e-01</leafValues></_></weakClassifiers></_>
    <!-- stage 4 -->
    <_>
      <maxWeakCount>9</maxWeakCount>
      <stageThreshold>-9.2988663911819458e-01</stageThreshold>
      <weakClassifiers>
        <_>
          <internalNodes>
            0 -1 11 1.8525496125221252e-02</internalNodes>
          <leafValues>
            -4.2126956582069397e-01 7.3519164323806763e-01</leafValues></_>
        <_>
          <internalNodes>
            0 -1 104 2.8491355478763580e-02</internalNodes>
          <leafValues>
            1.7512774467468262e-01 -8.5667628049850464e-01</leafValues></_>
        <_>
          <internalNodes>
            0 -1 173 9.0383295901119709e-04</internalNodes>
          <leafValues>
            -2.7390116453170776e-01 5.5075889825820923e-01</leafValues></_>
        <_>
          <internalNodes>
            0 -1 167 6.6148437326774001e-04</internalNodes>
          <leafValues>
            -2.1443878114223480e-01 5.8480644226074219e-01</leafValues></_>
        <_>
          <internalNodes>
            0 -1 157 3.7669931771233678e-04</internalNodes>
          <leafValues>
            2.0100484788417816e-01 -7.7217447757720947e-01</leafValues></_>
        <_>
          <internalNodes>
            0 -1 89 -6.3538476824760437e-02</internalNodes>
          <leafValues>
            -8.5645085573196411e-01 1.3835552334785461e-01</leafValues></_>
        <_>
          <internalNodes>
            0 -1 6 5.2802726626396179e-02</internalNodes>
          <leafValues>
            -2.5812688469886780e-01 6.4454597234725952e-01</leafValues></_>
        <_>
          <internalNodes>
            0 -1 151 1.0932297445833683e-03</internalNodes>
          <leafValues>
            -2.6653593778610229e-01 4.9833926558494568e-01</leafValues></_>
        <_>
          <internalNodes>
            0 -1 109 -2.4354847846552730e-04</internalNodes>
          <leafValues>
            -7.7954900264739990e-01 2.2245636582374573e-01</leafValues></_></weakClassifiers></_>
    <!-- stage 5 -->
    <_>
      <maxWeakCount>10</maxWeakCount>
      <stageThreshold>-1.1366716623306274e+00</stageThreshold>
      <weakClassifiers>
        <_>
          <internalNodes>
            0 -1 240 -1.3440761715173721e-02</internalNodes>
          <leafValues>
            6.8106311559677124e-01 -4.2118433117866516e-01</leafValues></_>
        <_>
          <internalNodes>
            0 -1 18 -2.2070407867431641e-02</internalNodes>
          <leafValues>
            7.8805130720138550e-01 -2.0418012142181396e-01</leafValues></_>
        <_>
          <internalNodes>
            0 -1 60 5.6347167119383812e-03</internalNodes>
          <leafValues>
            -2.1812017261981964e-01 5.7942903041839600e-01</leafValues></_>
        <_>
          <internalNodes>
            0 -1 67 -2.2673679632134736e-04</internalNodes>
          <leafValues>
            -8.4107786417007446e-01 1.5500231087207794e-01</leafValues></_>
        <_>
          <internalNodes>
            0 -1 192 1.1839626822620630e-03</internalNodes>
          <leafValues>
            -2.0165941119194031e-01 6.6077452898025513e-01</leafValues></_>
        <_>
          <internalNodes>
            0 -1 67 2.2801435261499137e-04</internalNodes>
          <leafValues>
            1.5963287651538849e-01 -9.1837382316589355e-01</leafValues></_>
        <_>
          <internalNodes>
            0 -1 203 -1.2658063787966967e-03</internalNodes>
          <leafValues>
            4.8430728912353516e-01 -2.9547977447509766e-01</leafValues></_>
        <_>
          <internalNodes>
            0 -1 204 3.6302988883107901e-03</internalNodes>
          <leafValues>
            -2.0109494030475616e-01 6.2265765666961670e-01</leafValues></_>
        <_>
          <internalNodes>
            0 -1 7 2.8700079768896103e-02</internalNodes>
          <leafValues>
            -2.5705927610397339e-01 5.0907194614410400e-01</leafValues></_>
        <_>
          <internalNodes>
            0 -1 136 -3.1494200229644775e-03</internalNodes>
          <leafValues>
            4.8111733794212341e-01 -2.7935406565666199e-01</leafValues></_></weakClassifiers></_>
    <!-- stage 6 -->
    <_>
      <maxWeakCount>11</maxWeakCount>
      <stageThreshold>-1.2522372007369995e+00</stageThreshold>
      <weakClassifiers>
        <_>
          <internalNodes>
            0 -1 166 4.2720586061477661e-03</internalNodes>
          <leafValues>
            -4.1597336530685425e-01 6.7114096879959106e-01</leafValues></_>
        <_>
          <internalNodes>
            0 -1 174 9.9945208057761192e-04</internalNodes>
          <leafValues>
            -2.7892196178436279e-01 6.0104483366012573e-01</leafValues></_>
        <_>
          <internalNodes>
            0 -1 163 5.0087220733985305e-04</internalNodes>
          <leafValues>
            -2.9247590899467468e-01 5.1150101423263550e-01</leafValues></_>
        <_>
          <internalNodes>
            0 -1 221 4.3668205034919083e-04</internalNodes>
          <leafValues>
            -3.2790282368659973e-01 4.2977446317672729e-01</leafValues></_>
        <_>
          <internalNodes>
            0 -1 162 -2.2960247006267309e-03</internalNodes>
          <leafValues>
            7.1441423892974854e-01 -2.2315189242362976e-01</leafValues></_>
        <_>
          <internalNodes>
            0 -1 177 2.6585212908685207e-03</internalNodes>
          <leafValues>
            2.3493841290473938e-01 -7.9377442598342896e-01</leafValues></_>
        <_>
          <internalNodes>
            0 -1 91 1.2945674825459719e-03</internalNodes>
          <leafValues>
            -2.8249135613441467e-01 4.7147357463836670e-01</leafValues></_>
        <_>
          <internalNodes>
            0 -1 73 1.1900520883500576e-02</internalNodes>
          <leafValues>
            1.7818053066730499e-01 -8.4227782487869263e-01</leafValues></_>
        <_>
          <internalNodes>
            0 -1 225 -1.5550198033452034e-02</internalNodes>
          <leafValues>
            5.2365070581436157e-01 -2.9161369800567627e-01</leafValues></_>
        <_>
          <internalNodes>
            0 -1 34 -3.4059073776006699e-02</internalNodes>
          <leafValues>
            -8.2201910018920898e-01 2.0924256742000580e-01</leafValues></_>
        <_>
          <internalNodes>
            0 -1 111 1.9490572158247232e-03</internalNodes>
          <leafValues>
            -2.9246020317077637e-01 5.4685550928115845e-01</leafValues></_></weakClassifiers></_>
    <!-- stage 7 -->
    <_>
      <maxWeakCount>10</maxWeakCount>
      <stageThreshold>-9.0638250112533569e-01</stageThreshold>
      <weakClassifiers>
        <_>
          <internalNodes>
            0 -1 10 1.9888147711753845e-02</internalNodes>
          <leafValues>
            -3.9248600602149963e-01 7.6706826686859131e-01</leafValues></_>
        <_>
          <internalNodes>
            0 -1 35 7.2147725149989128e-03</internalNodes>
          <leafValues>
            -1.8363706767559052e-01 6.2968021631240845e-01</leafValues></_>
        <_>
          <internalNodes>
            0 -1 169 -1.1387921869754791e-02</internalNodes>
          <leafValues>
            5.0921231508255005e-01 -2.7019608020782471e-01</leafValues></_>
        <_>
          <internalNodes>
            0 -1 27 5.3088525310158730e-03</internalNodes>
          <leafValues>
            -2.4562624096870422e-01 5.1555037498474121e-01</leafValues></_>
        <_>
          <internalNodes>
            0 -1 121 8.3676830399781466e-04</internalNodes>
          <leafValues>
            2.5577139854431152e-01 -5.9994912147521973e-01</leafValues></_>
        <_>
          <internalNodes>
            0 -1 107 1.5368106542155147e-03</internalNodes>
          <leafValues>
            -1.8873901665210724e-01 5.8731383085250854e-01</leafValues></_>
        <_>
          <internalNodes>
            0 -1 101 -1.6795752162579447e-04</internalNodes>
          <leafValues>
            -7.1376091241836548e-01 1.6769634187221527e-01</leafValues></_>
        <_>
          <internalNodes>
            0 -1 25 1.1071558110415936e-03</internalNodes>
          <leafValues>
            1.1768969893455505e-01 -9.3822324275970459e-01</leafValues></_>
        <_>
          <internalNodes>
            0 -1 199 1.1603841558098793e-03</internalNodes>
          <leafValues>
            -2.8860893845558167e-01 4.3039450049400330e-01</leafValues></_>
        <_>
          <internalNodes>
            0 -1 128 -4.7182170674204826e-03</internalNodes>
          <leafValues>
            2.8420728445053101e-01 -4.0497875213623047e-01</leafValues></_></weakClassifiers></_>
    <!-- stage 8 -->
    <_>
      <maxWeakCount>12</maxWeakCount>
      <stageThreshold>-1.2920923233032227e+00</stageThreshold>
      <weakClassifiers>
        <_>
          <internalNodes>
            0 -1 2 5.5269189178943634e-02</internalNodes>
          <leafValues>
            -4.6629214286804199e-01 4.5833334326744080e-01</leafValues></_>
        <_>
          <internalNodes>
            0 -1 165 8.0626159906387329e-03</internalNodes>
          <leafValues>
            -1.7777374386787415e-01 7.6256495714187622e-01</leafValues></_>
        <_>
          <internalNodes>
            0 -1 93 -2.1828074008226395e-02</internalNodes>
          <leafValues>
            4.9078047275543213e-01 -2.5180578231811523e-01</leafValues></_>
        <_>
          <internalNodes>
            0 -1 123 8.4101880202069879e-04</internalNodes>
          <leafValues>
            -3.0227819085121155e-01 3.8614770770072937e-01</leafValues></_>
        <_>
          <internalNodes>
            0 -1 47 -1.6220126301050186e-02</internalNodes>
          <leafValues>
            6.4598202705383301e-01 -1.7284658551216125e-01</leafValues></_>
        <_>
          <internalNodes>
            0 -1 103 2.0270418375730515e-02</internalNodes>
          <leafValues>
            1.6257812082767487e-01 -8.8199800252914429e-01</leafValues></_>
        <_>
          <internalNodes>
            0 -1 140 4.8963213339447975e-03</internalNodes>
          <leafValues>
            -2.1993185579776764e-01 6.1123442649841309e-01</leafValues></_>
        <_>
          <internalNodes>
            0 -1 133 1.3082267250865698e-03</internalNodes>
          <leafValues>
            -2.9619517922401428e-01 5.6577461957931519e-01</leafValues></_>
        <_>
          <internalNodes>
            0 -1 149 2.5167413987219334e-03</internalNodes>
          <leafValues>
            1.8172629177570343e-01 -7.7636730670928955e-01</leafValues></_>
        <_>
          <internalNodes>
            0 -1 181 3.2394090667366982e-03</internalNodes>
          <leafValues>
            -2.2764010727405548e-01 5.9571450948715210e-01</leafValues></_>
        <_>
          <internalNodes>
            0 -1 17 -2.1653051953762770e-03</internalNodes>
          <leafValues>
            -6.7218625545501709e-01 2.0908313989639282e-01</leafValues></_>
        <_>
          <internalNodes>
            0 -1 146 1.7653882969170809e-03</internalNodes>
          <leafValues>
            -2.3430015146732330e-01 6.3422298431396484e-01</leafValues></_></weakClassifiers></_>
    <!-- stage 9 -->
    <_>
      <maxWeakCount>12</maxWeakCount>
      <stageThreshold>-1.1137338876724243e+00</stageThreshold>
      <weakClassifiers>
        <_>
          <internalNodes>
            0 -1 63 -1.1025616899132729e-02</internalNodes>
          <leafValues>
            7.2072070837020874e-01 -3.5993739962577820e-01</leafValues></_>
        <_>
          <internalNodes>
            0 -1 216 1.1058734729886055e-02</internalNodes>
          <leafValues>
            -2.0018263161182404e-01 5.8699321746826172e-01</leafValues></_>
        <_>
          <internalNodes>
            0 -1 72 -2.2576339542865753e-02</internalNodes>
          <leafValues>
            -6.7554587125778198e-01 1.7415855824947357e-01</leafValues></_>
        <_>
          <internalNodes>
            0 -1 51 8.0533266067504883e-02</internalNodes>
          <leafValues>
            1.1456262320280075e-01 -8.2218223810195923e-01</leafValues></_>
        <_>
          <internalNodes>
            0 -1 100 -3.4274588688276708e-04</internalNodes>
          <leafValues>
            -7.7168619632720947e-01 1.2039887905120850e-01</leafValues></_>
        <_>
          <internalNodes>
            0 -1 239 9.6260607242584229e-03</internalNodes>
          <leafValues>
            -1.5802450478076935e-01 7.2384494543075562e-01</leafValues></_>
        <_>
          <internalNodes>
            0 -1 117 9.0198556426912546e-04</internalNodes>
          <leafValues>
            1.2949688732624054e-01 -7.8466194868087769e-01</leafValues></_>
        <_>
          <internalNodes>
            0 -1 152 1.6423754859715700e-03</internalNodes>
          <leafValues>
            -2.4845775961875916e-01 4.4656005501747131e-01</leafValues></_>
        <_>
          <internalNodes>
            0 -1 143 -1.7672923859208822e-03</internalNodes>
          <leafValues>
            5.2289378643035889e-01 -1.9757802784442902e-01</leafValues></_>
        <_>
          <internalNodes>
            0 -1 82 3.2855053432285786e-03</internalNodes>
          <leafValues>
            -1.7669011652469635e-01 6.2248212099075317e-01</leafValues></_>
        <_>
          <internalNodes>
            0 -1 218 -3.5982608096674085e-04</internalNodes>
          <leafValues>
            -6.9348526000976562e-01 1.7530496418476105e-01</leafValues></_>
        <_>
          <internalNodes>
            0 -1 84 -3.0125509947538376e-03</internalNodes>
          <leafValues>
            4.8070070147514343e-01 -2.3822294175624847e-01</leafValues></_></weakClassifiers></_>
    <!-- stage 10 -->
    <_>
      <maxWeakCount>11</maxWeakCount>
      <stageThreshold>-1.2636607885360718e+00</stageThreshold>
      <weakClassifiers>
        <_>
          <internalNodes>
            0 -1 22 -7.2813085280358791e-03</internalNodes>
          <leafValues>
            5.2522253990173340e-01 -4.1014617681503296e-01</leafValues></_>
        <_>
          <internalNodes>
            0 -1 3 1.2245409190654755e-02</internalNodes>
          <leafValues>
            -3.3323395252227783e-01 3.9612910151481628e-01</leafValues></_>
        <_>
          <internalNodes>
            0 -1 64 2.9321745969355106e-03</internalNodes>
          <leafValues>
            -2.5128203630447388e-01 5.3690642118453979e-01</leafValues></_>
        <_>
          <internalNodes>
            0 -1 102 4.1670550126582384e-04</internalNodes>
          <leafValues>
            1.9425407052040100e-01 -7.9003226757049561e-01</leafValues></_>
        <_>
          <internalNodes>
            0 -1 74 1.7041913233697414e-03</internalNodes>
          <leafValues>
            -2.0328490436077118e-01 5.7045227289199829e-01</leafValues></_>
        <_>
          <internalNodes>
            0 -1 116 -6.6236860584467649e-04</internalNodes>
          <leafValues>
            4.2870095372200012e-01 -2.6365941762924194e-01</leafValues></_>
        <_>
          <internalNodes>
            0 -1 243 5.9105851687490940e-04</internalNodes>
          <leafValues>
            1.7895019054412842e-01 -7.7982819080352783e-01</leafValues></_>
        <_>
          <internalNodes>
            0 -1 197 -1.5323696425184608e-03</internalNodes>
          <leafValues>
            4.7069984674453735e-01 -2.7208027243614197e-01</leafValues></_>
        <_>
          <internalNodes>
            0 -1 115 -2.3642610758543015e-02</internalNodes>
          <leafValues>
            -9.1277450323104858e-01 1.1273766309022903e-01</leafValues></_>
        <_>
          <internalNodes>
            0 -1 154 -5.0185039639472961e-02</internalNodes>
          <leafValues>
            -8.4287750720977783e-01 8.8637486100196838e-02</leafValues></_>
        <_>
          <internalNodes>
            0 -1 207 -5.2411307115107775e-04</internalNodes>
          <leafValues>
            -9.0028607845306396e-01 9.1544449329376221e-02</leafValues></_></weakClassifiers></_>
    <!-- stage 11 -->
    <_>
      <maxWeakCount>14</maxWeakCount>
      <stageThreshold>-1.1124422550201416e+00</stageThreshold>
      <weakClassifiers>
        <_>
          <internalNodes>
            0 -1 9 1.9408514723181725e-02</internalNodes>
          <leafValues>
            -3.6850520968437195e-01 6.4658635854721069e-01</leafValues></_>
        <_>
          <internalNodes>
            0 -1 110 9.1277407482266426e-03</internalNodes>
          <leafValues>
            -2.5293093919754028e-01 4.8610165715217590e-01</leafValues></_>
        <_>
          <internalNodes>
            0 -1 188 1.2241940712556243e-03</internalNodes>
          <leafValues>
            -2.6001703739166260e-01 4.5243400335311890e-01</leafValues></_>
        <_>
          <internalNodes>
            0 -1 79 -7.2564728558063507e-02</internalNodes>
          <leafValues>
            -8.2493776082992554e-01 1.4628283679485321e-01</leafValues></_>
        <_>
          <internalNodes>
            0 -1 108 -1.4845859259366989e-03</internalNodes>
          <leafValues>
            -8.0806422233581543e-01 1.1113347858190536e-01</leafValues></_>
        <_>
          <internalNodes>
            0 -1 196 1.0368943912908435e-03</internalNodes>
          <leafValues>
            -2.4913685023784637e-01 4.1587781906127930e-01</leafValues></_>
        <_>
          <internalNodes>
            0 -1 172 1.3453381834551692e-03</internalNodes>
          <leafValues>
            -2.4672839045524597e-01 4.3208485841751099e-01</leafValues></_>
        <_>
          <internalNodes>
            0 -1 42 -4.6246051788330078e-03</internalNodes>
          <leafValues>
            2.8381693363189697e-01 -3.7201443314552307e-01</leafValues></_>
        <_>
          <internalNodes>
            0 -1 49 8.6035288404673338e-04</internalNodes>
          <leafValues>
            1.1466810107231140e-01 -8.5866820812225342e-01</leafValues></_>
        <_>
          <internalNodes>
            0 -1 211 3.7272821646183729e-04</internalNodes>
          <leafValues>
            -2.5722804665565491e-01 5.0535959005355835e-01</leafValues></_>
        <_>
          <internalNodes>
            0 -1 106 1.0902541689574718e-03</internalNodes>
          <leafValues>
            -2.1277374029159546e-01 4.6714088320732117e-01</leafValues></_>
        <_>
          <internalNodes>
            0 -1 112 5.0510989967733622e-04</internalNodes>
          <leafValues>
            -2.5391578674316406e-01 4.3006229400634766e-01</leafValues></_>
        <_>
          <internalNodes>
            0 -1 185 -3.3888092730194330e-04</internalNodes>
          <leafValues>
            -7.1006500720977783e-01 1.6807048022747040e-01</leafValues></_>
        <_>
          <internalNodes>
            0 -1 200 1.9725831225514412e-03</internalNodes>
          <leafValues>
            -2.8944405913352966e-01 3.5872054100036621e-01</leafValues></_></weakClassifiers></_>
    <!-- stage 12 -->
    <_>
      <maxWeakCount>16</maxWeakCount>
      <stageThreshold>-1.1727063655853271e+00</stageThreshold>
      <weakClassifiers>
        <_>
          <internalNodes>
            0 -1 237 2.0173771306872368e-02</internalNodes>
          <leafValues>
            -3.8513514399528503e-01 4.9367088079452515e-01</leafValues></_>
        <_>
          <internalNodes>
            0 -1 81 2.3663576692342758e-02</internalNodes>
          <leafValues>
            -3.1628549098968506e-01 3.8933610916137695e-01</leafValues></_>
        <_>
          <internalNodes>
            0 -1 141 2.4485648609697819e-03</internalNodes>
          <leafValues>
            -2.8448039293289185e-01 3.8195455074310303e-01</leafValues></_>
        <_>
          <internalNodes>
            0 -1 159 1.2120334431529045e-03</internalNodes>
          <leafValues>
            1.2272452563047409e-01 -6.8039274215698242e-01</leafValues></_>
        <_>
          <internalNodes>
            0 -1 193 1.5377007657662034e-03</internalNodes>
          <leafValues>
            -2.3451989889144897e-01 4.2929643392562866e-01</leafValues></_>
        <_>
          <internalNodes>
            0 -1 129 -9.2706666328012943e-04</internalNodes>
          <leafValues>
            4.9266514182090759e-01 -1.7511279881000519e-01</leafValues></_>
        <_>
          <internalNodes>
            0 -1 232 2.0347738172858953e-03</internalNodes>
          <leafValues>
            -2.0562779903411865e-01 5.4935097694396973e-01</leafValues></_>
        <_>
          <internalNodes>
            0 -1 212 -3.3670915290713310e-03</internalNodes>
          <leafValues>
            -8.3942884206771851e-01 1.5447716414928436e-01</leafValues></_>
        <_>
          <internalNodes>
            0 -1 122 -3.1289637554436922e-03</internalNodes>
          <leafValues>
            3.2979512214660645e-01 -3.1036809086799622e-01</leafValues></_>
        <_>
          <internalNodes>
            0 -1 31 6.7640505731105804e-03</internalNodes>
          <leafValues>
            -1.5421792864799500e-01 5.7033801078796387e-01</leafValues></_>
        <_>
          <internalNodes>
            0 -1 245 3.4204119583591819e-04</internalNodes>
          <leafValues>
            1.1639066785573959e-01 -8.0240845680236816e-01</leafValues></_>
        <_>
          <internalNodes>
            0 -1 228 1.0160921374335885e-03</internalNodes>
          <leafValues>
            -2.7787050604820251e-01 3.6723718047142029e-01</leafValues></_>
        <_>
          <internalNodes>
            0 -1 52 -1.8664883449673653e-02</internalNodes>
          <leafValues>
            -6.1390751600265503e-01 1.6708950698375702e-01</leafValues></_>
        <_>
          <internalNodes>
            0 -1 46 2.0057279616594315e-03</internalNodes>
          <leafValues>
            -2.8336283564567566e-01 3.9844205975532532e-01</leafValues></_>
        <_>
          <internalNodes>
            0 -1 78 -1.1591468937695026e-02</internalNodes>
          <leafValues>
            -7.3079836368560791e-01 1.2494987249374390e-01</leafValues></_>
        <_>
          <internalNodes>
            0 -1 178 -3.2176394015550613e-03</internalNodes>
          <leafValues>
            4.5336744189262390e-01 -2.2471112012863159e-01</leafValues></_></weakClassifiers></_>
    <!-- stage 13 -->
    <_>
      <maxWeakCount>15</maxWeakCount>
      <stageThreshold>-1.3592890501022339e+00</stageThreshold>
      <weakClassifiers>
        <_>
          <internalNodes>
            0 -1 214 7.4716852977871895e-03</internalNodes>
          <leafValues>
            -4.2775118350982666e-01 3.2307693362236023e-01</leafValues></_>
        <_>
          <internalNodes>
            0 -1 124 9.7973307128995657e-04</internalNodes>
          <leafValues>
            -3.3149623870849609e-01 3.5294961929321289e-01</leafValues></_>
        <_>
          <internalNodes>
            0 -1 215 1.6878869384527206e-02</internalNodes>
          <leafValues>
            -1.8891040980815887e-01 5.4407417774200439e-01</leafValues></_>
        <_>
          <internalNodes>
            0 -1 39 4.8769050044938922e-04</internalNodes>
          <leafValues>
            1.3478143513202667e-01 -7.5447469949722290e-01</leafValues></_>
        <_>
          <internalNodes>
            0 -1 219 3.3471695496700704e-04</internalNodes>
          <leafValues>
            1.2384857237339020e-01 -7.6078188419342041e-01</leafValues></_>
        <_>
          <internalNodes>
            0 -1 195 6.1474717222154140e-04</internalNodes>
          <leafValues>
            -2.5197738409042358e-01 3.5842439532279968e-01</leafValues></_>
        <_>
          <internalNodes>
            0 -1 158 3.6629973910748959e-03</internalNodes>
          <leafValues>
            -2.1756416559219360e-01 4.4792947173118591e-01</leafValues></_>
        <_>
          <internalNodes>
            0 -1 156 7.1537372423335910e-04</internalNodes>
          <leafValues>
            -1.9267313182353973e-01 4.6949779987335205e-01</leafValues></_>
        <_>
          <internalNodes>
            0 -1 126 -5.6930491700768471e-03</internalNodes>
          <leafValues>
            6.6385328769683838e-01 -1.2132132053375244e-01</leafValues></_>
        <_>
          <internalNodes>
            0 -1 155 -5.4956367239356041e-04</internalNodes>
          <leafValues>
            4.4702503085136414e-01 -1.9124673306941986e-01</leafValues></_>
        <_>
          <internalNodes>
            0 -1 189 -2.7040438726544380e-04</internalNodes>
          <leafValues>
            -9.2721909284591675e-01 9.4260893762111664e-02</leafValues></_>
        <_>
          <internalNodes>
            0 -1 227 -1.2803887948393822e-03</internalNodes>
          <leafValues>
            3.7840288877487183e-01 -2.6935672760009766e-01</leafValues></_>
        <_>
          <internalNodes>
            0 -1 208 1.0811889078468084e-03</internalNodes>
          <leafValues>
            -1.4244364202022552e-01 5.5869883298873901e-01</leafValues></_>
        <_>
          <internalNodes>
            0 -1 213 6.7787719890475273e-03</internalNodes>
          <leafValues>
            -2.8451380133628845e-01 3.1332167983055115e-01</leafValues></_>
        <_>
          <internalNodes>
            0 -1 113 2.7445468003861606e-04</internalNodes>
          <leafValues>
            1.2190008163452148e-01 -7.7240854501724243e-01</leafValues></_></weakClassifiers></_>
    <!-- stage 14 -->
    <_>
      <maxWeakCount>15</maxWeakCount>
      <stageThreshold>-1.1901128292083740e+00</stageThreshold>
      <weakClassifiers>
        <_>
          <internalNodes>
            0 -1 234 -3.0128338839858770e-03</internalNodes>
          <leafValues>
            3.9473685622215271e-01 -4.0178570151329041e-01</leafValues></_>
        <_>
          <internalNodes>
            0 -1 144 -3.2480136724188924e-04</internalNodes>
          <leafValues>
            3.4987896680831909e-01 -3.0477890372276306e-01</leafValues></_>
        <_>
          <internalNodes>
            0 -1 90 1.7063074046745896e-03</internalNodes>
          <leafValues>
            -2.9679369926452637e-01 3.3442690968513489e-01</leafValues></_>
        <_>
          <internalNodes>
            0 -1 135 -7.4442825280129910e-03</internalNodes>
          <leafValues>
            3.1123459339141846e-01 -2.9501473903656006e-01</leafValues></_>
        <_>
          <internalNodes>
            0 -1 40 3.2777036540210247e-03</internalNodes>
          <leafValues>
            -2.3629169166088104e-01 3.5476586222648621e-01</leafValues></_>
        <_>
          <internalNodes>
            0 -1 148 -5.2245403639972210e-03</internalNodes>
          <leafValues>
            -5.7121568918228149e-01 1.9390921294689178e-01</leafValues></_>
        <_>
          <internalNodes>
            0 -1 12 2.0091399550437927e-02</internalNodes>
          <leafValues>
            -1.4874815940856934e-01 6.6539758443832397e-01</leafValues></_>
        <_>
          <internalNodes>
            0 -1 48 -7.4731335043907166e-03</internalNodes>
          <leafValues>
            5.4753547906875610e-01 -1.5774849057197571e-01</leafValues></_>
        <_>
          <internalNodes>
            0 -1 153 -6.4850295893847942e-04</internalNodes>
          <leafValues>
            3.8223093748092651e-01 -2.3350733518600464e-01</leafValues></_>
        <_>
          <internalNodes>
            0 -1 32 1.8125937785953283e-03</internalNodes>
          <leafValues>
            -2.4839751422405243e-01 3.9255839586257935e-01</leafValues></_>
        <_>
          <internalNodes>
            0 -1 13 -1.7212468083016574e-04</internalNodes>
          <leafValues>
            -7.5695264339447021e-01 1.3542774319648743e-01</leafValues></_>
        <_>
          <internalNodes>
            0 -1 94 -2.4722160305827856e-03</internalNodes>
          <leafValues>
            4.1439163684844971e-01 -2.1957598626613617e-01</leafValues></_>
        <_>
          <internalNodes>
            0 -1 21 5.3690653294324875e-04</internalNodes>
          <leafValues>
            8.1793099641799927e-02 -1.</leafValues></_>
        <_>
          <internalNodes>
            0 -1 242 4.7549151349812746e-04</internalNodes>
          <leafValues>
            1.1677864938974380e-01 -6.1934846639633179e-01</leafValues></_>
        <_>
          <internalNodes>
            0 -1 70 -2.6179009582847357e-03</internalNodes>
          <leafValues>
            4.1724488139152527e-01 -2.2329954802989960e-01</leafValues></_></weakClassifiers></_>
    <!-- stage 15 -->
    <_>
      <maxWeakCount>15</maxWeakCount>
      <stageThreshold>-1.0383915901184082e+00</stageThreshold>
      <weakClassifiers>
        <_>
          <internalNodes>
            0 -1 76 9.6296338597312570e-04</internalNodes>
          <leafValues>
            -4.1838648915290833e-01 3.3640551567077637e-01</leafValues></_>
        <_>
          <internalNodes>
            0 -1 0 2.0339023321866989e-02</internalNodes>
          <leafValues>
            -2.4393622577190399e-01 4.8602876067161560e-01</leafValues></_>
        <_>
          <internalNodes>
            0 -1 14 -2.3940803948789835e-03</internalNodes>
          <leafValues>
            -6.0921216011047363e-01 1.3171701133251190e-01</leafValues></_>
        <_>
          <internalNodes>
            0 -1 194 1.0799430310726166e-03</internalNodes>
          <leafValues>
            -1.8740633130073547e-01 4.3829217553138733e-01</leafValues></_>
        <_>
          <internalNodes>
            0 -1 201 -4.3012545211240649e-04</internalNodes>
          <leafValues>
            -8.3469623327255249e-01 7.6383545994758606e-02</leafValues></_>
        <_>
          <internalNodes>
            0 -1 209 9.4153202371671796e-04</internalNodes>
          <leafValues>
            -1.9177475571632385e-01 4.9739339947700500e-01</leafValues></_>
        <_>
          <internalNodes>
            0 -1 85 -1.1581029742956161e-02</internalNodes>
          <leafValues>
            4.9312132596969604e-01 -1.7425449192523956e-01</leafValues></_>
        <_>
          <internalNodes>
            0 -1 92 -7.7513149008154869e-03</internalNodes>
          <leafValues>
            -6.4333933591842651e-01 1.5643689036369324e-01</leafValues></_>
        <_>
          <internalNodes>
            0 -1 15 1.1103877332061529e-03</internalNodes>
          <leafValues>
            1.0559483617544174e-01 -7.1080839633941650e-01</leafValues></_>
        <_>
          <internalNodes>
            0 -1 244 2.1619126200675964e-03</internalNodes>
          <leafValues>
            1.0211737453937531e-01 -7.9468184709548950e-01</leafValues></_>
        <_>
          <internalNodes>
            0 -1 75 1.6022918280214071e-03</internalNodes>
          <leafValues>
            -2.2742094099521637e-01 4.2363861203193665e-01</leafValues></_>
        <_>
          <internalNodes>
            0 -1 150 1.9179016351699829e-02</internalNodes>
          <leafValues>
            1.3114064931869507e-01 -6.2120687961578369e-01</leafValues></_>
        <_>
          <internalNodes>
            0 -1 61 2.5718393735587597e-03</internalNodes>
          <leafValues>
            -1.7726700007915497e-01 5.4547971487045288e-01</leafValues></_>
        <_>
          <internalNodes>
            0 -1 222 1.1230008676648140e-03</internalNodes>
          <leafValues>
            -2.1285888552665710e-01 4.1416367888450623e-01</leafValues></_>
        <_>
          <internalNodes>
            0 -1 210 1.5010235831141472e-02</internalNodes>
          <leafValues>
            -1.7382514476776123e-01 5.3244012594223022e-01</leafValues></_></weakClassifiers></_>
    <!-- stage 16 -->
    <_>
      <maxWeakCount>19</maxWeakCount>
      <stageThreshold>-1.2888920307159424e+00</stageThreshold>
      <weakClassifiers>
        <_>
          <internalNodes>
            0 -1 241 -1.7384897917509079e-02</internalNodes>
          <leafValues>
            4.9152541160583496e-01 -3.6929461359977722e-01</leafValues></_>
        <_>
          <internalNodes>
            0 -1 19 -4.2076171375811100e-03</internalNodes>
          <leafValues>
            3.9112031459808350e-01 -2.5281977653503418e-01</leafValues></_>
        <_>
          <internalNodes>
            0 -1 37 -1.9152952590957284e-03</internalNodes>
          <leafValues>
            4.9844983220100403e-01 -1.9978673756122589e-01</leafValues></_>
        <_>
          <internalNodes>
            0 -1 161 -1.2191417627036572e-03</internalNodes>
          <leafValues>
            -6.1699688434600830e-01 1.6904579102993011e-01</leafValues></_>
        <_>
          <internalNodes>
            0 -1 58 -1.7950242385268211e-02</internalNodes>
          <leafValues>
            -6.3746184110641479e-01 1.5266522765159607e-01</leafValues></_>
        <_>
          <internalNodes>
            0 -1 71 -9.2408545315265656e-02</internalNodes>
          <leafValues>
            -7.4767315387725830e-01 1.1392460763454437e-01</leafValues></_>
        <_>
          <internalNodes>
            0 -1 66 -2.2983960807323456e-03</internalNodes>
          <leafValues>
            -7.6453876495361328e-01 9.0371660888195038e-02</leafValues></_>
        <_>
          <internalNodes>
            0 -1 138 -1.2330671306699514e-03</internalNodes>
          <leafValues>
            3.4621217846870422e-01 -2.5183302164077759e-01</leafValues></_>
        <_>
          <internalNodes>
            0 -1 44 6.1549507081508636e-02</internalNodes>
          <leafValues>
            1.2172400206327438e-01 -7.0976388454437256e-01</leafValues></_>
        <_>
          <internalNodes>
            0 -1 175 8.7944493861868978e-04</internalNodes>
          <leafValues>
            -2.6013490557670593e-01 3.5898140072822571e-01</leafValues></_>
        <_>
          <internalNodes>
            0 -1 65 2.2271741181612015e-02</internalNodes>
          <leafValues>
            -2.1632280945777893e-01 3.7772941589355469e-01</leafValues></_>
        <_>
          <internalNodes>
            0 -1 180 1.1853508185595274e-03</internalNodes>
          <leafValues>
            -2.1984548866748810e-01 3.7540218234062195e-01</leafValues></_>
        <_>
          <internalNodes>
            0 -1 8 5.6230826303362846e-03</internalNodes>
          <leafValues>
            -2.2192898392677307e-01 3.9815759658813477e-01</leafValues></_>
        <_>
          <internalNodes>
            0 -1 224 1.8158546299673617e-04</internalNodes>
          <leafValues>
            1.2495449930429459e-01 -7.2940200567245483e-01</leafValues></_>
        <_>
          <internalNodes>
            0 -1 132 -4.1604269063100219e-04</internalNodes>
          <leafValues>
            2.6629751920700073e-01 -3.0812928080558777e-01</leafValues></_>
        <_>
          <internalNodes>
            0 -1 38 -2.1688739070668817e-04</internalNodes>
          <leafValues>
            -8.3796441555023193e-01 1.1337169259786606e-01</leafValues></_>
        <_>
          <internalNodes>
            0 -1 59 -2.6940350653603673e-04</internalNodes>
          <leafValues>
            4.0511173009872437e-01 -2.2853146493434906e-01</leafValues></_>
        <_>
          <internalNodes>
            0 -1 77 1.0475362651050091e-03</internalNodes>
          <leafValues>
            -1.9668787717819214e-01 4.6879211068153381e-01</leafValues></_>
        <_>
          <internalNodes>
            0 -1 5 4.9673289060592651e-02</internalNodes>
          <leafValues>
            -1.8270505964756012e-01 4.4368264079093933e-01</leafValues></_></weakClassifiers></_>
    <!-- stage 17 -->
    <_>
      <maxWeakCount>18</maxWeakCount>
      <stageThreshold>-1.1840479373931885e+00</stageThreshold>
      <weakClassifiers>
        <_>
          <internalNodes>
            0 -1 182 1.3698204420506954e-03</internalNodes>
          <leafValues>
            -3.5940098762512207e-01 4.4295302033424377e-01</leafValues></_>
        <_>
          <internalNodes>
            0 -1 171 -2.1246462129056454e-03</internalNodes>
          <leafValues>
            3.7585297226905823e-01 -2.1944735944271088e-01</leafValues></_>
        <_>
          <internalNodes>
            0 -1 168 1.6222357749938965e-02</internalNodes>
          <leafValues>
            -2.2235988080501556e-01 4.9455600976943970e-01</leafValues></_>
        <_>
          <internalNodes>
            0 -1 160 -2.2877781884744763e-04</internalNodes>
          <leafValues>
            -6.3126099109649658e-01 1.7584285140037537e-01</leafValues></_>
        <_>
          <internalNodes>
            0 -1 97 3.1592100858688354e-03</internalNodes>
          <leafValues>
            -3.4206411242485046e-01 2.7069744467735291e-01</leafValues></_>
        <_>
          <internalNodes>
            0 -1 24 -1.6178712248802185e-02</internalNodes>
          <leafValues>
            2.7565833926200867e-01 -2.8526595234870911e-01</leafValues></_>
        <_>
          <internalNodes>
            0 -1 183 3.3003417775034904e-04</internalNodes>
          <leafValues>
            -2.1270403265953064e-01 4.0425068140029907e-01</leafValues></_>
        <_>
          <internalNodes>
            0 -1 20 -4.9994915723800659e-02</internalNodes>
          <leafValues>
            -9.2252516746520996e-01 1.0767383873462677e-01</leafValues></_>
        <_>
          <internalNodes>
            0 -1 220 1.7629514914005995e-03</internalNodes>
          <leafValues>
            -1.7855840921401978e-01 4.5064604282379150e-01</leafValues></_>
        <_>
          <internalNodes>
            0 -1 198 -3.0485514434985816e-04</internalNodes>
          <leafValues>
            -6.7309737205505371e-01 1.1865467578172684e-01</leafValues></_>
        <_>
          <internalNodes>
            0 -1 56 -3.2191928476095200e-03</internalNodes>
          <leafValues>
            5.5548816919326782e-01 -1.5089038014411926e-01</leafValues></_>
        <_>
          <internalNodes>
            0 -1 57 7.0109926164150238e-03</internalNodes>
          <leafValues>
            -1.3238103687763214e-01 6.4231997728347778e-01</leafValues></_>
        <_>
          <internalNodes>
            0 -1 1 -6.4981477335095406e-03</internalNodes>
          <leafValues>
            3.9839720726013184e-01 -2.0418559014797211e-01</leafValues></_>
        <_>
          <internalNodes>
            0 -1 231 -3.4482427872717381e-04</internalNodes>
          <leafValues>
            -8.3536291122436523e-01 1.0459108650684357e-01</leafValues></_>
        <_>
          <internalNodes>
            0 -1 233 2.9815500602126122e-04</internalNodes>
          <leafValues>
            -2.5525501370429993e-01 3.2287251949310303e-01</leafValues></_>
        <_>
          <internalNodes>
            0 -1 139 1.2277925387024879e-02</internalNodes>
          <leafValues>
            1.1310072243213654e-01 -6.6588115692138672e-01</leafValues></_>
        <_>
          <internalNodes>
            0 -1 130 -3.6016762256622314e-02</internalNodes>
          <leafValues>
            -9.2249220609664917e-01 7.4441812932491302e-02</leafValues></_>
        <_>
          <internalNodes>
            0 -1 205 -1.7092908965423703e-03</internalNodes>
          <leafValues>
            -8.9037907123565674e-01 7.1398213505744934e-02</leafValues></_></weakClassifiers></_>
    <!-- stage 18 -->
    <_>
      <maxWeakCount>17</maxWeakCount>
      <stageThreshold>-1.2670098543167114e+00</stageThreshold>
      <weakClassifiers>
        <_>
          <internalNodes>
            0 -1 223 -1.2972591444849968e-02</internalNodes>
          <leafValues>
            2.7734375000000000e-01 -4.4736841320991516e-01</leafValues></_>
        <_>
          <internalNodes>
            0 -1 202 1.6437932848930359e-02</internalNodes>
          <leafValues>
            -2.9612147808074951e-01 3.0861729383468628e-01</leafValues></_>
        <_>
          <internalNodes>
            0 -1 134 1.1742223287001252e-03</internalNodes>
          <leafValues>
            -2.2403281927108765e-01 3.9843013882637024e-01</leafValues></_>
        <_>
          <internalNodes>
            0 -1 229 2.7118343859910965e-03</internalNodes>
          <leafValues>
            -1.4501899480819702e-01 6.2102556228637695e-01</leafValues></_>
        <_>
          <internalNodes>
            0 -1 119 3.3019451075233519e-04</internalNodes>
          <leafValues>
            1.3744190335273743e-01 -7.2243392467498779e-01</leafValues></_>
        <_>
          <internalNodes>
            0 -1 23 2.1199155598878860e-03</internalNodes>
          <leafValues>
            -1.6754542291164398e-01 5.6717467308044434e-01</leafValues></_>
        <_>
          <internalNodes>
            0 -1 33 4.0542543865740299e-03</internalNodes>
          <leafValues>
            -1.7331942915916443e-01 4.6950069069862366e-01</leafValues></_>
        <_>
          <internalNodes>
            0 -1 28 4.9188267439603806e-03</internalNodes>
          <leafValues>
            -1.5161666274070740e-01 5.4690492153167725e-01</leafValues></_>
        <_>
          <internalNodes>
            0 -1 125 -1.0963263921439648e-03</internalNodes>
          <leafValues>
            -6.0020285844802856e-01 1.6391034424304962e-01</leafValues></_>
        <_>
          <internalNodes>
            0 -1 95 -1.1765782255679369e-03</internalNodes>
          <leafValues>
            5.7075810432434082e-01 -1.7427998781204224e-01</leafValues></_>
        <_>
          <internalNodes>
            0 -1 98 -4.0696174837648869e-03</internalNodes>
          <leafValues>
            6.7066138982772827e-01 -1.3888934254646301e-01</leafValues></_>
        <_>
          <internalNodes>
            0 -1 190 -3.4736766247078776e-04</internalNodes>
          <leafValues>
            4.5171076059341431e-01 -1.9467687606811523e-01</leafValues></_>
        <_>
          <internalNodes>
            0 -1 127 -2.5428686290979385e-02</internalNodes>
          <leafValues>
            -7.6320457458496094e-01 1.3324783742427826e-01</leafValues></_>
        <_>
          <internalNodes>
            0 -1 4 3.4779938869178295e-03</internalNodes>
          <leafValues>
            -2.8862810134887695e-01 2.8611156344413757e-01</leafValues></_>
        <_>
          <internalNodes>
            0 -1 83 -3.5796395968645811e-04</internalNodes>
          <leafValues>
            3.3388271927833557e-01 -2.5722941756248474e-01</leafValues></_>
        <_>
          <internalNodes>
            0 -1 50 1.4991311356425285e-02</internalNodes>
          <leafValues>
            9.1733686625957489e-02 -8.6790442466735840e-01</leafValues></_>
        <_>
          <internalNodes>
            0 -1 120 1.7201527953147888e-04</internalNodes>
          <leafValues>
            -2.6058742403984070e-01 3.4400847554206848e-01</leafValues></_></weakClassifiers></_>
    <!-- stage 19 -->
    <_>
      <maxWeakCount>13</maxWeakCount>
      <stageThreshold>-7.9714506864547729e-01</stageThreshold>
      <weakClassifiers>
        <_>
          <internalNodes>
            0 -1 16 1.8114496022462845e-02</internalNodes>
          <leafValues>
            -9.8654709756374359e-02 8.0821919441223145e-01</leafValues></_>
        <_>
          <internalNodes>
            0 -1 184 4.3639070354402065e-03</internalNodes>
          <leafValues>
            -1.2249846756458282e-01 6.3894003629684448e-01</leafValues></_>
        <_>
          <internalNodes>
            0 -1 191 -1.1169281788170338e-03</internalNodes>
          <leafValues>
            3.2650339603424072e-01 -2.6419404149055481e-01</leafValues></_>
        <_>
          <internalNodes>
            0 -1 41 -1.1444629635661840e-03</internalNodes>
          <leafValues>
            -6.6725254058837891e-01 1.3467480242252350e-01</leafValues></_>
        <_>
          <internalNodes>
            0 -1 68 2.9008551500737667e-03</internalNodes>
          <leafValues>
            -1.3735136389732361e-01 6.2389701604843140e-01</leafValues></_>
        <_>
          <internalNodes>
            0 -1 123 3.2223886228166521e-04</internalNodes>
          <leafValues>
            -3.5365495085716248e-01 3.0077019333839417e-01</leafValues></_>
        <_>
          <internalNodes>
            0 -1 55 -2.0931234583258629e-02</internalNodes>
          <leafValues>
            7.4175816774368286e-01 -1.5621969103813171e-01</leafValues></_>
        <_>
          <internalNodes>
            0 -1 137 1.0598570108413696e-02</internalNodes>
          <leafValues>
            1.8672060966491699e-01 -6.2311345338821411e-01</leafValues></_>
        <_>
          <internalNodes>
            0 -1 53 -2.5128051638603210e-03</internalNodes>
          <leafValues>
            7.1850478649139404e-01 -1.3702291250228882e-01</leafValues></_>
        <_>
          <internalNodes>
            0 -1 69 2.8840301558375359e-02</internalNodes>
          <leafValues>
            1.3838455080986023e-01 -7.4321269989013672e-01</leafValues></_>
        <_>
          <internalNodes>
            0 -1 176 -7.9631200060248375e-04</internalNodes>
          <leafValues>
            -9.0371400117874146e-01 1.2456535547971725e-01</leafValues></_>
        <_>
          <internalNodes>
            0 -1 179 -7.7584298560395837e-04</internalNodes>
          <leafValues>
            4.9856528639793396e-01 -2.3933002352714539e-01</leafValues></_>
        <_>
          <internalNodes>
            0 -1 226 1.3755116611719131e-02</internalNodes>
          <leafValues>
            -3.5935962200164795e-01 2.7493792772293091e-01</leafValues></_></weakClassifiers></_></stages>
  <features>
    <_>
      <rects>
        <_>
          0 0 6 24 -1.</_>
        <_>
          3 0 3 24 2.</_></rects>
      <tilted>0</tilted></_>
    <_>
      <rects>
        <_>
          0 0 48 4 -1.</_>
        <_>
          0 0 24 2 2.</_>
        <_>
          24 2 24 2 2.</_></rects>
      <tilted>0</tilted></_>
    <_>
      <rects>
        <_>
          0 0 59 6 -1.</_>
        <_>
          0 3 59 3 2.</_></rects>
      <tilted>0</tilted></_>
    <_>
      <rects>
        <_>
          0 1 16 23 -1.</_>
        <_>
          4 1 8 23 2.</_></rects>
      <tilted>0</tilted></_>
    <_>
      <rects>
        <_>
          0 1 14 6 -1.</_>
        <_>
          7 1 7 6 2.</_></rects>
      <tilted>0</tilted></_>
    <_>
      <rects>
        <_>
          0 1 28 23 -1.</_>
        <_>
          7 1 14 23 2.</_></rects>
      <tilted>0</tilted></_>
    <_>
      <rects>
        <_>
          0 2 12 19 -1.</_>
        <_>
          6 2 6 19 2.</_></rects>
      <tilted>0</tilted></_>
    <_>
      <rects>
        <_>
          0 2 12 20 -1.</_>
        <_>
          6 2 6 20 2.</_></rects>
      <tilted>0</tilted></_>
    <_>
      <rects>
        <_>
          0 3 24 4 -1.</_>
        <_>
          0 3 12 2 2.</_>
        <_>
          12 5 12 2 2.</_></rects>
      <tilted>0</tilted></_>
    <_>
      <rects>
        <_>
          0 5 4 13 -1.</_>
        <_>
          2 5 2 13 2.</_></rects>
      <tilted>0</tilted></_>
    <_>
      <rects>
        <_>
          0 5 4 16 -1.</_>
        <_>
          2 5 2 16 2.</_></rects>
      <tilted>0</tilted></_>
    <_>
      <rects>
        <_>
          0 6 8 16 -1.</_>
        <_>
          2 6 4 16 2.</_></rects>
      <tilted>0</tilted></_>
    <_>
      <rects>
        <_>
          0 12 8 7 -1.</_>
        <_>
          4 12 4 7 2.</_></rects>
      <tilted>0</tilted></_>
    <_>
      <rects>
        <_>
          0 13 2 2 -1.</_>
        <_>
          0 13 1 1 2.</_>
        <_>
          1 14 1 1 2.</_></rects>
      <tilted>0</tilted></_>
    <_>
      <rects>
        <_>
          0 13 4 8 -1.</_>
        <_>
          0 15 4 4 2.</_></rects>
      <tilted>0</tilted></_>
    <_>
      <rects>
        <_>
          0 15 4 4 -1.</_>
        <_>
          0 16 4 2 2.</_></rects>
      <tilted>0</tilted></_>
    <_>
      <rects>
        <_>
          1 8 6 8 -1.</_>
        <_>
          3 8 2 8 3.</_></rects>
      <tilted>0</tilted></_>
    <_>
      <rects>
        <_>
          2 0 12 3 -1.</_>
        <_>
          6 0 4 3 3.</_></rects>
      <tilted>0</tilted></_>
    <_>
      <rects>
        <_>
          2 4 6 17 -1.</_>
        <_>
          5 4 3 17 2.</_></rects>
      <tilted>0</tilted></_>
    <_>
      <rects>
        <_>
          2 8 8 5 -1.</_>
        <_>
          6 8 4 5 2.</_></rects>
      <tilted>0</tilted></_>
    <_>
      <rects>
        <_>
          2 9 28 9 -1.</_>
        <_>
          2 12 28 3 3.</_></rects>
      <tilted>0</tilted></_>
    <_>
      <rects>
        <_>
          3 0 4 2 -1.</_>
        <_>
          4 0 2 2 2.</_></rects>
      <tilted>0</tilted></_>
    <_>
      <rects>
        <_>
          3 9 9 3 -1.</_>
        <_>
          6 9 3 3 3.</_></rects>
      <tilted>0</tilted></_>
    <_>
      <rects>
        <_>
          3 11 4 4 -1.</_>
        <_>
          4 11 2 4 2.</_></rects>
      <tilted>0</tilted></_>
    <_>
      <rects>
        <_>
          3 20 32 4 -1.</_>
        <_>
          3 22 32 2 2.</_></rects>
      <tilted>0</tilted></_>
    <_>
      <rects>
        <_>
          4 0 8 2 -1.</_>
        <_>
          6 0 4 2 2.</_></rects>
      <tilted>0</tilted></_>
    <_>
      <rects>
        <_>
          4 0 52 6 -1.</_>
        <_>
          4 3 52 3 2.</_></rects>
      <tilted>0</tilted></_>
    <_>
      <rects>
        <_>
          4 7 6 12 -1.</_>
        <_>
          6 7 2 12 3.</_></rects>
      <tilted>0</tilted></_>
    <_>
      <rects>
        <_>
          4 14 4 5 -1.</_>
        <_>
          6 14 2 5 2.</_></rects>
      <tilted>0</tilted></_>
    <_>
      <rects>
        <_>
          4 21 52 2 -1.</_>
        <_>
          4 22 52 1 2.</_></rects>
      <tilted>0</tilted></_>
    <_>
      <rects>
        <_>
          5 20 47 4 -1.</_>
        <_>
          5 22 47 2 2.</_></rects>
      <tilted>0</tilted></_>
    <_>
      <rects>
        <_>
          6 0 4 22 -1.</_>
        <_>
          6 0 2 11 2.</_>
        <_>
          8 11 2 11 2.</_></rects>
      <tilted>0</tilted></_>
    <_>
      <rects>
        <_>
          6 5 4 15 -1.</_>
        <_>
          7 5 2 15 2.</_></rects>
      <tilted>0</tilted></_>
    <_>
      <rects>
        <_>
          6 6 3 6 -1.</_>
        <_>
          7 8 1 2 9.</_></rects>
      <tilted>0</tilted></_>
    <_>
      <rects>
        <_>
          6 9 36 15 -1.</_>
        <_>
          15 9 18 15 2.</_></rects>
      <tilted>0</tilted></_>
    <_>
      <rects>
        <_>
          6 12 4 8 -1.</_>
        <_>
          8 12 2 8 2.</_></rects>
      <tilted>0</tilted></_>
    <_>
      <rects>
        <_>
          6 20 23 4 -1.</_>
        <_>
          6 22 23 2 2.</_></rects>
      <tilted>0</tilted></_>
    <_>
      <rects>
        <_>
          6 22 5 2 -1.</_>
        <_>
          6 23 5 1 2.</_></rects>
      <tilted>0</tilted></_>
    <_>
      <rects>
        <_>
          7 0 3 2 -1.</_>
        <_>
          8 0 1 2 3.</_></rects>
      <tilted>0</tilted></_>
    <_>
      <rects>
        <_>
          7 0 6 2 -1.</_>
        <_>
          9 0 2 2 3.</_></rects>
      <tilted>0</tilted></_>
    <_>
      <rects>
        <_>
          7 0 4 22 -1.</_>
        <_>
          9 0 2 22 2.</_></rects>
      <tilted>0</tilted></_>
    <_>
      <rects>
        <_>
          7 20 8 4 -1.</_>
        <_>
          9 20 4 4 2.</_></rects>
      <tilted>0</tilted></_>
    <_>
      <rects>
        <_>
          7 21 53 2 -1.</_>
        <_>
          7 22 53 1 2.</_></rects>
      <tilted>0</tilted></_>
    <_>
      <rects>
        <_>
          8 0 3 1 -1.</_>
        <_>
          9 0 1 1 3.</_></rects>
      <tilted>0</tilted></_>
    <_>
      <rects>
        <_>
          8 1 36 21 -1.</_>
        <_>
          17 1 18 21 2.</_></rects>
      <tilted>0</tilted></_>
    <_>
      <rects>
        <_>
          8 9 6 11 -1.</_>
        <_>
          10 9 2 11 3.</_></rects>
      <tilted>0</tilted></_>
    <_>
      <rects>
        <_>
          8 14 6 3 -1.</_>
        <_>
          10 15 2 1 9.</_></rects>
      <tilted>0</tilted></_>
    <_>
      <rects>
        <_>
          8 20 11 4 -1.</_>
        <_>
          8 22 11 2 2.</_></rects>
      <tilted>0</tilted></_>
    <_>
      <rects>
        <_>
          8 21 46 2 -1.</_>
        <_>
          8 21 23 1 2.</_>
        <_>
          31 22 23 1 2.</_></rects>
      <tilted>0</tilted></_>
    <_>
      <rects>
        <_>
          9 0 6 2 -1.</_>
        <_>
          11 0 2 2 3.</_></rects>
      <tilted>0</tilted></_>
    <_>
      <rects>
        <_>
          9 1 18 8 -1.</_>
        <_>
          15 1 6 8 3.</_></rects>
      <tilted>0</tilted></_>
    <_>
      <rects>
        <_>
          9 1 40 23 -1.</_>
        <_>
          19 1 20 23 2.</_></rects>
      <tilted>0</tilted></_>
    <_>
      <rects>
        <_>
          9 2 18 11 -1.</_>
        <_>
          15 2 6 11 3.</_></rects>
      <tilted>0</tilted></_>
    <_>
      <rects>
        <_>
          10 4 18 2 -1.</_>
        <_>
          10 4 9 1 2.</_>
        <_>
          19 5 9 1 2.</_></rects>
      <tilted>0</tilted></_>
    <_>
      <rects>
        <_>
          10 7 26 4 -1.</_>
        <_>
          10 7 13 2 2.</_>
        <_>
          23 9 13 2 2.</_></rects>
      <tilted>0</tilted></_>
    <_>
      <rects>
        <_>
          10 9 6 12 -1.</_>
        <_>
          12 9 2 12 3.</_></rects>
      <tilted>0</tilted></_>
    <_>
      <rects>
        <_>
          10 10 4 8 -1.</_>
        <_>
          11 10 2 8 2.</_></rects>
      <tilted>0</tilted></_>
    <_>
      <rects>
        <_>
          10 11 4 8 -1.</_>
        <_>
          11 11 2 8 2.</_></rects>
      <tilted>0</tilted></_>
    <_>
      <rects>
        <_>
          10 11 37 8 -1.</_>
        <_>
          10 13 37 4 2.</_></rects>
      <tilted>0</tilted></_>
    <_>
      <rects>
        <_>
          11 1 5 2 -1.</_>
        <_>
          11 2 5 1 2.</_></rects>
      <tilted>0</tilted></_>
    <_>
      <rects>
        <_>
          11 2 8 4 -1.</_>
        <_>
          11 4 8 2 2.</_></rects>
      <tilted>0</tilted></_>
    <_>
      <rects>
        <_>
          11 5 3 8 -1.</_>
        <_>
          12 5 1 8 3.</_></rects>
      <tilted>0</tilted></_>
    <_>
      <rects>
        <_>
          11 9 4 7 -1.</_>
        <_>
          12 9 2 7 2.</_></rects>
      <tilted>0</tilted></_>
    <_>
      <rects>
        <_>
          11 10 4 10 -1.</_>
        <_>
          13 10 2 10 2.</_></rects>
      <tilted>0</tilted></_>
    <_>
      <rects>
        <_>
          11 11 3 10 -1.</_>
        <_>
          12 11 1 10 3.</_></rects>
      <tilted>0</tilted></_>
    <_>
      <rects>
        <_>
          11 15 39 5 -1.</_>
        <_>
          24 15 13 5 3.</_></rects>
      <tilted>0</tilted></_>
    <_>
      <rects>
        <_>
          11 21 6 3 -1.</_>
        <_>
          13 21 2 3 3.</_></rects>
      <tilted>0</tilted></_>
    <_>
      <rects>
        <_>
          12 0 3 2 -1.</_>
        <_>
          13 0 1 2 3.</_></rects>
      <tilted>0</tilted></_>
    <_>
      <rects>
        <_>
          12 0 3 19 -1.</_>
        <_>
          13 0 1 19 3.</_></rects>
      <tilted>0</tilted></_>
    <_>
      <rects>
        <_>
          12 2 14 17 -1.</_>
        <_>
          19 2 7 17 2.</_></rects>
      <tilted>0</tilted></_>
    <_>
      <rects>
        <_>
          12 3 12 5 -1.</_>
        <_>
          18 3 6 5 2.</_></rects>
      <tilted>0</tilted></_>
    <_>
      <rects>
        <_>
          12 5 39 12 -1.</_>
        <_>
          25 9 13 4 9.</_></rects>
      <tilted>0</tilted></_>
    <_>
      <rects>
        <_>
          12 6 44 15 -1.</_>
        <_>
          23 6 22 15 2.</_></rects>
      <tilted>0</tilted></_>
    <_>
      <rects>
        <_>
          12 15 18 7 -1.</_>
        <_>
          18 15 6 7 3.</_></rects>
      <tilted>0</tilted></_>
    <_>
      <rects>
        <_>
          13 10 3 8 -1.</_>
        <_>
          14 10 1 8 3.</_></rects>
      <tilted>0</tilted></_>
    <_>
      <rects>
        <_>
          13 16 3 3 -1.</_>
        <_>
          14 17 1 1 9.</_></rects>
      <tilted>0</tilted></_>
    <_>
      <rects>
        <_>
          13 19 4 2 -1.</_>
        <_>
          13 20 4 1 2.</_></rects>
      <tilted>0</tilted></_>
    <_>
      <rects>
        <_>
          14 0 2 4 -1.</_>
        <_>
          14 2 2 2 2.</_></rects>
      <tilted>0</tilted></_>
    <_>
      <rects>
        <_>
          14 2 21 9 -1.</_>
        <_>
          21 2 7 9 3.</_></rects>
      <tilted>0</tilted></_>
    <_>
      <rects>
        <_>
          14 5 33 9 -1.</_>
        <_>
          25 8 11 3 9.</_></rects>
      <tilted>0</tilted></_>
    <_>
      <rects>
        <_>
          14 8 3 9 -1.</_>
        <_>
          15 8 1 9 3.</_></rects>
      <tilted>0</tilted></_>
    <_>
      <rects>
        <_>
          15 1 36 6 -1.</_>
        <_>
          15 4 36 3 2.</_></rects>
      <tilted>0</tilted></_>
    <_>
      <rects>
        <_>
          15 12 6 2 -1.</_>
        <_>
          17 12 2 2 3.</_></rects>
      <tilted>0</tilted></_>
    <_>
      <rects>
        <_>
          15 17 5 3 -1.</_>
        <_>
          15 18 5 1 3.</_></rects>
      <tilted>0</tilted></_>
    <_>
      <rects>
        <_>
          15 18 22 2 -1.</_>
        <_>
          15 18 11 1 2.</_>
        <_>
          26 19 11 1 2.</_></rects>
      <tilted>0</tilted></_>
    <_>
      <rects>
        <_>
          15 19 11 4 -1.</_>
        <_>
          15 21 11 2 2.</_></rects>
      <tilted>0</tilted></_>
    <_>
      <rects>
        <_>
          16 9 24 9 -1.</_>
        <_>
          24 9 8 9 3.</_></rects>
      <tilted>0</tilted></_>
    <_>
      <rects>
        <_>
          16 10 4 8 -1.</_>
        <_>
          17 10 2 8 2.</_></rects>
      <tilted>0</tilted></_>
    <_>
      <rects>
        <_>
          16 15 14 8 -1.</_>
        <_>
          16 15 7 4 2.</_>
        <_>
          23 19 7 4 2.</_></rects>
      <tilted>0</tilted></_>
    <_>
      <rects>
        <_>
          17 0 36 24 -1.</_>
        <_>
          26 0 18 24 2.</_></rects>
      <tilted>0</tilted></_>
    <_>
      <rects>
        <_>
          17 1 1 8 -1.</_>
        <_>
          17 5 1 4 2.</_></rects>
      <tilted>0</tilted></_>
    <_>
      <rects>
        <_>
          17 10 3 6 -1.</_>
        <_>
          18 10 1 6 3.</_></rects>
      <tilted>0</tilted></_>
    <_>
      <rects>
        <_>
          18 0 18 11 -1.</_>
        <_>
          24 0 6 11 3.</_></rects>
      <tilted>0</tilted></_>
    <_>
      <rects>
        <_>
          18 0 25 8 -1.</_>
        <_>
          18 2 25 4 2.</_></rects>
      <tilted>0</tilted></_>
    <_>
      <rects>
        <_>
          18 6 4 8 -1.</_>
        <_>
          18 6 2 4 2.</_>
        <_>
          20 10 2 4 2.</_></rects>
      <tilted>0</tilted></_>
    <_>
      <rects>
        <_>
          18 7 2 8 -1.</_>
        <_>
          18 7 1 4 2.</_>
        <_>
          19 11 1 4 2.</_></rects>
      <tilted>0</tilted></_>
    <_>
      <rects>
        <_>
          18 10 3 7 -1.</_>
        <_>
          19 10 1 7 3.</_></rects>
      <tilted>0</tilted></_>
    <_>
      <rects>
        <_>
          19 8 16 5 -1.</_>
        <_>
          23 8 8 5 2.</_></rects>
      <tilted>0</tilted></_>
    <_>
      <rects>
        <_>
          19 11 4 4 -1.</_>
        <_>
          20 11 2 4 2.</_></rects>
      <tilted>0</tilted></_>
    <_>
      <rects>
        <_>
          19 11 4 6 -1.</_>
        <_>
          20 11 2 6 2.</_></rects>
      <tilted>0</tilted></_>
    <_>
      <rects>
        <_>
          19 22 4 2 -1.</_>
        <_>
          20 22 2 2 2.</_></rects>
      <tilted>0</tilted></_>
    <_>
      <rects>
        <_>
          20 0 3 3 -1.</_>
        <_>
          21 0 1 3 3.</_></rects>
      <tilted>0</tilted></_>
    <_>
      <rects>
        <_>
          20 0 4 3 -1.</_>
        <_>
          21 0 2 3 2.</_></rects>
      <tilted>0</tilted></_>
    <_>
      <rects>
        <_>
          20 1 18 9 -1.</_>
        <_>
          26 1 6 9 3.</_></rects>
      <tilted>0</tilted></_>
    <_>
      <rects>
        <_>
          20 1 33 11 -1.</_>
        <_>
          31 1 11 11 3.</_></rects>
      <tilted>0</tilted></_>
    <_>
      <rects>
        <_>
          20 10 8 9 -1.</_>
        <_>
          24 10 4 9 2.</_></rects>
      <tilted>0</tilted></_>
    <_>
      <rects>
        <_>
          20 11 3 5 -1.</_>
        <_>
          21 11 1 5 3.</_></rects>
      <tilted>0</tilted></_>
    <_>
      <rects>
        <_>
          20 12 4 4 -1.</_>
        <_>
          21 12 2 4 2.</_></rects>
      <tilted>0</tilted></_>
    <_>
      <rects>
        <_>
          20 21 8 3 -1.</_>
        <_>
          22 21 4 3 2.</_></rects>
      <tilted>0</tilted></_>
    <_>
      <rects>
        <_>
          21 0 3 3 -1.</_>
        <_>
          22 0 1 3 3.</_></rects>
      <tilted>0</tilted></_>
    <_>
      <rects>
        <_>
          21 8 6 13 -1.</_>
        <_>
          24 8 3 13 2.</_></rects>
      <tilted>0</tilted></_>
    <_>
      <rects>
        <_>
          21 12 6 2 -1.</_>
        <_>
          23 12 2 2 3.</_></rects>
      <tilted>0</tilted></_>
    <_>
      <rects>
        <_>
          21 13 4 2 -1.</_>
        <_>
          22 13 2 2 2.</_></rects>
      <tilted>0</tilted></_>
    <_>
      <rects>
        <_>
          21 23 4 1 -1.</_>
        <_>
          22 23 2 1 2.</_></rects>
      <tilted>0</tilted></_>
    <_>
      <rects>
        <_>
          22 0 3 4 -1.</_>
        <_>
          23 0 1 4 3.</_></rects>
      <tilted>0</tilted></_>
    <_>
      <rects>
        <_>
          22 9 21 6 -1.</_>
        <_>
          22 12 21 3 2.</_></rects>
      <tilted>0</tilted></_>
    <_>
      <rects>
        <_>
          22 11 6 2 -1.</_>
        <_>
          22 11 3 1 2.</_>
        <_>
          25 12 3 1 2.</_></rects>
      <tilted>0</tilted></_>
    <_>
      <rects>
        <_>
          22 22 6 2 -1.</_>
        <_>
          24 22 2 2 3.</_></rects>
      <tilted>0</tilted></_>
    <_>
      <rects>
        <_>
          23 0 4 12 -1.</_>
        <_>
          23 6 4 6 2.</_></rects>
      <tilted>0</tilted></_>
    <_>
      <rects>
        <_>
          23 1 4 3 -1.</_>
        <_>
          24 1 2 3 2.</_></rects>
      <tilted>0</tilted></_>
    <_>
      <rects>
        <_>
          23 8 4 2 -1.</_>
        <_>
          23 8 2 1 2.</_>
        <_>
          25 9 2 1 2.</_></rects>
      <tilted>0</tilted></_>
    <_>
      <rects>
        <_>
          23 22 12 2 -1.</_>
        <_>
          26 22 6 2 2.</_></rects>
      <tilted>0</tilted></_>
    <_>
      <rects>
        <_>
          24 3 24 4 -1.</_>
        <_>
          24 4 24 2 2.</_></rects>
      <tilted>0</tilted></_>
    <_>
      <rects>
        <_>
          24 12 3 3 -1.</_>
        <_>
          25 13 1 1 9.</_></rects>
      <tilted>0</tilted></_>
    <_>
      <rects>
        <_>
          24 12 4 8 -1.</_>
        <_>
          24 12 2 4 2.</_>
        <_>
          26 16 2 4 2.</_></rects>
      <tilted>0</tilted></_>
    <_>
      <rects>
        <_>
          24 20 8 3 -1.</_>
        <_>
          26 20 4 3 2.</_></rects>
      <tilted>0</tilted></_>
    <_>
      <rects>
        <_>
          24 22 15 2 -1.</_>
        <_>
          24 23 15 1 2.</_></rects>
      <tilted>0</tilted></_>
    <_>
      <rects>
        <_>
          25 0 28 10 -1.</_>
        <_>
          32 0 14 10 2.</_></rects>
      <tilted>0</tilted></_>
    <_>
      <rects>
        <_>
          25 1 28 17 -1.</_>
        <_>
          32 1 14 17 2.</_></rects>
      <tilted>0</tilted></_>
    <_>
      <rects>
        <_>
          25 5 12 2 -1.</_>
        <_>
          25 6 12 1 2.</_></rects>
      <tilted>0</tilted></_>
    <_>
      <rects>
        <_>
          25 6 17 8 -1.</_>
        <_>
          25 10 17 4 2.</_></rects>
      <tilted>0</tilted></_>
    <_>
      <rects>
        <_>
          25 9 4 7 -1.</_>
        <_>
          26 9 2 7 2.</_></rects>
      <tilted>0</tilted></_>
    <_>
      <rects>
        <_>
          25 9 10 2 -1.</_>
        <_>
          25 9 5 1 2.</_>
        <_>
          30 10 5 1 2.</_></rects>
      <tilted>0</tilted></_>
    <_>
      <rects>
        <_>
          25 11 6 2 -1.</_>
        <_>
          27 11 2 2 3.</_></rects>
      <tilted>0</tilted></_>
    <_>
      <rects>
        <_>
          25 11 10 2 -1.</_>
        <_>
          25 11 5 1 2.</_>
        <_>
          30 12 5 1 2.</_></rects>
      <tilted>0</tilted></_>
    <_>
      <rects>
        <_>
          25 16 16 5 -1.</_>
        <_>
          33 16 8 5 2.</_></rects>
      <tilted>0</tilted></_>
    <_>
      <rects>
        <_>
          26 1 12 4 -1.</_>
        <_>
          26 3 12 2 2.</_></rects>
      <tilted>0</tilted></_>
    <_>
      <rects>
        <_>
          26 3 24 11 -1.</_>
        <_>
          34 3 8 11 3.</_></rects>
      <tilted>0</tilted></_>
    <_>
      <rects>
        <_>
          26 10 3 6 -1.</_>
        <_>
          27 10 1 6 3.</_></rects>
      <tilted>0</tilted></_>
    <_>
      <rects>
        <_>
          27 8 9 9 -1.</_>
        <_>
          27 11 9 3 3.</_></rects>
      <tilted>0</tilted></_>
    <_>
      <rects>
        <_>
          27 10 6 4 -1.</_>
        <_>
          29 10 2 4 3.</_></rects>
      <tilted>0</tilted></_>
    <_>
      <rects>
        <_>
          27 17 8 6 -1.</_>
        <_>
          27 17 4 3 2.</_>
        <_>
          31 20 4 3 2.</_></rects>
      <tilted>0</tilted></_>
    <_>
      <rects>
        <_>
          28 0 15 9 -1.</_>
        <_>
          28 3 15 3 3.</_></rects>
      <tilted>0</tilted></_>
    <_>
      <rects>
        <_>
          28 5 7 3 -1.</_>
        <_>
          28 6 7 1 3.</_></rects>
      <tilted>0</tilted></_>
    <_>
      <rects>
        <_>
          28 9 6 2 -1.</_>
        <_>
          28 9 3 1 2.</_>
        <_>
          31 10 3 1 2.</_></rects>
      <tilted>0</tilted></_>
    <_>
      <rects>
        <_>
          29 6 9 14 -1.</_>
        <_>
          32 6 3 14 3.</_></rects>
      <tilted>0</tilted></_>
    <_>
      <rects>
        <_>
          29 12 6 1 -1.</_>
        <_>
          31 12 2 1 3.</_></rects>
      <tilted>0</tilted></_>
    <_>
      <rects>
        <_>
          29 16 10 4 -1.</_>
        <_>
          29 16 5 2 2.</_>
        <_>
          34 18 5 2 2.</_></rects>
      <tilted>0</tilted></_>
    <_>
      <rects>
        <_>
          29 18 15 6 -1.</_>
        <_>
          34 18 5 6 3.</_></rects>
      <tilted>0</tilted></_>
    <_>
      <rects>
        <_>
          29 20 9 3 -1.</_>
        <_>
          32 20 3 3 3.</_></rects>
      <tilted>0</tilted></_>
    <_>
      <rects>
        <_>
          30 0 18 22 -1.</_>
        <_>
          36 0 6 22 3.</_></rects>
      <tilted>0</tilted></_>
    <_>
      <rects>
        <_>
          30 11 3 3 -1.</_>
        <_>
          31 12 1 1 9.</_></rects>
      <tilted>0</tilted></_>
    <_>
      <rects>
        <_>
          30 16 6 4 -1.</_>
        <_>
          30 16 3 2 2.</_>
        <_>
          33 18 3 2 2.</_></rects>
      <tilted>0</tilted></_>
    <_>
      <rects>
        <_>
          31 5 6 3 -1.</_>
        <_>
          31 6 6 1 3.</_></rects>
      <tilted>0</tilted></_>
    <_>
      <rects>
        <_>
          31 5 24 18 -1.</_>
        <_>
          39 5 8 18 3.</_></rects>
      <tilted>0</tilted></_>
    <_>
      <rects>
        <_>
          31 12 4 1 -1.</_>
        <_>
          32 12 2 1 2.</_></rects>
      <tilted>0</tilted></_>
    <_>
      <rects>
        <_>
          31 12 4 2 -1.</_>
        <_>
          32 12 2 2 2.</_></rects>
      <tilted>0</tilted></_>
    <_>
      <rects>
        <_>
          32 0 3 4 -1.</_>
        <_>
          33 0 1 4 3.</_></rects>
      <tilted>0</tilted></_>
    <_>
      <rects>
        <_>
          32 17 6 3 -1.</_>
        <_>
          34 18 2 1 9.</_></rects>
      <tilted>0</tilted></_>
    <_>
      <rects>
        <_>
          32 22 9 2 -1.</_>
        <_>
          35 22 3 2 3.</_></rects>
      <tilted>0</tilted></_>
    <_>
      <rects>
        <_>
          33 1 3 3 -1.</_>
        <_>
          34 1 1 3 3.</_></rects>
      <tilted>0</tilted></_>
    <_>
      <rects>
        <_>
          33 1 8 5 -1.</_>
        <_>
          35 1 4 5 2.</_></rects>
      <tilted>0</tilted></_>
    <_>
      <rects>
        <_>
          33 12 4 3 -1.</_>
        <_>
          34 12 2 3 2.</_></rects>
      <tilted>0</tilted></_>
    <_>
      <rects>
        <_>
          33 13 3 3 -1.</_>
        <_>
          34 13 1 3 3.</_></rects>
      <tilted>0</tilted></_>
    <_>
      <rects>
        <_>
          33 14 6 1 -1.</_>
        <_>
          35 14 2 1 3.</_></rects>
      <tilted>0</tilted></_>
    <_>
      <rects>
        <_>
          33 19 22 2 -1.</_>
        <_>
          33 20 22 1 2.</_></rects>
      <tilted>0</tilted></_>
    <_>
      <rects>
        <_>
          34 10 4 8 -1.</_>
        <_>
          35 10 2 8 2.</_></rects>
      <tilted>0</tilted></_>
    <_>
      <rects>
        <_>
          34 12 3 3 -1.</_>
        <_>
          35 12 1 3 3.</_></rects>
      <tilted>0</tilted></_>
    <_>
      <rects>
        <_>
          34 16 9 6 -1.</_>
        <_>
          34 18 9 2 3.</_></rects>
      <tilted>0</tilted></_>
    <_>
      <rects>
        <_>
          34 19 15 4 -1.</_>
        <_>
          34 21 15 2 2.</_></rects>
      <tilted>0</tilted></_>
    <_>
      <rects>
        <_>
          35 1 21 12 -1.</_>
        <_>
          35 5 21 4 3.</_></rects>
      <tilted>0</tilted></_>
    <_>
      <rects>
        <_>
          35 6 6 6 -1.</_>
        <_>
          35 6 3 3 2.</_>
        <_>
          38 9 3 3 2.</_></rects>
      <tilted>0</tilted></_>
    <_>
      <rects>
        <_>
          35 9 3 7 -1.</_>
        <_>
          36 9 1 7 3.</_></rects>
      <tilted>0</tilted></_>
    <_>
      <rects>
        <_>
          35 12 4 2 -1.</_>
        <_>
          36 12 2 2 2.</_></rects>
      <tilted>0</tilted></_>
    <_>
      <rects>
        <_>
          35 12 6 1 -1.</_>
        <_>
          37 12 2 1 3.</_></rects>
      <tilted>0</tilted></_>
    <_>
      <rects>
        <_>
          35 14 6 1 -1.</_>
        <_>
          37 14 2 1 3.</_></rects>
      <tilted>0</tilted></_>
    <_>
      <rects>
        <_>
          35 20 4 3 -1.</_>
        <_>
          36 20 2 3 2.</_></rects>
      <tilted>0</tilted></_>
    <_>
      <rects>
        <_>
          35 20 12 4 -1.</_>
        <_>
          38 20 6 4 2.</_></rects>
      <tilted>0</tilted></_>
    <_>
      <rects>
        <_>
          37 13 6 5 -1.</_>
        <_>
          40 13 3 5 2.</_></rects>
      <tilted>0</tilted></_>
    <_>
      <rects>
        <_>
          38 9 2 6 -1.</_>
        <_>
          38 9 1 3 2.</_>
        <_>
          39 12 1 3 2.</_></rects>
      <tilted>0</tilted></_>
    <_>
      <rects>
        <_>
          38 9 3 7 -1.</_>
        <_>
          39 9 1 7 3.</_></rects>
      <tilted>0</tilted></_>
    <_>
      <rects>
        <_>
          38 18 6 3 -1.</_>
        <_>
          38 19 6 1 3.</_></rects>
      <tilted>0</tilted></_>
    <_>
      <rects>
        <_>
          38 19 3 2 -1.</_>
        <_>
          38 20 3 1 2.</_></rects>
      <tilted>0</tilted></_>
    <_>
      <rects>
        <_>
          39 14 3 1 -1.</_>
        <_>
          40 14 1 1 3.</_></rects>
      <tilted>0</tilted></_>
    <_>
      <rects>
        <_>
          39 18 2 6 -1.</_>
        <_>
          39 20 2 2 3.</_></rects>
      <tilted>0</tilted></_>
    <_>
      <rects>
        <_>
          39 22 4 2 -1.</_>
        <_>
          40 22 2 2 2.</_></rects>
      <tilted>0</tilted></_>
    <_>
      <rects>
        <_>
          40 11 4 3 -1.</_>
        <_>
          42 11 2 3 2.</_></rects>
      <tilted>0</tilted></_>
    <_>
      <rects>
        <_>
          41 8 3 6 -1.</_>
        <_>
          42 8 1 6 3.</_></rects>
      <tilted>0</tilted></_>
    <_>
      <rects>
        <_>
          41 10 4 3 -1.</_>
        <_>
          42 10 2 3 2.</_></rects>
      <tilted>0</tilted></_>
    <_>
      <rects>
        <_>
          42 0 3 2 -1.</_>
        <_>
          43 0 1 2 3.</_></rects>
      <tilted>0</tilted></_>
    <_>
      <rects>
        <_>
          42 2 2 3 -1.</_>
        <_>
          42 3 2 1 3.</_></rects>
      <tilted>0</tilted></_>
    <_>
      <rects>
        <_>
          42 3 6 6 -1.</_>
        <_>
          42 3 3 3 2.</_>
        <_>
          45 6 3 3 2.</_></rects>
      <tilted>0</tilted></_>
    <_>
      <rects>
        <_>
          42 9 3 4 -1.</_>
        <_>
          43 9 1 4 3.</_></rects>
      <tilted>0</tilted></_>
    <_>
      <rects>
        <_>
          42 18 3 3 -1.</_>
        <_>
          43 19 1 1 9.</_></rects>
      <tilted>0</tilted></_>
    <_>
      <rects>
        <_>
          42 18 6 4 -1.</_>
        <_>
          42 18 3 2 2.</_>
        <_>
          45 20 3 2 2.</_></rects>
      <tilted>0</tilted></_>
    <_>
      <rects>
        <_>
          43 3 1 4 -1.</_>
        <_>
          43 5 1 2 2.</_></rects>
      <tilted>0</tilted></_>
    <_>
      <rects>
        <_>
          43 11 3 3 -1.</_>
        <_>
          44 12 1 1 9.</_></rects>
      <tilted>0</tilted></_>
    <_>
      <rects>
        <_>
          44 0 7 4 -1.</_>
        <_>
          44 1 7 2 2.</_></rects>
      <tilted>0</tilted></_>
    <_>
      <rects>
        <_>
          44 3 4 3 -1.</_>
        <_>
          45 3 2 3 2.</_></rects>
      <tilted>0</tilted></_>
    <_>
      <rects>
        <_>
          44 11 3 3 -1.</_>
        <_>
          45 12 1 1 9.</_></rects>
      <tilted>0</tilted></_>
    <_>
      <rects>
        <_>
          44 11 3 6 -1.</_>
        <_>
          45 13 1 2 9.</_></rects>
      <tilted>0</tilted></_>
    <_>
      <rects>
        <_>
          45 0 3 4 -1.</_>
        <_>
          46 0 1 4 3.</_></rects>
      <tilted>0</tilted></_>
    <_>
      <rects>
        <_>
          45 1 15 22 -1.</_>
        <_>
          50 1 5 22 3.</_></rects>
      <tilted>0</tilted></_>
    <_>
      <rects>
        <_>
          45 8 4 8 -1.</_>
        <_>
          46 8 2 8 2.</_></rects>
      <tilted>0</tilted></_>
    <_>
      <rects>
        <_>
          45 19 6 4 -1.</_>
        <_>
          45 20 6 2 2.</_></rects>
      <tilted>0</tilted></_>
    <_>
      <rects>
        <_>
          45 22 6 2 -1.</_>
        <_>
          47 22 2 2 3.</_></rects>
      <tilted>0</tilted></_>
    <_>
      <rects>
        <_>
          46 0 3 2 -1.</_>
        <_>
          47 0 1 2 3.</_></rects>
      <tilted>0</tilted></_>
    <_>
      <rects>
        <_>
          46 0 4 3 -1.</_>
        <_>
          47 0 2 3 2.</_></rects>
      <tilted>0</tilted></_>
    <_>
      <rects>
        <_>
          46 15 4 2 -1.</_>
        <_>
          47 15 2 2 2.</_></rects>
      <tilted>0</tilted></_>
    <_>
      <rects>
        <_>
          46 15 3 3 -1.</_>
        <_>
          47 15 1 3 3.</_></rects>
      <tilted>0</tilted></_>
    <_>
      <rects>
        <_>
          46 16 9 6 -1.</_>
        <_>
          49 18 3 2 9.</_></rects>
      <tilted>0</tilted></_>
    <_>
      <rects>
        <_>
          46 17 4 2 -1.</_>
        <_>
          46 17 2 1 2.</_>
        <_>
          48 18 2 1 2.</_></rects>
      <tilted>0</tilted></_>
    <_>
      <rects>
        <_>
          47 0 9 5 -1.</_>
        <_>
          50 0 3 5 3.</_></rects>
      <tilted>0</tilted></_>
    <_>
      <rects>
        <_>
          47 1 12 18 -1.</_>
        <_>
          50 1 6 18 2.</_></rects>
      <tilted>0</tilted></_>
    <_>
      <rects>
        <_>
          47 1 11 4 -1.</_>
        <_>
          47 3 11 2 2.</_></rects>
      <tilted>0</tilted></_>
    <_>
      <rects>
        <_>
          47 7 6 13 -1.</_>
        <_>
          49 7 2 13 3.</_></rects>
      <tilted>0</tilted></_>
    <_>
      <rects>
        <_>
          47 10 6 10 -1.</_>
        <_>
          49 10 2 10 3.</_></rects>
      <tilted>0</tilted></_>
    <_>
      <rects>
        <_>
          47 12 4 7 -1.</_>
        <_>
          49 12 2 7 2.</_></rects>
      <tilted>0</tilted></_>
    <_>
      <rects>
        <_>
          47 19 2 5 -1.</_>
        <_>
          48 19 1 5 2.</_></rects>
      <tilted>0</tilted></_>
    <_>
      <rects>
        <_>
          47 22 3 2 -1.</_>
        <_>
          48 22 1 2 3.</_></rects>
      <tilted>0</tilted></_>
    <_>
      <rects>
        <_>
          48 2 6 2 -1.</_>
        <_>
          48 3 6 1 2.</_></rects>
      <tilted>0</tilted></_>
    <_>
      <rects>
        <_>
          48 9 3 3 -1.</_>
        <_>
          49 10 1 1 9.</_></rects>
      <tilted>0</tilted></_>
    <_>
      <rects>
        <_>
          48 11 6 4 -1.</_>
        <_>
          48 11 3 2 2.</_>
        <_>
          51 13 3 2 2.</_></rects>
      <tilted>0</tilted></_>
    <_>
      <rects>
        <_>
          49 3 9 17 -1.</_>
        <_>
          52 3 3 17 3.</_></rects>
      <tilted>0</tilted></_>
    <_>
      <rects>
        <_>
          50 0 4 2 -1.</_>
        <_>
          51 0 2 2 2.</_></rects>
      <tilted>0</tilted></_>
    <_>
      <rects>
        <_>
          50 5 10 12 -1.</_>
        <_>
          55 5 5 12 2.</_></rects>
      <tilted>0</tilted></_>
    <_>
      <rects>
        <_>
          52 0 8 24 -1.</_>
        <_>
          52 8 8 8 3.</_></rects>
      <tilted>0</tilted></_>
    <_>
      <rects>
        <_>
          52 6 4 10 -1.</_>
        <_>
          52 6 2 5 2.</_>
        <_>
          54 11 2 5 2.</_></rects>
      <tilted>0</tilted></_>
    <_>
      <rects>
        <_>
          52 7 4 10 -1.</_>
        <_>
          53 7 2 10 2.</_></rects>
      <tilted>0</tilted></_>
    <_>
      <rects>
        <_>
          52 16 6 4 -1.</_>
        <_>
          52 16 3 2 2.</_>
        <_>
          55 18 3 2 2.</_></rects>
      <tilted>0</tilted></_>
    <_>
      <rects>
        <_>
          53 0 3 2 -1.</_>
        <_>
          54 0 1 2 3.</_></rects>
      <tilted>0</tilted></_>
    <_>
      <rects>
        <_>
          53 0 4 2 -1.</_>
        <_>
          54 0 2 2 2.</_></rects>
      <tilted>0</tilted></_>
    <_>
      <rects>
        <_>
          53 5 4 6 -1.</_>
        <_>
          53 5 2 3 2.</_>
        <_>
          55 8 2 3 2.</_></rects>
      <tilted>0</tilted></_>
    <_>
      <rects>
        <_>
          53 6 5 2 -1.</_>
        <_>
          53 7 5 1 2.</_></rects>
      <tilted>0</tilted></_>
    <_>
      <rects>
        <_>
          53 16 6 6 -1.</_>
        <_>
          53 16 3 3 2.</_>
        <_>
          56 19 3 3 2.</_></rects>
      <tilted>0</tilted></_>
    <_>
      <rects>
        <_>
          54 4 6 20 -1.</_>
        <_>
          56 4 2 20 3.</_></rects>
      <tilted>0</tilted></_>
    <_>
      <rects>
        <_>
          54 10 6 10 -1.</_>
        <_>
          56 10 2 10 3.</_></rects>
      <tilted>0</tilted></_>
    <_>
      <rects>
        <_>
          54 10 6 13 -1.</_>
        <_>
          56 10 2 13 3.</_></rects>
      <tilted>0</tilted></_>
    <_>
      <rects>
        <_>
          55 5 2 15 -1.</_>
        <_>
          56 5 1 15 2.</_></rects>
      <tilted>0</tilted></_>
    <_>
      <rects>
        <_>
          56 1 4 21 -1.</_>
        <_>
          57 1 2 21 2.</_></rects>
      <tilted>0</tilted></_>
    <_>
      <rects>
        <_>
          56 5 4 16 -1.</_>
        <_>
          58 5 2 16 2.</_></rects>
      <tilted>0</tilted></_>
    <_>
      <rects>
        <_>
          56 8 4 14 -1.</_>
        <_>
          58 8 2 14 2.</_></rects>
      <tilted>0</tilted></_>
    <_>
      <rects>
        <_>
          57 12 3 4 -1.</_>
        <_>
          57 13 3 2 2.</_></rects>
      <tilted>0</tilted></_>
    <_>
      <rects>
        <_>
          57 14 2 3 -1.</_>
        <_>
          57 15 2 1 3.</_></rects>
      <tilted>0</tilted></_>
    <_>
      <rects>
        <_>
          58 15 2 6 -1.</_>
        <_>
          58 18 2 3 2.</_></rects>
      <tilted>0</tilted></_>
    <_>
      <rects>
        <_>
          59 13 1 3 -1.</_>
        <_>
          59 14 1 1 3.</_></rects>
      <tilted>0</tilted></_></features></cascade>
</opencv_storage>
