<?xml version="1.0"?>
<opencv_storage>
<stage5>
  <maxWeakCount>10</maxWeakCount>
  <stageThreshold>-1.1366716623306274e+00</stageThreshold>
  <weakClassifiers>
    <_>
      <internalNodes>
        0 -1 1309337 -1.3440761715173721e-02</internalNodes>
      <leafValues>
        6.8106311559677124e-01 -4.2118433117866516e-01</leafValues></_>
    <_>
      <internalNodes>
        0 -1 99260 -2.2070407867431641e-02</internalNodes>
      <leafValues>
        7.8805130720138550e-01 -2.0418012142181396e-01</leafValues></_>
    <_>
      <internalNodes>
        0 -1 444021 5.6347167119383812e-03</internalNodes>
      <leafValues>
        -2.1812017261981964e-01 5.7942903041839600e-01</leafValues></_>
    <_>
      <internalNodes>
        0 -1 472962 -2.2673679632134736e-04</internalNodes>
      <leafValues>
        -8.4107786417007446e-01 1.5500231087207794e-01</leafValues></_>
    <_>
      <internalNodes>
        0 -1 1203588 1.1839626822620630e-03</internalNodes>
      <leafValues>
        -2.0165941119194031e-01 6.6077452898025513e-01</leafValues></_>
    <_>
      <internalNodes>
        0 -1 472962 2.2801435261499137e-04</internalNodes>
      <leafValues>
        1.5963287651538849e-01 -9.1837382316589355e-01</leafValues></_>
    <_>
      <internalNodes>
        0 -1 1237898 -1.2658063787966967e-03</internalNodes>
      <leafValues>
        4.8430728912353516e-01 -2.9547977447509766e-01</leafValues></_>
    <_>
      <internalNodes>
        0 -1 1242170 3.6302988883107901e-03</internalNodes>
      <leafValues>
        -2.0109494030475616e-01 6.2265765666961670e-01</leafValues></_>
    <_>
      <internalNodes>
        0 -1 7618 2.8700079768896103e-02</internalNodes>
      <leafValues>
        -2.5705927610397339e-01 5.0907194614410400e-01</leafValues></_>
    <_>
      <internalNodes>
        0 -1 895117 -3.1494200229644775e-03</internalNodes>
      <leafValues>
        4.8111733794212341e-01 -2.7935406565666199e-01</leafValues></_></weakClassifiers></stage5>
</opencv_storage>
