<?xml version="1.0"?>
<opencv_storage>
<stage17>
  <maxWeakCount>10</maxWeakCount>
  <stageThreshold>-2.5179164409637451e+00</stageThreshold>
  <weakClassifiers>
    <_>
      <internalNodes>
        0 -1 92970 -1668378492 1880983601 2080919714 -257579957
        -299383476 1073961533 1629735233 -173954119</internalNodes>
      <leafValues>
        -6.7653757333755493e-01 6.0034453868865967e-01</leafValues></_>
    <_>
      <internalNodes>
        0 -1 93034 -762606913 -530488437 -1806669801 64086361
        -2143827581 134300810 1493905570 1579934351</internalNodes>
      <leafValues>
        -6.6578066349029541e-01 5.5053049325942993e-01</leafValues></_>
    <_>
      <internalNodes>
        0 -1 87414 -409771129 -480440063 -1979603825 -781679551
        1619599499 -1164597233 -1467422547 -2019180091</internalNodes>
      <leafValues>
        -6.9372940063476562e-01 5.7048189640045166e-01</leafValues></_>
    <_>
      <internalNodes>
        0 -1 99309 -255506226 -1794691687 537002018 -1115254761
        1519325450 1615536135 -2146528630 6152974</internalNodes>
      <leafValues>
        -8.1321316957473755e-01 6.7656791210174561e-01</leafValues></_>
    <_>
      <internalNodes>
        0 -1 74079 -1178887521 -1681935085 465023505 1475860403
        -67371081 -71729006 368525847 -33555595</internalNodes>
      <leafValues>
        -6.4702624082565308e-01 6.5636956691741943e-01</leafValues></_>
    <_>
      <internalNodes>
        0 -1 74079 -1188357985 489238803 421564945 1352028563 17324210
        -670465902 2261526 -53769664</internalNodes>
      <leafValues>
        -7.3290121555328369e-01 5.8017283678054810e-01</leafValues></_>
    <_>
      <internalNodes>
        0 -1 67721 -1319133189 -314506404 -2122030607 -1127923692
        -1333016085 -1046296440 688497043 -540325707</internalNodes>
      <leafValues>
        -7.8778475522994995e-01 5.5732309818267822e-01</leafValues></_>
    <_>
      <internalNodes>
        0 -1 68175 -118898545 -607051573 -201227496 1398543017
        -2130556489 -375352695 -660547550 -100931943</internalNodes>
      <leafValues>
        -8.8527935743331909e-01 5.4480528831481934e-01</leafValues></_>
    <_>
      <internalNodes>
        0 -1 99366 -873994622 1363206478 807043080 688140618 -1954182609
        1078431882 -2103466358 -1033973809</internalNodes>
      <leafValues>
        -9.5507621765136719e-01 6.2749683856964111e-01</leafValues></_>
    <_>
      <internalNodes>
        0 -1 57018 -408133446 -1854291459 -2145284285 -1861877671
        1624633463 -2137354109 -796745160 -91006269</internalNodes>
      <leafValues>
        -9.7789877653121948e-01 5.8200758695602417e-01</leafValues></_></weakClassifiers></stage17>
</opencv_storage>
