<?xml version="1.0"?>
<opencv_storage>
<stage19>
  <maxWeakCount>8</maxWeakCount>
  <stageThreshold>-9.2897814512252808e-01</stageThreshold>
  <weakClassifiers>
    <_>
      <internalNodes>
        0 -1 77274 -146312948 -488963789 -766504640 1173557739
        1493308104 1644370274 1756942664 1351219666</internalNodes>
      <leafValues>
        -9.3150687217712402e-01 5.1376146078109741e-01</leafValues></_>
    <_>
      <internalNodes>
        0 -1 62872 -385515398 1491636554 -1106777775 -609423571
        -2142401105 -1965893174 65242103 1405086261</internalNodes>
      <leafValues>
        -7.7077865600585938e-01 4.1855454444885254e-01</leafValues></_>
    <_>
      <internalNodes>
        0 -1 11873 -1028730898 -1459853620 -306446866 -1023414588
        2009178870 -520660996 988764110 1196377590</internalNodes>
      <leafValues>
        -6.2551105022430420e-01 6.9371736049652100e-01</leafValues></_>
    <_>
      <internalNodes>
        0 -1 85636 -481574870 -1585381359 -224279040 -1005854177
        -532460529 1880654979 -465105653 -294681429</internalNodes>
      <leafValues>
        -7.8009468317031860e-01 5.7744920253753662e-01</leafValues></_>
    <_>
      <internalNodes>
        0 -1 29713 -202375610 -2147325948 -2088162814 673342082
        1879769603 1077942307 -739209137 1078444907</internalNodes>
      <leafValues>
        -7.2163403034210205e-01 6.4973348379135132e-01</leafValues></_>
    <_>
      <internalNodes>
        0 -1 59097 -1540808505 696095558 1124149404 -515440613 201349714
        990216480 1795735690 -448117446</internalNodes>
      <leafValues>
        -7.2238886356353760e-01 6.9900423288345337e-01</leafValues></_>
    <_>
      <internalNodes>
        0 -1 33733 -647248390 189104746 -1609990096 -1610454386
        1623933066 156568389 -1020771570 1196346139</internalNodes>
      <leafValues>
        -8.0738335847854614e-01 6.4400684833526611e-01</leafValues></_>
    <_>
      <internalNodes>
        0 -1 35889 1507154282 -532197165 -1870563755 -125472749
        -251504431 -494239592 -670914018 1352374607</internalNodes>
      <leafValues>
        -8.9487808942794800e-01 7.0343351364135742e-01</leafValues></_></weakClassifiers></stage19>
</opencv_storage>
