<?xml version="1.0"?>
<opencv_storage>
<stage6>
  <maxWeakCount>4</maxWeakCount>
  <stageThreshold>-1.3053616285324097e+00</stageThreshold>
  <weakClassifiers>
    <_>
      <internalNodes>
        0 -1 58161 -284560680 -486080372 -2130689600 -645591040
        -1348235349 -1113683328 -527851019 -1848645447</internalNodes>
      <leafValues>
        -7.5109171867370605e-01 6.5148860216140747e-01</leafValues></_>
    <_>
      <internalNodes>
        0 -1 76416 -133048941 1494892576 -2146331481 -169925503
        -926365542 -934313839 -928283957 -235962077</internalNodes>
      <leafValues>
        -6.4761811494827271e-01 6.6215914487838745e-01</leafValues></_>
    <_>
      <internalNodes>
        0 -1 88159 -134224709 -1 -822129565 -521142401 1610571387
        -4229633 1655655951 -621805569</internalNodes>
      <leafValues>
        -5.9833306074142456e-01 7.4040096998214722e-01</leafValues></_>
    <_>
      <internalNodes>
        0 -1 52275 -1860452865 -419175904 -2112675681 -45415659
        -971898693 167891860 1980205467 -16518876</internalNodes>
      <leafValues>
        -7.0485955476760864e-01 6.9168120622634888e-01</leafValues></_></weakClassifiers></stage6>
</opencv_storage>
