<?xml version="1.0"?>
<opencv_storage>
<stage18>
  <maxWeakCount>8</maxWeakCount>
  <stageThreshold>-2.0961084365844727e+00</stageThreshold>
  <weakClassifiers>
    <_>
      <internalNodes>
        0 -1 59341 1361119214 1737298055 1483576738 -20359795
        -1048555845 465076396 -1509701677 1958937843</internalNodes>
      <leafValues>
        -8.7730062007904053e-01 5.3846156597137451e-01</leafValues></_>
    <_>
      <internalNodes>
        0 -1 98874 -704667442 -1056894902 -1878974434 1359575194
        -725171313 -87735694 -1958178170 -775036725</internalNodes>
      <leafValues>
        -5.8820760250091553e-01 5.8629983663558960e-01</leafValues></_>
    <_>
      <internalNodes>
        0 -1 101540 723646968 -484962192 2146435063 -1782579203
        -477476707 -3 -864289041 1432243420</internalNodes>
      <leafValues>
        -7.0119148492813110e-01 7.3019963502883911e-01</leafValues></_>
    <_>
      <internalNodes>
        0 -1 85211 990954236 -1278508991 -1073151975 1904436501
        -1020032103 -849838048 -275846215 -560004696</internalNodes>
      <leafValues>
        -8.7787044048309326e-01 5.8169531822204590e-01</leafValues></_>
    <_>
      <internalNodes>
        0 -1 79812 -1717482263 -2125577778 1073848577 1631783445
        1006945736 -645758952 973187312 -285757715</internalNodes>
      <leafValues>
        -8.1049823760986328e-01 6.2788546085357666e-01</leafValues></_>
    <_>
      <internalNodes>
        0 -1 43046 -1223588629 -209075060 -787431391 -1630498671
        -1123884209 -121492176 573749195 -1884043856</internalNodes>
      <leafValues>
        -8.3363759517669678e-01 6.1942476034164429e-01</leafValues></_>
    <_>
      <internalNodes>
        0 -1 103650 -1953457988 -987955108 -886531052 2140342672
        -1992978362 -1534881656 15262415 -842010151</internalNodes>
      <leafValues>
        -9.1843569278717041e-01 6.4409786462783813e-01</leafValues></_>
    <_>
      <internalNodes>
        0 -1 76431 -597691435 -2041738619 541077125 1538902017
        -559021782 -2138931199 -370701879 -77403459</internalNodes>
      <leafValues>
        -9.7412198781967163e-01 6.4125841856002808e-01</leafValues></_></weakClassifiers></stage18>
</opencv_storage>
