<?xml version="1.0"?>
<opencv_storage>
<stage16>
  <maxWeakCount>7</maxWeakCount>
  <stageThreshold>-1.1403537988662720e+00</stageThreshold>
  <weakClassifiers>
    <_>
      <internalNodes>
        0 -1 85558 -385877774 -5570578 -2937430 -922812434 -536872961
        -420479314 1568407202 -2139357701</internalNodes>
      <leafValues>
        -6.2575453519821167e-01 6.4460563659667969e-01</leafValues></_>
    <_>
      <internalNodes>
        0 -1 3688 -528921 -764088658 -1360098450 -1594168734 -143294601
        1990950908 2146856047 -220213425</internalNodes>
      <leafValues>
        -5.3948688507080078e-01 6.7670780420303345e-01</leafValues></_>
    <_>
      <internalNodes>
        0 -1 103413 -1042365850 -790305407 548601864 5395819 -506281984
        80957440 -1063066038 1942749071</internalNodes>
      <leafValues>
        -7.7910655736923218e-01 4.9528983235359192e-01</leafValues></_>
    <_>
      <internalNodes>
        0 -1 11803 1313085810 -2128674412 16845128 -1329373156 402755968
        272859778 -2147361852 -1855860</internalNodes>
      <leafValues>
        -8.3151954412460327e-01 7.1138525009155273e-01</leafValues></_>
    <_>
      <internalNodes>
        0 -1 37572 1627775727 -803388389 134348872 914739729 1812027599
        923533506 -1035878321 2065420307</internalNodes>
      <leafValues>
        -6.7785835266113281e-01 6.4722526073455811e-01</leafValues></_>
    <_>
      <internalNodes>
        0 -1 90575 -650383478 -258518697 -1023375580 -2113679178
        1375302592 1922629809 1151845199 -99550469</internalNodes>
      <leafValues>
        -7.1930283308029175e-01 6.0656321048736572e-01</leafValues></_>
    <_>
      <internalNodes>
        0 -1 51813 -985185800 1150615564 2043883969 -199221227
        -451706726 -261204989 168813270 -9193845</internalNodes>
      <leafValues>
        -7.7896362543106079e-01 5.9525012969970703e-01</leafValues></_></weakClassifiers></stage16>
</opencv_storage>
