<?xml version="1.0"?>
<opencv_storage>
<stage4>
  <maxWeakCount>4</maxWeakCount>
  <stageThreshold>-3.6972120404243469e-01</stageThreshold>
  <weakClassifiers>
    <_>
      <internalNodes>
        0 -1 88103 -273717274 -173559715 -1978095217 -44705650
        1124139810 285344206 268987946 2065392283</internalNodes>
      <leafValues>
        -9.0330791473388672e-01 6.2551778554916382e-01</leafValues></_>
    <_>
      <internalNodes>
        0 -1 52105 -254030385 1562236182 -888022755 -16660971 -905280961
        470384771 687925951 1862527527</internalNodes>
      <leafValues>
        -7.1628481149673462e-01 6.6085290908813477e-01</leafValues></_>
    <_>
      <internalNodes>
        0 -1 31621 -1450516806 1575712021 285384031 -79566775 -100556074
        -206960247 -226387778 -503095153</internalNodes>
      <leafValues>
        -7.6078784465789795e-01 6.5669345855712891e-01</leafValues></_>
    <_>
      <internalNodes>
        0 -1 88229 -985669404 1620180994 1074282508 4510731 1364328455
        -1576531959 1262619179 120316827</internalNodes>
      <leafValues>
        -8.9530402421951294e-01 7.6532018184661865e-01</leafValues></_></weakClassifiers></stage4>
</opencv_storage>
