<?xml version="1.0"?>
<opencv_storage>
<stage11>
  <maxWeakCount>14</maxWeakCount>
  <stageThreshold>-1.1124422550201416e+00</stageThreshold>
  <weakClassifiers>
    <_>
      <internalNodes>
        0 -1 16531 1.9408514723181725e-02</internalNodes>
      <leafValues>
        -3.6850520968437195e-01 6.4658635854721069e-01</leafValues></_>
    <_>
      <internalNodes>
        0 -1 774708 9.1277407482266426e-03</internalNodes>
      <leafValues>
        -2.5293093919754028e-01 4.8610165715217590e-01</leafValues></_>
    <_>
      <internalNodes>
        0 -1 1191146 1.2241940712556243e-03</internalNodes>
      <leafValues>
        -2.6001703739166260e-01 4.5243400335311890e-01</leafValues></_>
    <_>
      <internalNodes>
        0 -1 554942 -7.2564728558063507e-02</internalNodes>
      <leafValues>
        -8.2493776082992554e-01 1.4628283679485321e-01</leafValues></_>
    <_>
      <internalNodes>
        0 -1 758530 -1.4845859259366989e-03</internalNodes>
      <leafValues>
        -8.0806422233581543e-01 1.1113347858190536e-01</leafValues></_>
    <_>
      <internalNodes>
        0 -1 1217004 1.0368943912908435e-03</internalNodes>
      <leafValues>
        -2.4913685023784637e-01 4.1587781906127930e-01</leafValues></_>
    <_>
      <internalNodes>
        0 -1 1096738 1.3453381834551692e-03</internalNodes>
      <leafValues>
        -2.4672839045524597e-01 4.3208485841751099e-01</leafValues></_>
    <_>
      <internalNodes>
        0 -1 326727 -4.6246051788330078e-03</internalNodes>
      <leafValues>
        2.8381693363189697e-01 -3.7201443314552307e-01</leafValues></_>
    <_>
      <internalNodes>
        0 -1 364916 8.6035288404673338e-04</internalNodes>
      <leafValues>
        1.1466810107231140e-01 -8.5866820812225342e-01</leafValues></_>
    <_>
      <internalNodes>
        0 -1 1251530 3.7272821646183729e-04</internalNodes>
      <leafValues>
        -2.5722804665565491e-01 5.0535959005355835e-01</leafValues></_>
    <_>
      <internalNodes>
        0 -1 750438 1.0902541689574718e-03</internalNodes>
      <leafValues>
        -2.1277374029159546e-01 4.6714088320732117e-01</leafValues></_>
    <_>
      <internalNodes>
        0 -1 781108 5.0510989967733622e-04</internalNodes>
      <leafValues>
        -2.5391578674316406e-01 4.3006229400634766e-01</leafValues></_>
    <_>
      <internalNodes>
        0 -1 1167934 -3.3888092730194330e-04</internalNodes>
      <leafValues>
        -7.1006500720977783e-01 1.6807048022747040e-01</leafValues></_>
    <_>
      <internalNodes>
        0 -1 1228642 1.9725831225514412e-03</internalNodes>
      <leafValues>
        -2.8944405913352966e-01 3.5872054100036621e-01</leafValues></_></weakClassifiers></stage11>
</opencv_storage>
