<?xml version="1.0"?>
<opencv_storage>
<stage10>
  <maxWeakCount>11</maxWeakCount>
  <stageThreshold>-1.2636607885360718e+00</stageThreshold>
  <weakClassifiers>
    <_>
      <internalNodes>
        0 -1 153510 -7.2813085280358791e-03</internalNodes>
      <leafValues>
        5.2522253990173340e-01 -4.1014617681503296e-01</leafValues></_>
    <_>
      <internalNodes>
        0 -1 4079 1.2245409190654755e-02</internalNodes>
      <leafValues>
        -3.3323395252227783e-01 3.9612910151481628e-01</leafValues></_>
    <_>
      <internalNodes>
        0 -1 462633 2.9321745969355106e-03</internalNodes>
      <leafValues>
        -2.5128203630447388e-01 5.3690642118453979e-01</leafValues></_>
    <_>
      <internalNodes>
        0 -1 729900 4.1670550126582384e-04</internalNodes>
      <leafValues>
        1.9425407052040100e-01 -7.9003226757049561e-01</leafValues></_>
    <_>
      <internalNodes>
        0 -1 530187 1.7041913233697414e-03</internalNodes>
      <leafValues>
        -2.0328490436077118e-01 5.7045227289199829e-01</leafValues></_>
    <_>
      <internalNodes>
        0 -1 806374 -6.6236860584467649e-04</internalNodes>
      <leafValues>
        4.2870095372200012e-01 -2.6365941762924194e-01</leafValues></_>
    <_>
      <internalNodes>
        0 -1 1312429 5.9105851687490940e-04</internalNodes>
      <leafValues>
        1.7895019054412842e-01 -7.7982819080352783e-01</leafValues></_>
    <_>
      <internalNodes>
        0 -1 1221103 -1.5323696425184608e-03</internalNodes>
      <leafValues>
        4.7069984674453735e-01 -2.7208027243614197e-01</leafValues></_>
    <_>
      <internalNodes>
        0 -1 804707 -2.3642610758543015e-02</internalNodes>
      <leafValues>
        -9.1277450323104858e-01 1.1273766309022903e-01</leafValues></_>
    <_>
      <internalNodes>
        0 -1 1015522 -5.0185039639472961e-02</internalNodes>
      <leafValues>
        -8.4287750720977783e-01 8.8637486100196838e-02</leafValues></_>
    <_>
      <internalNodes>
        0 -1 1242534 -5.2411307115107775e-04</internalNodes>
      <leafValues>
        -9.0028607845306396e-01 9.1544449329376221e-02</leafValues></_></weakClassifiers></stage10>
</opencv_storage>
