<?xml version="1.0"?>
<opencv_storage>
<stage19>
  <maxWeakCount>13</maxWeakCount>
  <stageThreshold>-7.9714506864547729e-01</stageThreshold>
  <weakClassifiers>
    <_>
      <internalNodes>
        0 -1 67415 1.8114496022462845e-02</internalNodes>
      <leafValues>
        -9.8654709756374359e-02 8.0821919441223145e-01</leafValues></_>
    <_>
      <internalNodes>
        0 -1 1167120 4.3639070354402065e-03</internalNodes>
      <leafValues>
        -1.2249846756458282e-01 6.3894003629684448e-01</leafValues></_>
    <_>
      <internalNodes>
        0 -1 1198913 -1.1169281788170338e-03</internalNodes>
      <leafValues>
        3.2650339603424072e-01 -2.6419404149055481e-01</leafValues></_>
    <_>
      <internalNodes>
        0 -1 325944 -1.1444629635661840e-03</internalNodes>
      <leafValues>
        -6.6725254058837891e-01 1.3467480242252350e-01</leafValues></_>
    <_>
      <internalNodes>
        0 -1 473053 2.9008551500737667e-03</internalNodes>
      <leafValues>
        -1.3735136389732361e-01 6.2389701604843140e-01</leafValues></_>
    <_>
      <internalNodes>
        0 -1 860525 3.2223886228166521e-04</internalNodes>
      <leafValues>
        -3.5365495085716248e-01 3.0077019333839417e-01</leafValues></_>
    <_>
      <internalNodes>
        0 -1 423689 -2.0931234583258629e-02</internalNodes>
      <leafValues>
        7.4175816774368286e-01 -1.5621969103813171e-01</leafValues></_>
    <_>
      <internalNodes>
        0 -1 898466 1.0598570108413696e-02</internalNodes>
      <leafValues>
        1.8672060966491699e-01 -6.2311345338821411e-01</leafValues></_>
    <_>
      <internalNodes>
        0 -1 413370 -2.5128051638603210e-03</internalNodes>
      <leafValues>
        7.1850478649139404e-01 -1.3702291250228882e-01</leafValues></_>
    <_>
      <internalNodes>
        0 -1 479271 2.8840301558375359e-02</internalNodes>
      <leafValues>
        1.3838455080986023e-01 -7.4321269989013672e-01</leafValues></_>
    <_>
      <internalNodes>
        0 -1 1103156 -7.9631200060248375e-04</internalNodes>
      <leafValues>
        -9.0371400117874146e-01 1.2456535547971725e-01</leafValues></_>
    <_>
      <internalNodes>
        0 -1 1146869 -7.7584298560395837e-04</internalNodes>
      <leafValues>
        4.9856528639793396e-01 -2.3933002352714539e-01</leafValues></_>
    <_>
      <internalNodes>
        0 -1 1291195 1.3755116611719131e-02</internalNodes>
      <leafValues>
        -3.5935962200164795e-01 2.7493792772293091e-01</leafValues></_></weakClassifiers></stage19>
</opencv_storage>
