<?xml version="1.0"?>
<opencv_storage>
<stage18>
  <maxWeakCount>17</maxWeakCount>
  <stageThreshold>-1.2670098543167114e+00</stageThreshold>
  <weakClassifiers>
    <_>
      <internalNodes>
        0 -1 1272126 -1.2972591444849968e-02</internalNodes>
      <leafValues>
        2.7734375000000000e-01 -4.4736841320991516e-01</leafValues></_>
    <_>
      <internalNodes>
        0 -1 1233391 1.6437932848930359e-02</internalNodes>
      <leafValues>
        -2.9612147808074951e-01 3.0861729383468628e-01</leafValues></_>
    <_>
      <internalNodes>
        0 -1 884898 1.1742223287001252e-03</internalNodes>
      <leafValues>
        -2.2403281927108765e-01 3.9843013882637024e-01</leafValues></_>
    <_>
      <internalNodes>
        0 -1 1295779 2.7118343859910965e-03</internalNodes>
      <leafValues>
        -1.4501899480819702e-01 6.2102556228637695e-01</leafValues></_>
    <_>
      <internalNodes>
        0 -1 816492 3.3019451075233519e-04</internalNodes>
      <leafValues>
        1.3744190335273743e-01 -7.2243392467498779e-01</leafValues></_>
    <_>
      <internalNodes>
        0 -1 157361 2.1199155598878860e-03</internalNodes>
      <leafValues>
        -1.6754542291164398e-01 5.6717467308044434e-01</leafValues></_>
    <_>
      <internalNodes>
        0 -1 266782 4.0542543865740299e-03</internalNodes>
      <leafValues>
        -1.7331942915916443e-01 4.6950069069862366e-01</leafValues></_>
    <_>
      <internalNodes>
        0 -1 203062 4.9188267439603806e-03</internalNodes>
      <leafValues>
        -1.5161666274070740e-01 5.4690492153167725e-01</leafValues></_>
    <_>
      <internalNodes>
        0 -1 866396 -1.0963263921439648e-03</internalNodes>
      <leafValues>
        -6.0020285844802856e-01 1.6391034424304962e-01</leafValues></_>
    <_>
      <internalNodes>
        0 -1 685267 -1.1765782255679369e-03</internalNodes>
      <leafValues>
        5.7075810432434082e-01 -1.7427998781204224e-01</leafValues></_>
    <_>
      <internalNodes>
        0 -1 721291 -4.0696174837648869e-03</internalNodes>
      <leafValues>
        6.7066138982772827e-01 -1.3888934254646301e-01</leafValues></_>
    <_>
      <internalNodes>
        0 -1 1197824 -3.4736766247078776e-04</internalNodes>
      <leafValues>
        4.5171076059341431e-01 -1.9467687606811523e-01</leafValues></_>
    <_>
      <internalNodes>
        0 -1 867878 -2.5428686290979385e-02</internalNodes>
      <leafValues>
        -7.6320457458496094e-01 1.3324783742427826e-01</leafValues></_>
    <_>
      <internalNodes>
        0 -1 4340 3.4779938869178295e-03</internalNodes>
      <leafValues>
        -2.8862810134887695e-01 2.8611156344413757e-01</leafValues></_>
    <_>
      <internalNodes>
        0 -1 604767 -3.5796395968645811e-04</internalNodes>
      <leafValues>
        3.3388271927833557e-01 -2.5722941756248474e-01</leafValues></_>
    <_>
      <internalNodes>
        0 -1 368452 1.4991311356425285e-02</internalNodes>
      <leafValues>
        9.1733686625957489e-02 -8.6790442466735840e-01</leafValues></_>
    <_>
      <internalNodes>
        0 -1 829096 1.7201527953147888e-04</internalNodes>
      <leafValues>
        -2.6058742403984070e-01 3.4400847554206848e-01</leafValues></_></weakClassifiers></stage18>
</opencv_storage>
