<?xml version="1.0"?>
<opencv_storage>
<stage6>
  <maxWeakCount>11</maxWeakCount>
  <stageThreshold>-1.2522372007369995e+00</stageThreshold>
  <weakClassifiers>
    <_>
      <internalNodes>
        0 -1 1079562 4.2720586061477661e-03</internalNodes>
      <leafValues>
        -4.1597336530685425e-01 6.7114096879959106e-01</leafValues></_>
    <_>
      <internalNodes>
        0 -1 1099240 9.9945208057761192e-04</internalNodes>
      <leafValues>
        -2.7892196178436279e-01 6.0104483366012573e-01</leafValues></_>
    <_>
      <internalNodes>
        0 -1 1063264 5.0087220733985305e-04</internalNodes>
      <leafValues>
        -2.9247590899467468e-01 5.1150101423263550e-01</leafValues></_>
    <_>
      <internalNodes>
        0 -1 1266723 4.3668205034919083e-04</internalNodes>
      <leafValues>
        -3.2790282368659973e-01 4.2977446317672729e-01</leafValues></_>
    <_>
      <internalNodes>
        0 -1 1062465 -2.2960247006267309e-03</internalNodes>
      <leafValues>
        7.1441423892974854e-01 -2.2315189242362976e-01</leafValues></_>
    <_>
      <internalNodes>
        0 -1 1103197 2.6585212908685207e-03</internalNodes>
      <leafValues>
        2.3493841290473938e-01 -7.9377442598342896e-01</leafValues></_>
    <_>
      <internalNodes>
        0 -1 659590 1.2945674825459719e-03</internalNodes>
      <leafValues>
        -2.8249135613441467e-01 4.7147357463836670e-01</leafValues></_>
    <_>
      <internalNodes>
        0 -1 503294 1.1900520883500576e-02</internalNodes>
      <leafValues>
        1.7818053066730499e-01 -8.4227782487869263e-01</leafValues></_>
    <_>
      <internalNodes>
        0 -1 1280415 -1.5550198033452034e-02</internalNodes>
      <leafValues>
        5.2365070581436157e-01 -2.9161369800567627e-01</leafValues></_>
    <_>
      <internalNodes>
        0 -1 274197 -3.4059073776006699e-02</internalNodes>
      <leafValues>
        -8.2201910018920898e-01 2.0924256742000580e-01</leafValues></_>
    <_>
      <internalNodes>
        0 -1 780000 1.9490572158247232e-03</internalNodes>
      <leafValues>
        -2.9246020317077637e-01 5.4685550928115845e-01</leafValues></_></weakClassifiers></stage6>
</opencv_storage>
