<?xml version="1.0"?>
<opencv_storage>
<cascade>
  <stageType>BOOST</stageType>
  <featureType>HAAR</featureType>
  <height>24</height>
  <width>60</width>
  <stageParams>
    <boostType>GAB</boostType>
    <minHitRate>9.9500000476837158e-01</minHitRate>
    <maxFalseAlarm>5.0000000000000000e-01</maxFalseAlarm>
    <weightTrimRate>9.4999999999999996e-01</weightTrimRate>
    <maxDepth>1</maxDepth>
    <maxWeakCount>100</maxWeakCount></stageParams>
  <featureParams>
    <maxCatCount>0</maxCatCount>
    <featSize>1</featSize>
    <mode>CORE</mode></featureParams>
  <stageNum>20</stageNum>
  <stages>
    <!-- stage 0 -->
    <_>
      <maxWeakCount>7</maxWeakCount>
      <stageThreshold>-1.2722771167755127e+00</stageThreshold>
      <weakClassifiers>
        <_>
          <internalNodes>
            0 -1 33 -3.3250294625759125e-02</internalNodes>
          <leafValues>
            7.2108840942382812e-01 -5.8356940746307373e-01</leafValues></_>
        <_>
          <internalNodes>
            0 -1 14 -1.4748930931091309e-02</internalNodes>
          <leafValues>
            8.9663606882095337e-01 -3.5118499398231506e-01</leafValues></_>
        <_>
          <internalNodes>
            0 -1 79 4.0237475186586380e-03</internalNodes>
          <leafValues>
            -3.9079657196998596e-01 7.1340203285217285e-01</leafValues></_>
        <_>
          <internalNodes>
            0 -1 163 8.7489578872919083e-03</internalNodes>
          <leafValues>
            -2.2410184144973755e-01 9.0332859754562378e-01</leafValues></_>
        <_>
          <internalNodes>
            0 -1 11 -2.5177144561894238e-04</internalNodes>
          <leafValues>
            -8.2104158401489258e-01 3.2490840554237366e-01</leafValues></_>
        <_>
          <internalNodes>
            0 -1 113 1.7534935614094138e-03</internalNodes>
          <leafValues>
            -3.6422324180603027e-01 6.8798142671585083e-01</leafValues></_>
        <_>
          <internalNodes>
            0 -1 22 -1.9625485874712467e-03</internalNodes>
          <leafValues>
            -7.3551416397094727e-01 3.9509618282318115e-01</leafValues></_></weakClassifiers></_>
    <!-- stage 1 -->
    <_>
      <maxWeakCount>6</maxWeakCount>
      <stageThreshold>-1.3338018655776978e+00</stageThreshold>
      <weakClassifiers>
        <_>
          <internalNodes>
            0 -1 88 -1.8631354905664921e-03</internalNodes>
          <leafValues>
            6.9696968793869019e-01 -5.7894736528396606e-01</leafValues></_>
        <_>
          <internalNodes>
            0 -1 83 2.8424868360161781e-02</internalNodes>
          <leafValues>
            -4.3134251236915588e-01 6.7615997791290283e-01</leafValues></_>
        <_>
          <internalNodes>
            0 -1 35 2.4742661044001579e-02</internalNodes>
          <leafValues>
            -3.8581815361976624e-01 7.0597922801971436e-01</leafValues></_>
        <_>
          <internalNodes>
            0 -1 115 -5.0273216329514980e-03</internalNodes>
          <leafValues>
            7.8330409526824951e-01 -3.0823308229446411e-01</leafValues></_>
        <_>
          <internalNodes>
            0 -1 40 8.9431274682283401e-03</internalNodes>
          <leafValues>
            -2.9840084910392761e-01 7.9296857118606567e-01</leafValues></_>
        <_>
          <internalNodes>
            0 -1 137 8.4130407776683569e-04</internalNodes>
          <leafValues>
            -2.9637953639030457e-01 6.6894012689590454e-01</leafValues></_></weakClassifiers></_>
    <!-- stage 2 -->
    <_>
      <maxWeakCount>8</maxWeakCount>
      <stageThreshold>-1.3143954277038574e+00</stageThreshold>
      <weakClassifiers>
        <_>
          <internalNodes>
            0 -1 87 -1.9949510693550110e-02</internalNodes>
          <leafValues>
            6.2893080711364746e-01 -5.8651024103164673e-01</leafValues></_>
        <_>
          <internalNodes>
            0 -1 97 -9.2786569148302078e-03</internalNodes>
          <leafValues>
            6.9383269548416138e-01 -4.1981726884841919e-01</leafValues></_>
        <_>
          <internalNodes>
            0 -1 44 -8.5199512541294098e-03</internalNodes>
          <leafValues>
            8.1164944171905518e-01 -2.8278055787086487e-01</leafValues></_>
        <_>
          <internalNodes>
            0 -1 67 3.9486489258706570e-03</internalNodes>
          <leafValues>
            -2.4412016570568085e-01 8.7928557395935059e-01</leafValues></_>
        <_>
          <internalNodes>
            0 -1 48 3.2117940485477448e-02</internalNodes>
          <leafValues>
            -2.7084910869598389e-01 7.5888156890869141e-01</leafValues></_>
        <_>
          <internalNodes>
            0 -1 27 -5.4416951024904847e-04</internalNodes>
          <leafValues>
            -8.1381350755691528e-01 3.2831302285194397e-01</leafValues></_>
        <_>
          <internalNodes>
            0 -1 25 3.3322153612971306e-03</internalNodes>
          <leafValues>
            -3.1983801722526550e-01 6.6610294580459595e-01</leafValues></_>
        <_>
          <internalNodes>
            0 -1 18 -2.6794441044330597e-02</internalNodes>
          <leafValues>
            4.9992766976356506e-01 -4.7321903705596924e-01</leafValues></_></weakClassifiers></_>
    <!-- stage 3 -->
    <_>
      <maxWeakCount>7</maxWeakCount>
      <stageThreshold>-1.3082040548324585e+00</stageThreshold>
      <weakClassifiers>
        <_>
          <internalNodes>
            0 -1 140 1.7190769314765930e-02</internalNodes>
          <leafValues>
            -5.1104974746704102e-01 6.1594200134277344e-01</leafValues></_>
        <_>
          <internalNodes>
            0 -1 150 1.3414831832051277e-02</internalNodes>
          <leafValues>
            -3.4058439731597900e-01 7.6820105314254761e-01</leafValues></_>
        <_>
          <internalNodes>
            0 -1 65 9.3764243647456169e-03</internalNodes>
          <leafValues>
            -4.0619039535522461e-01 5.3930491209030151e-01</leafValues></_>
        <_>
          <internalNodes>
            0 -1 153 1.1810261639766395e-04</internalNodes>
          <leafValues>
            2.7308705449104309e-01 -9.3193101882934570e-01</leafValues></_>
        <_>
          <internalNodes>
            0 -1 63 1.3803960755467415e-03</internalNodes>
          <leafValues>
            -3.4472987055778503e-01 7.0599472522735596e-01</leafValues></_>
        <_>
          <internalNodes>
            0 -1 62 -4.1699139401316643e-03</internalNodes>
          <leafValues>
            8.8160324096679688e-01 -2.8069898486137390e-01</leafValues></_>
        <_>
          <internalNodes>
            0 -1 153 -1.8913598614744842e-04</internalNodes>
          <leafValues>
            -8.9387398958206177e-01 3.0196228623390198e-01</leafValues></_></weakClassifiers></_>
    <!-- stage 4 -->
    <_>
      <maxWeakCount>6</maxWeakCount>
      <stageThreshold>-1.0252990722656250e+00</stageThreshold>
      <weakClassifiers>
        <_>
          <internalNodes>
            0 -1 2 5.7757301256060600e-03</internalNodes>
          <leafValues>
            -5.4419887065887451e-01 7.0289856195449829e-01</leafValues></_>
        <_>
          <internalNodes>
            0 -1 129 5.4781802464276552e-04</internalNodes>
          <leafValues>
            -3.6660149693489075e-01 7.4795502424240112e-01</leafValues></_>
        <_>
          <internalNodes>
            0 -1 66 3.0085162725299597e-03</internalNodes>
          <leafValues>
            -2.5349432229995728e-01 7.9417037963867188e-01</leafValues></_>
        <_>
          <internalNodes>
            0 -1 168 -5.8779194951057434e-03</internalNodes>
          <leafValues>
            7.8922176361083984e-01 -2.8411653637886047e-01</leafValues></_>
        <_>
          <internalNodes>
            0 -1 10 -1.3201663270592690e-02</internalNodes>
          <leafValues>
            7.2242921590805054e-01 -2.8823962807655334e-01</leafValues></_>
        <_>
          <internalNodes>
            0 -1 90 6.8315239623188972e-03</internalNodes>
          <leafValues>
            -2.6798519492149353e-01 7.1135181188583374e-01</leafValues></_></weakClassifiers></_>
    <!-- stage 5 -->
    <_>
      <maxWeakCount>8</maxWeakCount>
      <stageThreshold>-1.1709395647048950e+00</stageThreshold>
      <weakClassifiers>
        <_>
          <internalNodes>
            0 -1 19 6.9156922399997711e-02</internalNodes>
          <leafValues>
            -4.9410223960876465e-01 7.4683547019958496e-01</leafValues></_>
        <_>
          <internalNodes>
            0 -1 164 6.1571081168949604e-03</internalNodes>
          <leafValues>
            -3.1944611668586731e-01 7.3500144481658936e-01</leafValues></_>
        <_>
          <internalNodes>
            0 -1 58 -2.0984191447496414e-02</internalNodes>
          <leafValues>
            7.2365236282348633e-01 -3.3387830853462219e-01</leafValues></_>
        <_>
          <internalNodes>
            0 -1 86 7.2925561107695103e-04</internalNodes>
          <leafValues>
            -3.3970239758491516e-01 5.5642807483673096e-01</leafValues></_>
        <_>
          <internalNodes>
            0 -1 28 1.3634015340358019e-04</internalNodes>
          <leafValues>
            2.3543815314769745e-01 -8.8304156064987183e-01</leafValues></_>
        <_>
          <internalNodes>
            0 -1 46 -9.9586974829435349e-03</internalNodes>
          <leafValues>
            8.1874459981918335e-01 -2.9006600379943848e-01</leafValues></_>
        <_>
          <internalNodes>
            0 -1 49 2.3719379678368568e-03</internalNodes>
          <leafValues>
            -2.7600213885307312e-01 7.4157649278640747e-01</leafValues></_>
        <_>
          <internalNodes>
            0 -1 26 -6.0386140830814838e-03</internalNodes>
          <leafValues>
            7.6706534624099731e-01 -2.4931098520755768e-01</leafValues></_></weakClassifiers></_>
    <!-- stage 6 -->
    <_>
      <maxWeakCount>7</maxWeakCount>
      <stageThreshold>-9.4622355699539185e-01</stageThreshold>
      <weakClassifiers>
        <_>
          <internalNodes>
            0 -1 36 6.4560815691947937e-02</internalNodes>
          <leafValues>
            -5.6151419878005981e-01 4.2622950673103333e-01</leafValues></_>
        <_>
          <internalNodes>
            0 -1 166 7.3621850460767746e-03</internalNodes>
          <leafValues>
            -2.7912393212318420e-01 7.8923189640045166e-01</leafValues></_>
        <_>
          <internalNodes>
            0 -1 78 6.3643977046012878e-04</internalNodes>
          <leafValues>
            2.1781316399574280e-01 -9.2181122303009033e-01</leafValues></_>
        <_>
          <internalNodes>
            0 -1 78 -4.3568690307438374e-04</internalNodes>
          <leafValues>
            -7.3162341117858887e-01 3.0584332346916199e-01</leafValues></_>
        <_>
          <internalNodes>
            0 -1 151 1.4034739695489407e-02</internalNodes>
          <leafValues>
            -4.0181574225425720e-01 7.2322887182235718e-01</leafValues></_>
        <_>
          <internalNodes>
            0 -1 47 -2.4072867818176746e-03</internalNodes>
          <leafValues>
            6.3322335481643677e-01 -2.9033485054969788e-01</leafValues></_>
        <_>
          <internalNodes>
            0 -1 132 3.3633911516517401e-04</internalNodes>
          <leafValues>
            2.2022190690040588e-01 -8.6064952611923218e-01</leafValues></_></weakClassifiers></_>
    <!-- stage 7 -->
    <_>
      <maxWeakCount>7</maxWeakCount>
      <stageThreshold>-7.9224151372909546e-01</stageThreshold>
      <weakClassifiers>
        <_>
          <internalNodes>
            0 -1 0 1.7400957643985748e-02</internalNodes>
          <leafValues>
            -4.4278606772422791e-01 7.9591834545135498e-01</leafValues></_>
        <_>
          <internalNodes>
            0 -1 126 8.4495376795530319e-03</internalNodes>
          <leafValues>
            -2.8131863474845886e-01 7.4575430154800415e-01</leafValues></_>
        <_>
          <internalNodes>
            0 -1 136 6.5032504498958588e-03</internalNodes>
          <leafValues>
            -2.7141177654266357e-01 7.6011204719543457e-01</leafValues></_>
        <_>
          <internalNodes>
            0 -1 71 -4.7095911577343941e-03</internalNodes>
          <leafValues>
            6.5214717388153076e-01 -2.4215120077133179e-01</leafValues></_>
        <_>
          <internalNodes>
            0 -1 16 -6.5148591995239258e-02</internalNodes>
          <leafValues>
            -8.1671851873397827e-01 2.5735187530517578e-01</leafValues></_>
        <_>
          <internalNodes>
            0 -1 84 6.7509785294532776e-03</internalNodes>
          <leafValues>
            2.2646929323673248e-01 -7.7442216873168945e-01</leafValues></_>
        <_>
          <internalNodes>
            0 -1 29 3.0932771041989326e-02</internalNodes>
          <leafValues>
            1.4137700200080872e-01 -9.4823783636093140e-01</leafValues></_></weakClassifiers></_>
    <!-- stage 8 -->
    <_>
      <maxWeakCount>10</maxWeakCount>
      <stageThreshold>-1.0529609918594360e+00</stageThreshold>
      <weakClassifiers>
        <_>
          <internalNodes>
            0 -1 106 5.6942580267786980e-03</internalNodes>
          <leafValues>
            -4.6891191601753235e-01 7.1052628755569458e-01</leafValues></_>
        <_>
          <internalNodes>
            0 -1 100 -2.2854483686387539e-03</internalNodes>
          <leafValues>
            7.0187532901763916e-01 -2.7793100476264954e-01</leafValues></_>
        <_>
          <internalNodes>
            0 -1 109 -3.3070191275328398e-03</internalNodes>
          <leafValues>
            7.3367166519165039e-01 -3.0037799477577209e-01</leafValues></_>
        <_>
          <internalNodes>
            0 -1 1 1.4231257140636444e-02</internalNodes>
          <leafValues>
            -1.8532463908195496e-01 7.3480033874511719e-01</leafValues></_>
        <_>
          <internalNodes>
            0 -1 15 -8.0366842448711395e-03</internalNodes>
          <leafValues>
            7.9217636585235596e-01 -1.9821448624134064e-01</leafValues></_>
        <_>
          <internalNodes>
            0 -1 98 -1.1691536055877805e-03</internalNodes>
          <leafValues>
            -8.7097829580307007e-01 2.1280565857887268e-01</leafValues></_>
        <_>
          <internalNodes>
            0 -1 50 3.1167308334261179e-03</internalNodes>
          <leafValues>
            -2.3133130371570587e-01 7.8790038824081421e-01</leafValues></_>
        <_>
          <internalNodes>
            0 -1 55 1.5640389174222946e-03</internalNodes>
          <leafValues>
            -2.7816203236579895e-01 5.8069735765457153e-01</leafValues></_>
        <_>
          <internalNodes>
            0 -1 103 -1.6149602830410004e-02</internalNodes>
          <leafValues>
            -8.4075152873992920e-01 2.4922758340835571e-01</leafValues></_>
        <_>
          <internalNodes>
            0 -1 101 5.9818301815539598e-04</internalNodes>
          <leafValues>
            -3.3401191234588623e-01 5.5922359228134155e-01</leafValues></_></weakClassifiers></_>
    <!-- stage 9 -->
    <_>
      <maxWeakCount>7</maxWeakCount>
      <stageThreshold>-9.7776019573211670e-01</stageThreshold>
      <weakClassifiers>
        <_>
          <internalNodes>
            0 -1 75 1.2236830778419971e-02</internalNodes>
          <leafValues>
            -5.8122742176055908e-01 2.7354261279106140e-01</leafValues></_>
        <_>
          <internalNodes>
            0 -1 155 2.6365360245108604e-03</internalNodes>
          <leafValues>
            -4.7068467736244202e-01 3.6634722352027893e-01</leafValues></_>
        <_>
          <internalNodes>
            0 -1 120 6.6860055085271597e-04</internalNodes>
          <leafValues>
            -2.9199069738388062e-01 5.4833793640136719e-01</leafValues></_>
        <_>
          <internalNodes>
            0 -1 116 1.0872927960008383e-03</internalNodes>
          <leafValues>
            -3.0481508374214172e-01 5.7468110322952271e-01</leafValues></_>
        <_>
          <internalNodes>
            0 -1 158 -1.4259794261306524e-04</internalNodes>
          <leafValues>
            -8.6399781703948975e-01 2.2524364292621613e-01</leafValues></_>
        <_>
          <internalNodes>
            0 -1 114 -1.4792248839512467e-03</internalNodes>
          <leafValues>
            5.4559797048568726e-01 -3.7188589572906494e-01</leafValues></_>
        <_>
          <internalNodes>
            0 -1 12 9.8926876671612263e-04</internalNodes>
          <leafValues>
            1.9152598083019257e-01 -9.0222489833831787e-01</leafValues></_></weakClassifiers></_>
    <!-- stage 10 -->
    <_>
      <maxWeakCount>10</maxWeakCount>
      <stageThreshold>-1.2636734247207642e+00</stageThreshold>
      <weakClassifiers>
        <_>
          <internalNodes>
            0 -1 53 4.9591138958930969e-02</internalNodes>
          <leafValues>
            -4.4615384936332703e-01 6.7272728681564331e-01</leafValues></_>
        <_>
          <internalNodes>
            0 -1 111 9.7646173089742661e-03</internalNodes>
          <leafValues>
            -2.3682224750518799e-01 7.1817773580551147e-01</leafValues></_>
        <_>
          <internalNodes>
            0 -1 45 3.5764260683208704e-03</internalNodes>
          <leafValues>
            -2.0174098014831543e-01 6.9700413942337036e-01</leafValues></_>
        <_>
          <internalNodes>
            0 -1 146 -4.5583117753267288e-03</internalNodes>
          <leafValues>
            6.4955615997314453e-01 -2.4132962524890900e-01</leafValues></_>
        <_>
          <internalNodes>
            0 -1 131 -2.5484684738330543e-04</internalNodes>
          <leafValues>
            -8.8452792167663574e-01 2.1267093718051910e-01</leafValues></_>
        <_>
          <internalNodes>
            0 -1 149 3.9320667274296284e-03</internalNodes>
          <leafValues>
            -2.1973253786563873e-01 6.9125008583068848e-01</leafValues></_>
        <_>
          <internalNodes>
            0 -1 85 1.1365688405930996e-02</internalNodes>
          <leafValues>
            2.0915403962135315e-01 -7.1389693021774292e-01</leafValues></_>
        <_>
          <internalNodes>
            0 -1 23 7.2315130382776260e-03</internalNodes>
          <leafValues>
            -2.5357174873352051e-01 5.9029155969619751e-01</leafValues></_>
        <_>
          <internalNodes>
            0 -1 141 -3.7018549628555775e-03</internalNodes>
          <leafValues>
            -8.4588748216629028e-01 1.9876217842102051e-01</leafValues></_>
        <_>
          <internalNodes>
            0 -1 68 4.6576815657317638e-04</internalNodes>
          <leafValues>
            -2.8490957617759705e-01 5.4832619428634644e-01</leafValues></_></weakClassifiers></_>
    <!-- stage 11 -->
    <_>
      <maxWeakCount>10</maxWeakCount>
      <stageThreshold>-1.2170801162719727e+00</stageThreshold>
      <weakClassifiers>
        <_>
          <internalNodes>
            0 -1 165 -1.5871237963438034e-02</internalNodes>
          <leafValues>
            5.2156865596771240e-01 -4.4697988033294678e-01</leafValues></_>
        <_>
          <internalNodes>
            0 -1 93 -5.4085941519588232e-04</internalNodes>
          <leafValues>
            4.2300733923912048e-01 -4.8527231812477112e-01</leafValues></_>
        <_>
          <internalNodes>
            0 -1 102 6.7121684551239014e-03</internalNodes>
          <leafValues>
            -2.0525579154491425e-01 7.6868253946304321e-01</leafValues></_>
        <_>
          <internalNodes>
            0 -1 74 -6.2070041894912720e-04</internalNodes>
          <leafValues>
            -8.7418240308761597e-01 1.8536482751369476e-01</leafValues></_>
        <_>
          <internalNodes>
            0 -1 108 -4.6172859147191048e-03</internalNodes>
          <leafValues>
            5.6941580772399902e-01 -2.6452901959419250e-01</leafValues></_>
        <_>
          <internalNodes>
            0 -1 51 -8.7038353085517883e-02</internalNodes>
          <leafValues>
            -8.7828248739242554e-01 1.5343742072582245e-01</leafValues></_>
        <_>
          <internalNodes>
            0 -1 57 1.2824486941099167e-02</internalNodes>
          <leafValues>
            1.6441102325916290e-01 -8.2579153776168823e-01</leafValues></_>
        <_>
          <internalNodes>
            0 -1 77 2.3208349011838436e-03</internalNodes>
          <leafValues>
            -2.0356398820877075e-01 7.5291270017623901e-01</leafValues></_>
        <_>
          <internalNodes>
            0 -1 145 -1.8893141532316804e-04</internalNodes>
          <leafValues>
            -8.1199574470520020e-01 2.0053391158580780e-01</leafValues></_>
        <_>
          <internalNodes>
            0 -1 56 1.7561299027875066e-03</internalNodes>
          <leafValues>
            -3.1522628664970398e-01 5.1976048946380615e-01</leafValues></_></weakClassifiers></_>
    <!-- stage 12 -->
    <_>
      <maxWeakCount>11</maxWeakCount>
      <stageThreshold>-1.3332576751708984e+00</stageThreshold>
      <weakClassifiers>
        <_>
          <internalNodes>
            0 -1 154 8.3793755620718002e-03</internalNodes>
          <leafValues>
            -4.7517731785774231e-01 4.5762711763381958e-01</leafValues></_>
        <_>
          <internalNodes>
            0 -1 135 -4.3951570987701416e-03</internalNodes>
          <leafValues>
            5.2514743804931641e-01 -3.3725306391716003e-01</leafValues></_>
        <_>
          <internalNodes>
            0 -1 7 -5.5991299450397491e-02</internalNodes>
          <leafValues>
            6.3647222518920898e-01 -2.6968151330947876e-01</leafValues></_>
        <_>
          <internalNodes>
            0 -1 31 1.5252236276865005e-02</internalNodes>
          <leafValues>
            -1.6424682736396790e-01 7.7412843704223633e-01</leafValues></_>
        <_>
          <internalNodes>
            0 -1 43 7.9853488132357597e-03</internalNodes>
          <leafValues>
            -2.7091574668884277e-01 5.5627822875976562e-01</leafValues></_>
        <_>
          <internalNodes>
            0 -1 148 -3.1737395329400897e-04</internalNodes>
          <leafValues>
            -9.1423678398132324e-01 2.1104034781455994e-01</leafValues></_>
        <_>
          <internalNodes>
            0 -1 72 1.7818580381572247e-03</internalNodes>
          <leafValues>
            -2.2801469266414642e-01 6.0611170530319214e-01</leafValues></_>
        <_>
          <internalNodes>
            0 -1 61 8.7758582085371017e-03</internalNodes>
          <leafValues>
            -1.9813001155853271e-01 8.2353323698043823e-01</leafValues></_>
        <_>
          <internalNodes>
            0 -1 125 -1.0979477083310485e-03</internalNodes>
          <leafValues>
            -9.0019381046295166e-01 1.9454275071620941e-01</leafValues></_>
        <_>
          <internalNodes>
            0 -1 123 1.4793571317568421e-03</internalNodes>
          <leafValues>
            -2.5730246305465698e-01 6.7111569643020630e-01</leafValues></_>
        <_>
          <internalNodes>
            0 -1 94 3.8150709588080645e-04</internalNodes>
          <leafValues>
            -2.8617337346076965e-01 4.6188083291053772e-01</leafValues></_></weakClassifiers></_>
    <!-- stage 13 -->
    <_>
      <maxWeakCount>9</maxWeakCount>
      <stageThreshold>-1.1468001604080200e+00</stageThreshold>
      <weakClassifiers>
        <_>
          <internalNodes>
            0 -1 8 4.6483926475048065e-02</internalNodes>
          <leafValues>
            -5.1496064662933350e-01 3.4794521331787109e-01</leafValues></_>
        <_>
          <internalNodes>
            0 -1 162 4.5161275193095207e-03</internalNodes>
          <leafValues>
            -3.4932205080986023e-01 5.0864946842193604e-01</leafValues></_>
        <_>
          <internalNodes>
            0 -1 122 1.1553801596164703e-03</internalNodes>
          <leafValues>
            -2.4612842500209808e-01 6.2273097038269043e-01</leafValues></_>
        <_>
          <internalNodes>
            0 -1 110 2.0953987259417772e-03</internalNodes>
          <leafValues>
            -2.7207240462303162e-01 5.3635954856872559e-01</leafValues></_>
        <_>
          <internalNodes>
            0 -1 144 3.0655625741928816e-03</internalNodes>
          <leafValues>
            2.1494011580944061e-01 -8.4500759840011597e-01</leafValues></_>
        <_>
          <internalNodes>
            0 -1 82 1.6131179872900248e-03</internalNodes>
          <leafValues>
            -4.4424363970756531e-01 3.2004943490028381e-01</leafValues></_>
        <_>
          <internalNodes>
            0 -1 54 -7.6451129280030727e-03</internalNodes>
          <leafValues>
            5.3874725103378296e-01 -2.6601502299308777e-01</leafValues></_>
        <_>
          <internalNodes>
            0 -1 119 1.2020559515804052e-03</internalNodes>
          <leafValues>
            -2.5641173124313354e-01 5.4256534576416016e-01</leafValues></_>
        <_>
          <internalNodes>
            0 -1 92 4.0308050811290741e-03</internalNodes>
          <leafValues>
            2.5411754846572876e-01 -6.4573884010314941e-01</leafValues></_></weakClassifiers></_>
    <!-- stage 14 -->
    <_>
      <maxWeakCount>10</maxWeakCount>
      <stageThreshold>-1.4569807052612305e+00</stageThreshold>
      <weakClassifiers>
        <_>
          <internalNodes>
            0 -1 130 3.7165670655667782e-03</internalNodes>
          <leafValues>
            -5.0628930330276489e-01 3.3516484498977661e-01</leafValues></_>
        <_>
          <internalNodes>
            0 -1 139 -1.3462114147841930e-03</internalNodes>
          <leafValues>
            4.9918201565742493e-01 -2.9727482795715332e-01</leafValues></_>
        <_>
          <internalNodes>
            0 -1 37 4.0670292219147086e-04</internalNodes>
          <leafValues>
            -4.3372184038162231e-01 3.2983922958374023e-01</leafValues></_>
        <_>
          <internalNodes>
            0 -1 167 -1.4531061053276062e-02</internalNodes>
          <leafValues>
            6.2574756145477295e-01 -2.1199561655521393e-01</leafValues></_>
        <_>
          <internalNodes>
            0 -1 60 -1.6044412041082978e-04</internalNodes>
          <leafValues>
            -8.9803957939147949e-01 1.6230687499046326e-01</leafValues></_>
        <_>
          <internalNodes>
            0 -1 118 2.4159410968422890e-03</internalNodes>
          <leafValues>
            -2.2209095954895020e-01 7.0333212614059448e-01</leafValues></_>
        <_>
          <internalNodes>
            0 -1 133 -1.3827607035636902e-03</internalNodes>
          <leafValues>
            6.5847122669219971e-01 -2.0264889299869537e-01</leafValues></_>
        <_>
          <internalNodes>
            0 -1 172 -1.3700905255973339e-03</internalNodes>
          <leafValues>
            -7.8883039951324463e-01 2.1363908052444458e-01</leafValues></_>
        <_>
          <internalNodes>
            0 -1 107 1.2706324923783541e-03</internalNodes>
          <leafValues>
            -4.9513968825340271e-01 3.0696567893028259e-01</leafValues></_>
        <_>
          <internalNodes>
            0 -1 21 5.2621280774474144e-03</internalNodes>
          <leafValues>
            -2.6587083935737610e-01 5.8702164888381958e-01</leafValues></_></weakClassifiers></_>
    <!-- stage 15 -->
    <_>
      <maxWeakCount>11</maxWeakCount>
      <stageThreshold>-1.0256167650222778e+00</stageThreshold>
      <weakClassifiers>
        <_>
          <internalNodes>
            0 -1 152 3.7901178002357483e-03</internalNodes>
          <leafValues>
            -4.9230769276618958e-01 3.4285715222358704e-01</leafValues></_>
        <_>
          <internalNodes>
            0 -1 96 2.4416747037321329e-03</internalNodes>
          <leafValues>
            -4.0041807293891907e-01 4.2194113135337830e-01</leafValues></_>
        <_>
          <internalNodes>
            0 -1 104 2.9911268502473831e-03</internalNodes>
          <leafValues>
            -2.2545443475246429e-01 6.1247134208679199e-01</leafValues></_>
        <_>
          <internalNodes>
            0 -1 91 4.1336165741086006e-03</internalNodes>
          <leafValues>
            -3.9727160334587097e-01 3.5459807515144348e-01</leafValues></_>
        <_>
          <internalNodes>
            0 -1 64 -1.6742284642532468e-03</internalNodes>
          <leafValues>
            4.3052166700363159e-01 -3.0998647212982178e-01</leafValues></_>
        <_>
          <internalNodes>
            0 -1 143 -1.6157078789547086e-04</internalNodes>
          <leafValues>
            -9.0888446569442749e-01 1.9661140441894531e-01</leafValues></_>
        <_>
          <internalNodes>
            0 -1 105 -2.1193781867623329e-03</internalNodes>
          <leafValues>
            4.6695622801780701e-01 -3.1265884637832642e-01</leafValues></_>
        <_>
          <internalNodes>
            0 -1 3 -4.4033159501850605e-03</internalNodes>
          <leafValues>
            -7.8661811351776123e-01 1.7430132627487183e-01</leafValues></_>
        <_>
          <internalNodes>
            0 -1 4 4.0087589877657592e-04</internalNodes>
          <leafValues>
            1.7965832352638245e-01 -6.0262221097946167e-01</leafValues></_>
        <_>
          <internalNodes>
            0 -1 24 7.0950051303952932e-04</internalNodes>
          <leafValues>
            -2.6866546273231506e-01 5.1441562175750732e-01</leafValues></_>
        <_>
          <internalNodes>
            0 -1 20 -5.9435106813907623e-03</internalNodes>
          <leafValues>
            3.2114112377166748e-01 -4.1921737790107727e-01</leafValues></_></weakClassifiers></_>
    <!-- stage 16 -->
    <_>
      <maxWeakCount>8</maxWeakCount>
      <stageThreshold>-9.0781950950622559e-01</stageThreshold>
      <weakClassifiers>
        <_>
          <internalNodes>
            0 -1 147 1.9058058969676495e-03</internalNodes>
          <leafValues>
            -5.1640760898590088e-01 2.3515439033508301e-01</leafValues></_>
        <_>
          <internalNodes>
            0 -1 89 -4.9897844291990623e-05</internalNodes>
          <leafValues>
            2.8276517987251282e-01 -4.2362505197525024e-01</leafValues></_>
        <_>
          <internalNodes>
            0 -1 73 7.5542568229138851e-03</internalNodes>
          <leafValues>
            -4.2481386661529541e-01 3.2224801182746887e-01</leafValues></_>
        <_>
          <internalNodes>
            0 -1 5 1.0226671583950520e-02</internalNodes>
          <leafValues>
            -2.3610477149486542e-01 5.5777716636657715e-01</leafValues></_>
        <_>
          <internalNodes>
            0 -1 41 -1.4804224483668804e-03</internalNodes>
          <leafValues>
            -7.0851284265518188e-01 2.3710966110229492e-01</leafValues></_>
        <_>
          <internalNodes>
            0 -1 69 -4.3580052442848682e-03</internalNodes>
          <leafValues>
            8.8474905490875244e-01 -2.1090151369571686e-01</leafValues></_>
        <_>
          <internalNodes>
            0 -1 171 9.8469154909253120e-04</internalNodes>
          <leafValues>
            1.7830632627010345e-01 -8.4334903955459595e-01</leafValues></_>
        <_>
          <internalNodes>
            0 -1 160 -6.2431651167571545e-04</internalNodes>
          <leafValues>
            6.0766863822937012e-01 -2.1777290105819702e-01</leafValues></_></weakClassifiers></_>
    <!-- stage 17 -->
    <_>
      <maxWeakCount>10</maxWeakCount>
      <stageThreshold>-1.1466891765594482e+00</stageThreshold>
      <weakClassifiers>
        <_>
          <internalNodes>
            0 -1 38 -6.6643892787396908e-03</internalNodes>
          <leafValues>
            4.2657342553138733e-01 -4.5098039507865906e-01</leafValues></_>
        <_>
          <internalNodes>
            0 -1 142 1.1446118587628007e-03</internalNodes>
          <leafValues>
            -3.6741545796394348e-01 3.0164453387260437e-01</leafValues></_>
        <_>
          <internalNodes>
            0 -1 159 -2.7784276753664017e-03</internalNodes>
          <leafValues>
            5.2481234073638916e-01 -2.3521396517753601e-01</leafValues></_>
        <_>
          <internalNodes>
            0 -1 124 -3.7677707150578499e-03</internalNodes>
          <leafValues>
            5.9582042694091797e-01 -2.6453337073326111e-01</leafValues></_>
        <_>
          <internalNodes>
            0 -1 9 -2.8655675123445690e-04</internalNodes>
          <leafValues>
            -8.5048031806945801e-01 1.8944370746612549e-01</leafValues></_>
        <_>
          <internalNodes>
            0 -1 30 1.9626745488494635e-03</internalNodes>
          <leafValues>
            -3.2565009593963623e-01 4.2090791463851929e-01</leafValues></_>
        <_>
          <internalNodes>
            0 -1 121 2.2213060874491930e-03</internalNodes>
          <leafValues>
            -2.3810791969299316e-01 5.0961089134216309e-01</leafValues></_>
        <_>
          <internalNodes>
            0 -1 80 9.2411390505731106e-04</internalNodes>
          <leafValues>
            1.6112400591373444e-01 -8.0538403987884521e-01</leafValues></_>
        <_>
          <internalNodes>
            0 -1 99 -1.0335959494113922e-02</internalNodes>
          <leafValues>
            -7.9190003871917725e-01 1.3696110248565674e-01</leafValues></_>
        <_>
          <internalNodes>
            0 -1 117 2.0143161527812481e-03</internalNodes>
          <leafValues>
            -2.9279351234436035e-01 4.2882549762725830e-01</leafValues></_></weakClassifiers></_>
    <!-- stage 18 -->
    <_>
      <maxWeakCount>11</maxWeakCount>
      <stageThreshold>-1.3127747774124146e+00</stageThreshold>
      <weakClassifiers>
        <_>
          <internalNodes>
            0 -1 134 1.0357667692005634e-02</internalNodes>
          <leafValues>
            -3.5866984724998474e-01 6.4556962251663208e-01</leafValues></_>
        <_>
          <internalNodes>
            0 -1 81 2.5288958568125963e-04</internalNodes>
          <leafValues>
            -3.0033448338508606e-01 4.1236895322799683e-01</leafValues></_>
        <_>
          <internalNodes>
            0 -1 34 7.6294555328786373e-03</internalNodes>
          <leafValues>
            1.3769941031932831e-01 -8.2687842845916748e-01</leafValues></_>
        <_>
          <internalNodes>
            0 -1 70 -4.2247651144862175e-03</internalNodes>
          <leafValues>
            3.9121532440185547e-01 -3.2019019126892090e-01</leafValues></_>
        <_>
          <internalNodes>
            0 -1 169 -1.9206721335649490e-03</internalNodes>
          <leafValues>
            3.6198535561561584e-01 -3.6539742350578308e-01</leafValues></_>
        <_>
          <internalNodes>
            0 -1 52 6.8744621239602566e-04</internalNodes>
          <leafValues>
            -2.8355610370635986e-01 4.4760107994079590e-01</leafValues></_>
        <_>
          <internalNodes>
            0 -1 6 3.0374705791473389e-02</internalNodes>
          <leafValues>
            -1.8929722905158997e-01 6.4646315574645996e-01</leafValues></_>
        <_>
          <internalNodes>
            0 -1 170 3.7879394949413836e-04</internalNodes>
          <leafValues>
            1.9558480381965637e-01 -6.9840228557586670e-01</leafValues></_>
        <_>
          <internalNodes>
            0 -1 138 1.0937742190435529e-03</internalNodes>
          <leafValues>
            -3.2342049479484558e-01 3.6903533339500427e-01</leafValues></_>
        <_>
          <internalNodes>
            0 -1 157 3.0446104938164353e-04</internalNodes>
          <leafValues>
            1.4251449704170227e-01 -9.5625239610671997e-01</leafValues></_>
        <_>
          <internalNodes>
            0 -1 127 1.2869674246758223e-03</internalNodes>
          <leafValues>
            -2.8193688392639160e-01 5.1984286308288574e-01</leafValues></_></weakClassifiers></_>
    <!-- stage 19 -->
    <_>
      <maxWeakCount>12</maxWeakCount>
      <stageThreshold>-1.1807055473327637e+00</stageThreshold>
      <weakClassifiers>
        <_>
          <internalNodes>
            0 -1 128 -7.3833605274558067e-03</internalNodes>
          <leafValues>
            6.2913906574249268e-01 -3.4746760129928589e-01</leafValues></_>
        <_>
          <internalNodes>
            0 -1 95 -1.4454352203756571e-03</internalNodes>
          <leafValues>
            4.5685023069381714e-01 -2.7611225843429565e-01</leafValues></_>
        <_>
          <internalNodes>
            0 -1 39 -2.4453999474644661e-02</internalNodes>
          <leafValues>
            -7.3971563577651978e-01 1.4137496054172516e-01</leafValues></_>
        <_>
          <internalNodes>
            0 -1 161 3.0944561585783958e-03</internalNodes>
          <leafValues>
            -1.2098690867424011e-01 7.4446493387222290e-01</leafValues></_>
        <_>
          <internalNodes>
            0 -1 76 -6.8606883287429810e-02</internalNodes>
          <leafValues>
            -7.6595342159271240e-01 1.5035462379455566e-01</leafValues></_>
        <_>
          <internalNodes>
            0 -1 17 1.0305449366569519e-01</internalNodes>
          <leafValues>
            1.3931235671043396e-01 -7.0517879724502563e-01</leafValues></_>
        <_>
          <internalNodes>
            0 -1 156 3.4782709553837776e-04</internalNodes>
          <leafValues>
            -3.3897256851196289e-01 3.3093318343162537e-01</leafValues></_>
        <_>
          <internalNodes>
            0 -1 112 7.7380225993692875e-03</internalNodes>
          <leafValues>
            1.4381046593189240e-01 -8.3785766363143921e-01</leafValues></_>
        <_>
          <internalNodes>
            0 -1 32 -2.7542347088456154e-03</internalNodes>
          <leafValues>
            4.0714469552040100e-01 -2.6502713561058044e-01</leafValues></_>
        <_>
          <internalNodes>
            0 -1 13 2.4983235634863377e-03</internalNodes>
          <leafValues>
            -2.4847896397113800e-01 4.2482778429985046e-01</leafValues></_>
        <_>
          <internalNodes>
            0 -1 42 3.2203309820033610e-04</internalNodes>
          <leafValues>
            1.1730994284152985e-01 -9.6874904632568359e-01</leafValues></_>
        <_>
          <internalNodes>
            0 -1 59 2.8109215199947357e-03</internalNodes>
          <leafValues>
            -2.7582240104675293e-01 4.8336133360862732e-01</leafValues></_></weakClassifiers></_></stages>
  <features>
    <_>
      <rects>
        <_>
          0 5 4 17 -1.</_>
        <_>
          2 5 2 17 2.</_></rects>
      <tilted>0</tilted></_>
    <_>
      <rects>
        <_>
          0 7 6 14 -1.</_>
        <_>
          3 7 3 14 2.</_></rects>
      <tilted>0</tilted></_>
    <_>
      <rects>
        <_>
          0 8 8 8 -1.</_>
        <_>
          2 8 4 8 2.</_></rects>
      <tilted>0</tilted></_>
    <_>
      <rects>
        <_>
          0 9 3 12 -1.</_>
        <_>
          0 12 3 6 2.</_></rects>
      <tilted>0</tilted></_>
    <_>
      <rects>
        <_>
          0 10 1 8 -1.</_>
        <_>
          0 12 1 4 2.</_></rects>
      <tilted>0</tilted></_>
    <_>
      <rects>
        <_>
          0 14 6 10 -1.</_>
        <_>
          3 14 3 10 2.</_></rects>
      <tilted>0</tilted></_>
    <_>
      <rects>
        <_>
          0 14 12 8 -1.</_>
        <_>
          6 14 6 8 2.</_></rects>
      <tilted>0</tilted></_>
    <_>
      <rects>
        <_>
          0 20 57 4 -1.</_>
        <_>
          0 22 57 2 2.</_></rects>
      <tilted>0</tilted></_>
    <_>
      <rects>
        <_>
          1 0 54 6 -1.</_>
        <_>
          1 3 54 3 2.</_></rects>
      <tilted>0</tilted></_>
    <_>
      <rects>
        <_>
          1 9 1 4 -1.</_>
        <_>
          1 10 1 2 2.</_></rects>
      <tilted>0</tilted></_>
    <_>
      <rects>
        <_>
          1 13 9 8 -1.</_>
        <_>
          4 13 3 8 3.</_></rects>
      <tilted>0</tilted></_>
    <_>
      <rects>
        <_>
          3 0 8 1 -1.</_>
        <_>
          5 0 4 1 2.</_></rects>
      <tilted>0</tilted></_>
    <_>
      <rects>
        <_>
          3 0 9 1 -1.</_>
        <_>
          6 0 3 1 3.</_></rects>
      <tilted>0</tilted></_>
    <_>
      <rects>
        <_>
          3 3 16 4 -1.</_>
        <_>
          3 3 8 2 2.</_>
        <_>
          11 5 8 2 2.</_></rects>
      <tilted>0</tilted></_>
    <_>
      <rects>
        <_>
          3 5 8 16 -1.</_>
        <_>
          5 5 4 16 2.</_></rects>
      <tilted>0</tilted></_>
    <_>
      <rects>
        <_>
          3 10 6 5 -1.</_>
        <_>
          5 10 2 5 3.</_></rects>
      <tilted>0</tilted></_>
    <_>
      <rects>
        <_>
          4 1 51 21 -1.</_>
        <_>
          21 1 17 21 3.</_></rects>
      <tilted>0</tilted></_>
    <_>
      <rects>
        <_>
          4 8 51 9 -1.</_>
        <_>
          21 11 17 3 9.</_></rects>
      <tilted>0</tilted></_>
    <_>
      <rects>
        <_>
          4 18 56 6 -1.</_>
        <_>
          4 21 56 3 2.</_></rects>
      <tilted>0</tilted></_>
    <_>
      <rects>
        <_>
          5 0 55 6 -1.</_>
        <_>
          5 3 55 3 2.</_></rects>
      <tilted>0</tilted></_>
    <_>
      <rects>
        <_>
          5 21 55 2 -1.</_>
        <_>
          5 22 55 1 2.</_></rects>
      <tilted>0</tilted></_>
    <_>
      <rects>
        <_>
          6 0 4 18 -1.</_>
        <_>
          6 0 2 9 2.</_>
        <_>
          8 9 2 9 2.</_></rects>
      <tilted>0</tilted></_>
    <_>
      <rects>
        <_>
          6 0 15 4 -1.</_>
        <_>
          11 0 5 4 3.</_></rects>
      <tilted>0</tilted></_>
    <_>
      <rects>
        <_>
          6 12 4 7 -1.</_>
        <_>
          8 12 2 7 2.</_></rects>
      <tilted>0</tilted></_>
    <_>
      <rects>
        <_>
          6 15 3 3 -1.</_>
        <_>
          7 15 1 3 3.</_></rects>
      <tilted>0</tilted></_>
    <_>
      <rects>
        <_>
          6 15 4 6 -1.</_>
        <_>
          8 15 2 6 2.</_></rects>
      <tilted>0</tilted></_>
    <_>
      <rects>
        <_>
          6 21 20 2 -1.</_>
        <_>
          6 22 20 1 2.</_></rects>
      <tilted>0</tilted></_>
    <_>
      <rects>
        <_>
          7 0 6 2 -1.</_>
        <_>
          9 0 2 2 3.</_></rects>
      <tilted>0</tilted></_>
    <_>
      <rects>
        <_>
          8 0 4 1 -1.</_>
        <_>
          9 0 2 1 2.</_></rects>
      <tilted>0</tilted></_>
    <_>
      <rects>
        <_>
          8 0 32 11 -1.</_>
        <_>
          16 0 16 11 2.</_></rects>
      <tilted>0</tilted></_>
    <_>
      <rects>
        <_>
          8 9 5 6 -1.</_>
        <_>
          8 12 5 3 2.</_></rects>
      <tilted>0</tilted></_>
    <_>
      <rects>
        <_>
          8 10 6 7 -1.</_>
        <_>
          10 10 2 7 3.</_></rects>
      <tilted>0</tilted></_>
    <_>
      <rects>
        <_>
          8 17 15 3 -1.</_>
        <_>
          8 18 15 1 3.</_></rects>
      <tilted>0</tilted></_>
    <_>
      <rects>
        <_>
          8 20 52 4 -1.</_>
        <_>
          8 22 52 2 2.</_></rects>
      <tilted>0</tilted></_>
    <_>
      <rects>
        <_>
          9 0 24 6 -1.</_>
        <_>
          17 0 8 6 3.</_></rects>
      <tilted>0</tilted></_>
    <_>
      <rects>
        <_>
          9 0 11 10 -1.</_>
        <_>
          9 5 11 5 2.</_></rects>
      <tilted>0</tilted></_>
    <_>
      <rects>
        <_>
          9 0 50 8 -1.</_>
        <_>
          9 4 50 4 2.</_></rects>
      <tilted>0</tilted></_>
    <_>
      <rects>
        <_>
          9 10 5 10 -1.</_>
        <_>
          9 15 5 5 2.</_></rects>
      <tilted>0</tilted></_>
    <_>
      <rects>
        <_>
          9 11 9 3 -1.</_>
        <_>
          12 11 3 3 3.</_></rects>
      <tilted>0</tilted></_>
    <_>
      <rects>
        <_>
          9 11 29 9 -1.</_>
        <_>
          9 14 29 3 3.</_></rects>
      <tilted>0</tilted></_>
    <_>
      <rects>
        <_>
          9 18 8 6 -1.</_>
        <_>
          9 20 8 2 3.</_></rects>
      <tilted>0</tilted></_>
    <_>
      <rects>
        <_>
          9 22 9 2 -1.</_>
        <_>
          12 22 3 2 3.</_></rects>
      <tilted>0</tilted></_>
    <_>
      <rects>
        <_>
          10 0 4 2 -1.</_>
        <_>
          11 0 2 2 2.</_></rects>
      <tilted>0</tilted></_>
    <_>
      <rects>
        <_>
          10 6 6 6 -1.</_>
        <_>
          12 8 2 2 9.</_></rects>
      <tilted>0</tilted></_>
    <_>
      <rects>
        <_>
          10 8 8 11 -1.</_>
        <_>
          12 8 4 11 2.</_></rects>
      <tilted>0</tilted></_>
    <_>
      <rects>
        <_>
          10 9 4 6 -1.</_>
        <_>
          11 9 2 6 2.</_></rects>
      <tilted>0</tilted></_>
    <_>
      <rects>
        <_>
          10 11 6 8 -1.</_>
        <_>
          12 11 2 8 3.</_></rects>
      <tilted>0</tilted></_>
    <_>
      <rects>
        <_>
          10 14 4 6 -1.</_>
        <_>
          12 14 2 6 2.</_></rects>
      <tilted>0</tilted></_>
    <_>
      <rects>
        <_>
          11 1 17 8 -1.</_>
        <_>
          11 5 17 4 2.</_></rects>
      <tilted>0</tilted></_>
    <_>
      <rects>
        <_>
          11 9 4 8 -1.</_>
        <_>
          12 9 2 8 2.</_></rects>
      <tilted>0</tilted></_>
    <_>
      <rects>
        <_>
          11 13 3 6 -1.</_>
        <_>
          12 13 1 6 3.</_></rects>
      <tilted>0</tilted></_>
    <_>
      <rects>
        <_>
          12 8 42 12 -1.</_>
        <_>
          26 12 14 4 9.</_></rects>
      <tilted>0</tilted></_>
    <_>
      <rects>
        <_>
          12 18 9 2 -1.</_>
        <_>
          12 19 9 1 2.</_></rects>
      <tilted>0</tilted></_>
    <_>
      <rects>
        <_>
          12 18 48 6 -1.</_>
        <_>
          12 20 48 2 3.</_></rects>
      <tilted>0</tilted></_>
    <_>
      <rects>
        <_>
          12 20 40 2 -1.</_>
        <_>
          12 21 40 1 2.</_></rects>
      <tilted>0</tilted></_>
    <_>
      <rects>
        <_>
          13 9 3 10 -1.</_>
        <_>
          14 9 1 10 3.</_></rects>
      <tilted>0</tilted></_>
    <_>
      <rects>
        <_>
          14 11 3 6 -1.</_>
        <_>
          15 11 1 6 3.</_></rects>
      <tilted>0</tilted></_>
    <_>
      <rects>
        <_>
          15 0 24 9 -1.</_>
        <_>
          21 0 12 9 2.</_></rects>
      <tilted>0</tilted></_>
    <_>
      <rects>
        <_>
          15 1 40 6 -1.</_>
        <_>
          15 3 40 2 3.</_></rects>
      <tilted>0</tilted></_>
    <_>
      <rects>
        <_>
          15 9 3 9 -1.</_>
        <_>
          16 9 1 9 3.</_></rects>
      <tilted>0</tilted></_>
    <_>
      <rects>
        <_>
          16 0 3 1 -1.</_>
        <_>
          17 0 1 1 3.</_></rects>
      <tilted>0</tilted></_>
    <_>
      <rects>
        <_>
          16 8 4 11 -1.</_>
        <_>
          17 8 2 11 2.</_></rects>
      <tilted>0</tilted></_>
    <_>
      <rects>
        <_>
          16 9 4 8 -1.</_>
        <_>
          17 9 2 8 2.</_></rects>
      <tilted>0</tilted></_>
    <_>
      <rects>
        <_>
          16 13 4 3 -1.</_>
        <_>
          17 13 2 3 2.</_></rects>
      <tilted>0</tilted></_>
    <_>
      <rects>
        <_>
          17 1 4 14 -1.</_>
        <_>
          17 1 2 7 2.</_>
        <_>
          19 8 2 7 2.</_></rects>
      <tilted>0</tilted></_>
    <_>
      <rects>
        <_>
          17 2 14 16 -1.</_>
        <_>
          17 2 7 8 2.</_>
        <_>
          24 10 7 8 2.</_></rects>
      <tilted>0</tilted></_>
    <_>
      <rects>
        <_>
          17 9 3 9 -1.</_>
        <_>
          18 9 1 9 3.</_></rects>
      <tilted>0</tilted></_>
    <_>
      <rects>
        <_>
          17 13 4 5 -1.</_>
        <_>
          18 13 2 5 2.</_></rects>
      <tilted>0</tilted></_>
    <_>
      <rects>
        <_>
          17 15 3 1 -1.</_>
        <_>
          18 15 1 1 3.</_></rects>
      <tilted>0</tilted></_>
    <_>
      <rects>
        <_>
          17 16 4 3 -1.</_>
        <_>
          18 16 2 3 2.</_></rects>
      <tilted>0</tilted></_>
    <_>
      <rects>
        <_>
          18 3 36 6 -1.</_>
        <_>
          30 3 12 6 3.</_></rects>
      <tilted>0</tilted></_>
    <_>
      <rects>
        <_>
          18 10 6 4 -1.</_>
        <_>
          20 10 2 4 3.</_></rects>
      <tilted>0</tilted></_>
    <_>
      <rects>
        <_>
          18 13 3 3 -1.</_>
        <_>
          19 13 1 3 3.</_></rects>
      <tilted>0</tilted></_>
    <_>
      <rects>
        <_>
          18 15 21 4 -1.</_>
        <_>
          25 15 7 4 3.</_></rects>
      <tilted>0</tilted></_>
    <_>
      <rects>
        <_>
          18 23 6 1 -1.</_>
        <_>
          20 23 2 1 3.</_></rects>
      <tilted>0</tilted></_>
    <_>
      <rects>
        <_>
          19 5 16 13 -1.</_>
        <_>
          23 5 8 13 2.</_></rects>
      <tilted>0</tilted></_>
    <_>
      <rects>
        <_>
          20 4 21 15 -1.</_>
        <_>
          27 9 7 5 9.</_></rects>
      <tilted>0</tilted></_>
    <_>
      <rects>
        <_>
          20 15 4 3 -1.</_>
        <_>
          21 15 2 3 2.</_></rects>
      <tilted>0</tilted></_>
    <_>
      <rects>
        <_>
          22 1 6 2 -1.</_>
        <_>
          24 1 2 2 3.</_></rects>
      <tilted>0</tilted></_>
    <_>
      <rects>
        <_>
          22 6 4 11 -1.</_>
        <_>
          24 6 2 11 2.</_></rects>
      <tilted>0</tilted></_>
    <_>
      <rects>
        <_>
          22 22 8 2 -1.</_>
        <_>
          24 22 4 2 2.</_></rects>
      <tilted>0</tilted></_>
    <_>
      <rects>
        <_>
          23 9 4 2 -1.</_>
        <_>
          23 9 2 1 2.</_>
        <_>
          25 10 2 1 2.</_></rects>
      <tilted>0</tilted></_>
    <_>
      <rects>
        <_>
          23 10 6 3 -1.</_>
        <_>
          25 11 2 1 9.</_></rects>
      <tilted>0</tilted></_>
    <_>
      <rects>
        <_>
          23 12 9 12 -1.</_>
        <_>
          26 16 3 4 9.</_></rects>
      <tilted>0</tilted></_>
    <_>
      <rects>
        <_>
          24 2 28 9 -1.</_>
        <_>
          31 2 14 9 2.</_></rects>
      <tilted>0</tilted></_>
    <_>
      <rects>
        <_>
          24 2 18 21 -1.</_>
        <_>
          33 2 9 21 2.</_></rects>
      <tilted>0</tilted></_>
    <_>
      <rects>
        <_>
          24 9 3 5 -1.</_>
        <_>
          25 9 1 5 3.</_></rects>
      <tilted>0</tilted></_>
    <_>
      <rects>
        <_>
          24 20 35 4 -1.</_>
        <_>
          24 22 35 2 2.</_></rects>
      <tilted>0</tilted></_>
    <_>
      <rects>
        <_>
          25 8 4 10 -1.</_>
        <_>
          26 8 2 10 2.</_></rects>
      <tilted>0</tilted></_>
    <_>
      <rects>
        <_>
          25 12 2 3 -1.</_>
        <_>
          26 12 1 3 2.</_></rects>
      <tilted>0</tilted></_>
    <_>
      <rects>
        <_>
          25 16 22 6 -1.</_>
        <_>
          25 16 11 3 2.</_>
        <_>
          36 19 11 3 2.</_></rects>
      <tilted>0</tilted></_>
    <_>
      <rects>
        <_>
          26 1 7 6 -1.</_>
        <_>
          26 4 7 3 2.</_></rects>
      <tilted>0</tilted></_>
    <_>
      <rects>
        <_>
          26 3 15 8 -1.</_>
        <_>
          31 3 5 8 3.</_></rects>
      <tilted>0</tilted></_>
    <_>
      <rects>
        <_>
          26 9 3 7 -1.</_>
        <_>
          27 9 1 7 3.</_></rects>
      <tilted>0</tilted></_>
    <_>
      <rects>
        <_>
          26 11 6 2 -1.</_>
        <_>
          26 11 3 1 2.</_>
        <_>
          29 12 3 1 2.</_></rects>
      <tilted>0</tilted></_>
    <_>
      <rects>
        <_>
          27 8 6 4 -1.</_>
        <_>
          27 8 3 2 2.</_>
        <_>
          30 10 3 2 2.</_></rects>
      <tilted>0</tilted></_>
    <_>
      <rects>
        <_>
          27 17 8 6 -1.</_>
        <_>
          27 17 4 3 2.</_>
        <_>
          31 20 4 3 2.</_></rects>
      <tilted>0</tilted></_>
    <_>
      <rects>
        <_>
          29 11 9 9 -1.</_>
        <_>
          32 11 3 9 3.</_></rects>
      <tilted>0</tilted></_>
    <_>
      <rects>
        <_>
          30 1 9 3 -1.</_>
        <_>
          33 1 3 3 3.</_></rects>
      <tilted>0</tilted></_>
    <_>
      <rects>
        <_>
          30 17 15 7 -1.</_>
        <_>
          35 17 5 7 3.</_></rects>
      <tilted>0</tilted></_>
    <_>
      <rects>
        <_>
          31 5 9 3 -1.</_>
        <_>
          31 6 9 1 3.</_></rects>
      <tilted>0</tilted></_>
    <_>
      <rects>
        <_>
          31 12 3 4 -1.</_>
        <_>
          32 12 1 4 3.</_></rects>
      <tilted>0</tilted></_>
    <_>
      <rects>
        <_>
          31 19 17 2 -1.</_>
        <_>
          31 20 17 1 2.</_></rects>
      <tilted>0</tilted></_>
    <_>
      <rects>
        <_>
          32 0 21 10 -1.</_>
        <_>
          39 0 7 10 3.</_></rects>
      <tilted>0</tilted></_>
    <_>
      <rects>
        <_>
          32 6 2 6 -1.</_>
        <_>
          32 8 2 2 3.</_></rects>
      <tilted>0</tilted></_>
    <_>
      <rects>
        <_>
          33 3 9 4 -1.</_>
        <_>
          33 4 9 2 2.</_></rects>
      <tilted>0</tilted></_>
    <_>
      <rects>
        <_>
          33 11 4 7 -1.</_>
        <_>
          35 11 2 7 2.</_></rects>
      <tilted>0</tilted></_>
    <_>
      <rects>
        <_>
          34 0 8 17 -1.</_>
        <_>
          36 0 4 17 2.</_></rects>
      <tilted>0</tilted></_>
    <_>
      <rects>
        <_>
          34 0 24 4 -1.</_>
        <_>
          34 1 24 2 2.</_></rects>
      <tilted>0</tilted></_>
    <_>
      <rects>
        <_>
          34 10 4 7 -1.</_>
        <_>
          35 10 2 7 2.</_></rects>
      <tilted>0</tilted></_>
    <_>
      <rects>
        <_>
          34 11 3 6 -1.</_>
        <_>
          35 11 1 6 3.</_></rects>
      <tilted>0</tilted></_>
    <_>
      <rects>
        <_>
          34 16 6 6 -1.</_>
        <_>
          34 18 6 2 3.</_></rects>
      <tilted>0</tilted></_>
    <_>
      <rects>
        <_>
          34 17 12 6 -1.</_>
        <_>
          38 17 4 6 3.</_></rects>
      <tilted>0</tilted></_>
    <_>
      <rects>
        <_>
          35 9 3 7 -1.</_>
        <_>
          36 9 1 7 3.</_></rects>
      <tilted>0</tilted></_>
    <_>
      <rects>
        <_>
          36 9 4 3 -1.</_>
        <_>
          38 9 2 3 2.</_></rects>
      <tilted>0</tilted></_>
    <_>
      <rects>
        <_>
          36 9 8 7 -1.</_>
        <_>
          38 9 4 7 2.</_></rects>
      <tilted>0</tilted></_>
    <_>
      <rects>
        <_>
          36 11 4 3 -1.</_>
        <_>
          37 11 2 3 2.</_></rects>
      <tilted>0</tilted></_>
    <_>
      <rects>
        <_>
          38 2 6 8 -1.</_>
        <_>
          38 2 3 4 2.</_>
        <_>
          41 6 3 4 2.</_></rects>
      <tilted>0</tilted></_>
    <_>
      <rects>
        <_>
          38 3 4 10 -1.</_>
        <_>
          38 3 2 5 2.</_>
        <_>
          40 8 2 5 2.</_></rects>
      <tilted>0</tilted></_>
    <_>
      <rects>
        <_>
          38 8 3 6 -1.</_>
        <_>
          39 8 1 6 3.</_></rects>
      <tilted>0</tilted></_>
    <_>
      <rects>
        <_>
          38 9 3 4 -1.</_>
        <_>
          39 9 1 4 3.</_></rects>
      <tilted>0</tilted></_>
    <_>
      <rects>
        <_>
          39 15 3 3 -1.</_>
        <_>
          40 16 1 1 9.</_></rects>
      <tilted>0</tilted></_>
    <_>
      <rects>
        <_>
          39 15 3 3 -1.</_>
        <_>
          40 15 1 3 3.</_></rects>
      <tilted>0</tilted></_>
    <_>
      <rects>
        <_>
          39 17 2 4 -1.</_>
        <_>
          39 18 2 2 2.</_></rects>
      <tilted>0</tilted></_>
    <_>
      <rects>
        <_>
          39 19 17 2 -1.</_>
        <_>
          39 20 17 1 2.</_></rects>
      <tilted>0</tilted></_>
    <_>
      <rects>
        <_>
          39 23 9 1 -1.</_>
        <_>
          42 23 3 1 3.</_></rects>
      <tilted>0</tilted></_>
    <_>
      <rects>
        <_>
          40 7 6 9 -1.</_>
        <_>
          42 7 2 9 3.</_></rects>
      <tilted>0</tilted></_>
    <_>
      <rects>
        <_>
          40 12 3 4 -1.</_>
        <_>
          41 12 1 4 3.</_></rects>
      <tilted>0</tilted></_>
    <_>
      <rects>
        <_>
          40 12 4 6 -1.</_>
        <_>
          41 12 2 6 2.</_></rects>
      <tilted>0</tilted></_>
    <_>
      <rects>
        <_>
          40 12 4 1 -1.</_>
        <_>
          42 12 2 1 2.</_></rects>
      <tilted>0</tilted></_>
    <_>
      <rects>
        <_>
          40 18 6 3 -1.</_>
        <_>
          42 19 2 1 9.</_></rects>
      <tilted>0</tilted></_>
    <_>
      <rects>
        <_>
          41 0 4 2 -1.</_>
        <_>
          42 0 2 2 2.</_></rects>
      <tilted>0</tilted></_>
    <_>
      <rects>
        <_>
          41 0 4 3 -1.</_>
        <_>
          42 0 2 3 2.</_></rects>
      <tilted>0</tilted></_>
    <_>
      <rects>
        <_>
          42 2 2 10 -1.</_>
        <_>
          42 2 1 5 2.</_>
        <_>
          43 7 1 5 2.</_></rects>
      <tilted>0</tilted></_>
    <_>
      <rects>
        <_>
          42 7 4 12 -1.</_>
        <_>
          43 7 2 12 2.</_></rects>
      <tilted>0</tilted></_>
    <_>
      <rects>
        <_>
          42 8 8 5 -1.</_>
        <_>
          44 8 4 5 2.</_></rects>
      <tilted>0</tilted></_>
    <_>
      <rects>
        <_>
          42 11 6 5 -1.</_>
        <_>
          44 11 2 5 3.</_></rects>
      <tilted>0</tilted></_>
    <_>
      <rects>
        <_>
          42 13 6 1 -1.</_>
        <_>
          44 13 2 1 3.</_></rects>
      <tilted>0</tilted></_>
    <_>
      <rects>
        <_>
          42 18 6 6 -1.</_>
        <_>
          42 18 3 3 2.</_>
        <_>
          45 21 3 3 2.</_></rects>
      <tilted>0</tilted></_>
    <_>
      <rects>
        <_>
          43 2 4 8 -1.</_>
        <_>
          43 2 2 4 2.</_>
        <_>
          45 6 2 4 2.</_></rects>
      <tilted>0</tilted></_>
    <_>
      <rects>
        <_>
          44 0 15 6 -1.</_>
        <_>
          44 3 15 3 2.</_></rects>
      <tilted>0</tilted></_>
    <_>
      <rects>
        <_>
          44 20 12 4 -1.</_>
        <_>
          48 20 4 4 3.</_></rects>
      <tilted>0</tilted></_>
    <_>
      <rects>
        <_>
          45 0 15 9 -1.</_>
        <_>
          50 0 5 9 3.</_></rects>
      <tilted>0</tilted></_>
    <_>
      <rects>
        <_>
          45 1 3 1 -1.</_>
        <_>
          46 1 1 1 3.</_></rects>
      <tilted>0</tilted></_>
    <_>
      <rects>
        <_>
          45 21 9 3 -1.</_>
        <_>
          48 21 3 3 3.</_></rects>
      <tilted>0</tilted></_>
    <_>
      <rects>
        <_>
          46 0 3 2 -1.</_>
        <_>
          47 0 1 2 3.</_></rects>
      <tilted>0</tilted></_>
    <_>
      <rects>
        <_>
          46 8 4 8 -1.</_>
        <_>
          47 8 2 8 2.</_></rects>
      <tilted>0</tilted></_>
    <_>
      <rects>
        <_>
          46 17 8 4 -1.</_>
        <_>
          48 17 4 4 2.</_></rects>
      <tilted>0</tilted></_>
    <_>
      <rects>
        <_>
          47 0 3 4 -1.</_>
        <_>
          48 0 1 4 3.</_></rects>
      <tilted>0</tilted></_>
    <_>
      <rects>
        <_>
          47 6 3 12 -1.</_>
        <_>
          48 6 1 12 3.</_></rects>
      <tilted>0</tilted></_>
    <_>
      <rects>
        <_>
          47 6 6 16 -1.</_>
        <_>
          49 6 2 16 3.</_></rects>
      <tilted>0</tilted></_>
    <_>
      <rects>
        <_>
          47 10 6 8 -1.</_>
        <_>
          49 10 2 8 3.</_></rects>
      <tilted>0</tilted></_>
    <_>
      <rects>
        <_>
          47 17 6 3 -1.</_>
        <_>
          49 18 2 1 9.</_></rects>
      <tilted>0</tilted></_>
    <_>
      <rects>
        <_>
          48 0 3 1 -1.</_>
        <_>
          49 0 1 1 3.</_></rects>
      <tilted>0</tilted></_>
    <_>
      <rects>
        <_>
          48 4 6 12 -1.</_>
        <_>
          50 4 2 12 3.</_></rects>
      <tilted>0</tilted></_>
    <_>
      <rects>
        <_>
          50 0 2 10 -1.</_>
        <_>
          50 5 2 5 2.</_></rects>
      <tilted>0</tilted></_>
    <_>
      <rects>
        <_>
          50 6 3 3 -1.</_>
        <_>
          51 7 1 1 9.</_></rects>
      <tilted>0</tilted></_>
    <_>
      <rects>
        <_>
          51 0 4 2 -1.</_>
        <_>
          52 0 2 2 2.</_></rects>
      <tilted>0</tilted></_>
    <_>
      <rects>
        <_>
          51 1 4 1 -1.</_>
        <_>
          52 1 2 1 2.</_></rects>
      <tilted>0</tilted></_>
    <_>
      <rects>
        <_>
          52 18 8 4 -1.</_>
        <_>
          52 18 4 2 2.</_>
        <_>
          56 20 4 2 2.</_></rects>
      <tilted>0</tilted></_>
    <_>
      <rects>
        <_>
          53 9 2 4 -1.</_>
        <_>
          53 9 1 2 2.</_>
        <_>
          54 11 1 2 2.</_></rects>
      <tilted>0</tilted></_>
    <_>
      <rects>
        <_>
          53 18 2 4 -1.</_>
        <_>
          53 20 2 2 2.</_></rects>
      <tilted>0</tilted></_>
    <_>
      <rects>
        <_>
          54 6 6 7 -1.</_>
        <_>
          56 6 2 7 3.</_></rects>
      <tilted>0</tilted></_>
    <_>
      <rects>
        <_>
          54 8 6 8 -1.</_>
        <_>
          56 8 2 8 3.</_></rects>
      <tilted>0</tilted></_>
    <_>
      <rects>
        <_>
          54 8 4 11 -1.</_>
        <_>
          56 8 2 11 2.</_></rects>
      <tilted>0</tilted></_>
    <_>
      <rects>
        <_>
          56 3 4 21 -1.</_>
        <_>
          58 3 2 21 2.</_></rects>
      <tilted>0</tilted></_>
    <_>
      <rects>
        <_>
          56 6 4 13 -1.</_>
        <_>
          57 6 2 13 2.</_></rects>
      <tilted>0</tilted></_>
    <_>
      <rects>
        <_>
          56 8 4 12 -1.</_>
        <_>
          58 8 2 12 2.</_></rects>
      <tilted>0</tilted></_>
    <_>
      <rects>
        <_>
          56 13 4 10 -1.</_>
        <_>
          58 13 2 10 2.</_></rects>
      <tilted>0</tilted></_>
    <_>
      <rects>
        <_>
          57 0 2 23 -1.</_>
        <_>
          58 0 1 23 2.</_></rects>
      <tilted>0</tilted></_>
    <_>
      <rects>
        <_>
          57 12 2 3 -1.</_>
        <_>
          57 13 2 1 3.</_></rects>
      <tilted>0</tilted></_>
    <_>
      <rects>
        <_>
          57 13 3 4 -1.</_>
        <_>
          57 14 3 2 2.</_></rects>
      <tilted>0</tilted></_>
    <_>
      <rects>
        <_>
          58 11 2 8 -1.</_>
        <_>
          58 13 2 4 2.</_></rects>
      <tilted>0</tilted></_></features></cascade>
</opencv_storage>
