<?xml version="1.0"?>
<opencv_storage>
<stage5>
  <maxWeakCount>8</maxWeakCount>
  <stageThreshold>-1.1709395647048950e+00</stageThreshold>
  <weakClassifiers>
    <_>
      <internalNodes>
        0 -1 213326 6.9156922399997711e-02</internalNodes>
      <leafValues>
        -4.9410223960876465e-01 7.4683547019958496e-01</leafValues></_>
    <_>
      <internalNodes>
        0 -1 1303318 6.1571081168949604e-03</internalNodes>
      <leafValues>
        -3.1944611668586731e-01 7.3500144481658936e-01</leafValues></_>
    <_>
      <internalNodes>
        0 -1 579904 -2.0984191447496414e-02</internalNodes>
      <leafValues>
        7.2365236282348633e-01 -3.3387830853462219e-01</leafValues></_>
    <_>
      <internalNodes>
        0 -1 856885 7.2925561107695103e-04</internalNodes>
      <leafValues>
        -3.3970239758491516e-01 5.5642807483673096e-01</leafValues></_>
    <_>
      <internalNodes>
        0 -1 326980 1.3634015340358019e-04</internalNodes>
      <leafValues>
        2.3543815314769745e-01 -8.8304156064987183e-01</leafValues></_>
    <_>
      <internalNodes>
        0 -1 427144 -9.9586974829435349e-03</internalNodes>
      <leafValues>
        8.1874459981918335e-01 -2.9006600379943848e-01</leafValues></_>
    <_>
      <internalNodes>
        0 -1 459223 2.3719379678368568e-03</internalNodes>
      <leafValues>
        -2.7600213885307312e-01 7.4157649278640747e-01</leafValues></_>
    <_>
      <internalNodes>
        0 -1 288506 -6.0386140830814838e-03</internalNodes>
      <leafValues>
        7.6706534624099731e-01 -2.4931098520755768e-01</leafValues></_></weakClassifiers></stage5>
</opencv_storage>
