<?xml version="1.0"?>
<opencv_storage>
<stage17>
  <maxWeakCount>10</maxWeakCount>
  <stageThreshold>-1.1466891765594482e+00</stageThreshold>
  <weakClassifiers>
    <_>
      <internalNodes>
        0 -1 390904 -6.6643892787396908e-03</internalNodes>
      <leafValues>
        4.2657342553138733e-01 -4.5098039507865906e-01</leafValues></_>
    <_>
      <internalNodes>
        0 -1 1232520 1.1446118587628007e-03</internalNodes>
      <leafValues>
        -3.6741545796394348e-01 3.0164453387260437e-01</leafValues></_>
    <_>
      <internalNodes>
        0 -1 1296043 -2.7784276753664017e-03</internalNodes>
      <leafValues>
        5.2481234073638916e-01 -2.3521396517753601e-01</leafValues></_>
    <_>
      <internalNodes>
        0 -1 1167583 -3.7677707150578499e-03</internalNodes>
      <leafValues>
        5.9582042694091797e-01 -2.6453337073326111e-01</leafValues></_>
    <_>
      <internalNodes>
        0 -1 69613 -2.8655675123445690e-04</internalNodes>
      <leafValues>
        -8.5048031806945801e-01 1.8944370746612549e-01</leafValues></_>
    <_>
      <internalNodes>
        0 -1 350342 1.9626745488494635e-03</internalNodes>
      <leafValues>
        -3.2565009593963623e-01 4.2090791463851929e-01</leafValues></_>
    <_>
      <internalNodes>
        0 -1 1165917 2.2213060874491930e-03</internalNodes>
      <leafValues>
        -2.3810791969299316e-01 5.0961089134216309e-01</leafValues></_>
    <_>
      <internalNodes>
        0 -1 814100 9.2411390505731106e-04</internalNodes>
      <leafValues>
        1.6112400591373444e-01 -8.0538403987884521e-01</leafValues></_>
    <_>
      <internalNodes>
        0 -1 1005432 -1.0335959494113922e-02</internalNodes>
      <leafValues>
        -7.9190003871917725e-01 1.3696110248565674e-01</leafValues></_>
    <_>
      <internalNodes>
        0 -1 1139987 2.0143161527812481e-03</internalNodes>
      <leafValues>
        -2.9279351234436035e-01 4.2882549762725830e-01</leafValues></_></weakClassifiers></stage17>
</opencv_storage>
