<?xml version="1.0"?>
<opencv_storage>
<stage15>
  <maxWeakCount>6</maxWeakCount>
  <stageThreshold>-9.0081572532653809e-01</stageThreshold>
  <weakClassifiers>
    <_>
      <internalNodes>
        0 -1 3857 2.7267370373010635e-02</internalNodes>
      <leafValues>
        -4.7107437252998352e-01 5.1824820041656494e-01</leafValues></_>
    <_>
      <internalNodes>
        0 -1 115033 -1.1883823201060295e-02</internalNodes>
      <leafValues>
        -9.3929558992385864e-01 1.4842782914638519e-01</leafValues></_>
    <_>
      <internalNodes>
        0 -1 1178213 1.5407784376293421e-03</internalNodes>
      <leafValues>
        -3.1901985406875610e-01 5.1149159669876099e-01</leafValues></_>
    <_>
      <internalNodes>
        0 -1 1277454 -1.5778919623699039e-04</internalNodes>
      <leafValues>
        -9.2591017484664917e-01 1.6859623789787292e-01</leafValues></_>
    <_>
      <internalNodes>
        0 -1 1205967 1.2529504019767046e-03</internalNodes>
      <leafValues>
        -3.6038562655448914e-01 4.8144370317459106e-01</leafValues></_>
    <_>
      <internalNodes>
        0 -1 188601 -1.3843467831611633e-01</internalNodes>
      <leafValues>
        -9.2079269886016846e-01 1.8531712889671326e-01</leafValues></_></weakClassifiers></stage15>
</opencv_storage>
