<?xml version="1.0"?>
<opencv_storage>
<stage16>
  <maxWeakCount>10</maxWeakCount>
  <stageThreshold>-1.0698345899581909e+00</stageThreshold>
  <weakClassifiers>
    <_>
      <internalNodes>
        0 -1 1046378 4.4841999188065529e-03</internalNodes>
      <leafValues>
        -5.3872632980346680e-01 2.6968973875045776e-01</leafValues></_>
    <_>
      <internalNodes>
        0 -1 175843 -6.0356450267136097e-03</internalNodes>
      <leafValues>
        4.9885636568069458e-01 -3.2584363222122192e-01</leafValues></_>
    <_>
      <internalNodes>
        0 -1 288637 2.2971413563936949e-03</internalNodes>
      <leafValues>
        2.1307447552680969e-01 -7.1641969680786133e-01</leafValues></_>
    <_>
      <internalNodes>
        0 -1 882542 -6.8818917497992516e-04</internalNodes>
      <leafValues>
        4.5633783936500549e-01 -3.4650710225105286e-01</leafValues></_>
    <_>
      <internalNodes>
        0 -1 542067 5.4204808548092842e-03</internalNodes>
      <leafValues>
        -5.3488188982009888e-01 2.6248887181282043e-01</leafValues></_>
    <_>
      <internalNodes>
        0 -1 343636 4.7252386808395386e-02</internalNodes>
      <leafValues>
        -2.7806583046913147e-01 5.5187684297561646e-01</leafValues></_>
    <_>
      <internalNodes>
        0 -1 315795 7.2988658212125301e-04</internalNodes>
      <leafValues>
        -3.3611422777175903e-01 5.0771832466125488e-01</leafValues></_>
    <_>
      <internalNodes>
        0 -1 42623 5.1284674555063248e-04</internalNodes>
      <leafValues>
        -4.7209998965263367e-01 3.3155447244644165e-01</leafValues></_>
    <_>
      <internalNodes>
        0 -1 1181197 -1.8443843582645059e-03</internalNodes>
      <leafValues>
        5.6913465261459351e-01 -2.9071116447448730e-01</leafValues></_>
    <_>
      <internalNodes>
        0 -1 32829 -4.7866906970739365e-04</internalNodes>
      <leafValues>
        -6.3657909631729126e-01 2.7158746123313904e-01</leafValues></_></weakClassifiers></stage16>
</opencv_storage>
