<?xml version="1.0"?>
<opencv_storage>
<stage19>
  <maxWeakCount>12</maxWeakCount>
  <stageThreshold>-1.1807055473327637e+00</stageThreshold>
  <weakClassifiers>
    <_>
      <internalNodes>
        0 -1 1178805 -7.3833605274558067e-03</internalNodes>
      <leafValues>
        6.2913906574249268e-01 -3.4746760129928589e-01</leafValues></_>
    <_>
      <internalNodes>
        0 -1 929830 -1.4454352203756571e-03</internalNodes>
      <leafValues>
        4.5685023069381714e-01 -2.7611225843429565e-01</leafValues></_>
    <_>
      <internalNodes>
        0 -1 392053 -2.4453999474644661e-02</internalNodes>
      <leafValues>
        -7.3971563577651978e-01 1.4137496054172516e-01</leafValues></_>
    <_>
      <internalNodes>
        0 -1 1300597 3.0944561585783958e-03</internalNodes>
      <leafValues>
        -1.2098690867424011e-01 7.4446493387222290e-01</leafValues></_>
    <_>
      <internalNodes>
        0 -1 739388 -6.8606883287429810e-02</internalNodes>
      <leafValues>
        -7.6595342159271240e-01 1.5035462379455566e-01</leafValues></_>
    <_>
      <internalNodes>
        0 -1 193228 1.0305449366569519e-01</internalNodes>
      <leafValues>
        1.3931235671043396e-01 -7.0517879724502563e-01</leafValues></_>
    <_>
      <internalNodes>
        0 -1 1280525 3.4782709553837776e-04</internalNodes>
      <leafValues>
        -3.3897256851196289e-01 3.3093318343162537e-01</leafValues></_>
    <_>
      <internalNodes>
        0 -1 1084383 7.7380225993692875e-03</internalNodes>
      <leafValues>
        1.4381046593189240e-01 -8.3785766363143921e-01</leafValues></_>
    <_>
      <internalNodes>
        0 -1 362037 -2.7542347088456154e-03</internalNodes>
      <leafValues>
        4.0714469552040100e-01 -2.6502713561058044e-01</leafValues></_>
    <_>
      <internalNodes>
        0 -1 138573 2.4983235634863377e-03</internalNodes>
      <leafValues>
        -2.4847896397113800e-01 4.2482778429985046e-01</leafValues></_>
    <_>
      <internalNodes>
        0 -1 401566 3.2203309820033610e-04</internalNodes>
      <leafValues>
        1.1730994284152985e-01 -9.6874904632568359e-01</leafValues></_>
    <_>
      <internalNodes>
        0 -1 594744 2.8109215199947357e-03</internalNodes>
      <leafValues>
        -2.7582240104675293e-01 4.8336133360862732e-01</leafValues></_></weakClassifiers></stage19>
</opencv_storage>
