<?xml version="1.0"?>
<opencv_storage>
<stage6>
  <maxWeakCount>7</maxWeakCount>
  <stageThreshold>-8.1653553247451782e-01</stageThreshold>
  <weakClassifiers>
    <_>
      <internalNodes>
        0 -1 294901 4.9144666641950607e-02</internalNodes>
      <leafValues>
        -4.8335552215576172e-01 6.5461850166320801e-01</leafValues></_>
    <_>
      <internalNodes>
        0 -1 659599 3.1111207790672779e-03</internalNodes>
      <leafValues>
        -3.2892540097236633e-01 6.8317830562591553e-01</leafValues></_>
    <_>
      <internalNodes>
        0 -1 1309671 -1.4894764870405197e-02</internalNodes>
      <leafValues>
        7.1357256174087524e-01 -3.1399002671241760e-01</leafValues></_>
    <_>
      <internalNodes>
        0 -1 1060839 1.0237963870167732e-02</internalNodes>
      <leafValues>
        -3.3139994740486145e-01 6.8791514635086060e-01</leafValues></_>
    <_>
      <internalNodes>
        0 -1 437155 2.9602660797536373e-03</internalNodes>
      <leafValues>
        2.5904107093811035e-01 -8.9933806657791138e-01</leafValues></_>
    <_>
      <internalNodes>
        0 -1 1273854 5.0237961113452911e-03</internalNodes>
      <leafValues>
        -3.6301547288894653e-01 6.6768151521682739e-01</leafValues></_>
    <_>
      <internalNodes>
        0 -1 264167 4.6149551868438721e-02</internalNodes>
      <leafValues>
        -2.6699393987655640e-01 8.0824869871139526e-01</leafValues></_></weakClassifiers></stage6>
</opencv_storage>
