<?xml version="1.0"?>
<opencv_storage>
<stage14>
  <maxWeakCount>10</maxWeakCount>
  <stageThreshold>-1.4569807052612305e+00</stageThreshold>
  <weakClassifiers>
    <_>
      <internalNodes>
        0 -1 1181491 3.7165670655667782e-03</internalNodes>
      <leafValues>
        -5.0628930330276489e-01 3.3516484498977661e-01</leafValues></_>
    <_>
      <internalNodes>
        0 -1 1210654 -1.3462114147841930e-03</internalNodes>
      <leafValues>
        4.9918201565742493e-01 -2.9727482795715332e-01</leafValues></_>
    <_>
      <internalNodes>
        0 -1 389349 4.0670292219147086e-04</internalNodes>
      <leafValues>
        -4.3372184038162231e-01 3.2983922958374023e-01</leafValues></_>
    <_>
      <internalNodes>
        0 -1 1309822 -1.4531061053276062e-02</internalNodes>
      <leafValues>
        6.2574756145477295e-01 -2.1199561655521393e-01</leafValues></_>
    <_>
      <internalNodes>
        0 -1 607386 -1.6044412041082978e-04</internalNodes>
      <leafValues>
        -8.9803957939147949e-01 1.6230687499046326e-01</leafValues></_>
    <_>
      <internalNodes>
        0 -1 1141065 2.4159410968422890e-03</internalNodes>
      <leafValues>
        -2.2209095954895020e-01 7.0333212614059448e-01</leafValues></_>
    <_>
      <internalNodes>
        0 -1 1197752 -1.3827607035636902e-03</internalNodes>
      <leafValues>
        6.5847122669219971e-01 -2.0264889299869537e-01</leafValues></_>
    <_>
      <internalNodes>
        0 -1 1313470 -1.3700905255973339e-03</internalNodes>
      <leafValues>
        -7.8883039951324463e-01 2.1363908052444458e-01</leafValues></_>
    <_>
      <internalNodes>
        0 -1 1067480 1.2706324923783541e-03</internalNodes>
      <leafValues>
        -4.9513968825340271e-01 3.0696567893028259e-01</leafValues></_>
    <_>
      <internalNodes>
        0 -1 249794 5.2621280774474144e-03</internalNodes>
      <leafValues>
        -2.6587083935737610e-01 5.8702164888381958e-01</leafValues></_></weakClassifiers></stage14>
</opencv_storage>
