<?xml version="1.0"?>
<opencv_storage>
<stage4>
  <maxWeakCount>6</maxWeakCount>
  <stageThreshold>-1.0252990722656250e+00</stageThreshold>
  <weakClassifiers>
    <_>
      <internalNodes>
        0 -1 24430 5.7757301256060600e-03</internalNodes>
      <leafValues>
        -5.4419887065887451e-01 7.0289856195449829e-01</leafValues></_>
    <_>
      <internalNodes>
        0 -1 1178825 5.4781802464276552e-04</internalNodes>
      <leafValues>
        -3.6660149693489075e-01 7.4795502424240112e-01</leafValues></_>
    <_>
      <internalNodes>
        0 -1 658067 3.0085162725299597e-03</internalNodes>
      <leafValues>
        -2.5349432229995728e-01 7.9417037963867188e-01</leafValues></_>
    <_>
      <internalNodes>
        0 -1 1310441 -5.8779194951057434e-03</internalNodes>
      <leafValues>
        7.8922176361083984e-01 -2.8411653637886047e-01</leafValues></_>
    <_>
      <internalNodes>
        0 -1 77420 -1.3201663270592690e-02</internalNodes>
      <leafValues>
        7.2242921590805054e-01 -2.8823962807655334e-01</leafValues></_>
    <_>
      <internalNodes>
        0 -1 889559 6.8315239623188972e-03</internalNodes>
      <leafValues>
        -2.6798519492149353e-01 7.1135181188583374e-01</leafValues></_></weakClassifiers></stage4>
</opencv_storage>
