<?xml version="1.0"?>
<opencv_storage>
<stage12>
  <maxWeakCount>11</maxWeakCount>
  <stageThreshold>-1.3332576751708984e+00</stageThreshold>
  <weakClassifiers>
    <_>
      <internalNodes>
        0 -1 1264222 8.3793755620718002e-03</internalNodes>
      <leafValues>
        -4.7517731785774231e-01 4.5762711763381958e-01</leafValues></_>
    <_>
      <internalNodes>
        0 -1 1202964 -4.3951570987701416e-03</internalNodes>
      <leafValues>
        5.2514743804931641e-01 -3.3725306391716003e-01</leafValues></_>
    <_>
      <internalNodes>
        0 -1 43117 -5.5991299450397491e-02</internalNodes>
      <leafValues>
        6.3647222518920898e-01 -2.6968151330947876e-01</leafValues></_>
    <_>
      <internalNodes>
        0 -1 352034 1.5252236276865005e-02</internalNodes>
      <leafValues>
        -1.6424682736396790e-01 7.7412843704223633e-01</leafValues></_>
    <_>
      <internalNodes>
        0 -1 417425 7.9853488132357597e-03</internalNodes>
      <leafValues>
        -2.7091574668884277e-01 5.5627822875976562e-01</leafValues></_>
    <_>
      <internalNodes>
        0 -1 1252344 -3.1737395329400897e-04</internalNodes>
      <leafValues>
        -9.1423678398132324e-01 2.1104034781455994e-01</leafValues></_>
    <_>
      <internalNodes>
        0 -1 694168 1.7818580381572247e-03</internalNodes>
      <leafValues>
        -2.2801469266414642e-01 6.0611170530319214e-01</leafValues></_>
    <_>
      <internalNodes>
        0 -1 625122 8.7758582085371017e-03</internalNodes>
      <leafValues>
        -1.9813001155853271e-01 8.2353323698043823e-01</leafValues></_>
    <_>
      <internalNodes>
        0 -1 1168009 -1.0979477083310485e-03</internalNodes>
      <leafValues>
        -9.0019381046295166e-01 1.9454275071620941e-01</leafValues></_>
    <_>
      <internalNodes>
        0 -1 1166793 1.4793571317568421e-03</internalNodes>
      <leafValues>
        -2.5730246305465698e-01 6.7111569643020630e-01</leafValues></_>
    <_>
      <internalNodes>
        0 -1 909388 3.8150709588080645e-04</internalNodes>
      <leafValues>
        -2.8617337346076965e-01 4.6188083291053772e-01</leafValues></_></weakClassifiers></stage12>
</opencv_storage>
