<?xml version="1.0"?>
<opencv_storage>
<stage9>
  <maxWeakCount>7</maxWeakCount>
  <stageThreshold>-9.7776019573211670e-01</stageThreshold>
  <weakClassifiers>
    <_>
      <internalNodes>
        0 -1 711847 1.2236830778419971e-02</internalNodes>
      <leafValues>
        -5.8122742176055908e-01 2.7354261279106140e-01</leafValues></_>
    <_>
      <internalNodes>
        0 -1 1277601 2.6365360245108604e-03</internalNodes>
      <leafValues>
        -4.7068467736244202e-01 3.6634722352027893e-01</leafValues></_>
    <_>
      <internalNodes>
        0 -1 1146873 6.6860055085271597e-04</internalNodes>
      <leafValues>
        -2.9199069738388062e-01 5.4833793640136719e-01</leafValues></_>
    <_>
      <internalNodes>
        0 -1 1116030 1.0872927960008383e-03</internalNodes>
      <leafValues>
        -3.0481508374214172e-01 5.7468110322952271e-01</leafValues></_>
    <_>
      <internalNodes>
        0 -1 1284992 -1.4259794261306524e-04</internalNodes>
      <leafValues>
        -8.6399781703948975e-01 2.2524364292621613e-01</leafValues></_>
    <_>
      <internalNodes>
        0 -1 1114408 -1.4792248839512467e-03</internalNodes>
      <leafValues>
        5.4559797048568726e-01 -3.7188589572906494e-01</leafValues></_>
    <_>
      <internalNodes>
        0 -1 128400 9.8926876671612263e-04</internalNodes>
      <leafValues>
        1.9152598083019257e-01 -9.0222489833831787e-01</leafValues></_></weakClassifiers></stage9>
</opencv_storage>
