<?xml version="1.0"?>
<opencv_storage>
<stage8>
  <maxWeakCount>10</maxWeakCount>
  <stageThreshold>-1.0529609918594360e+00</stageThreshold>
  <weakClassifiers>
    <_>
      <internalNodes>
        0 -1 1061719 5.6942580267786980e-03</internalNodes>
      <leafValues>
        -4.6891191601753235e-01 7.1052628755569458e-01</leafValues></_>
    <_>
      <internalNodes>
        0 -1 1015528 -2.2854483686387539e-03</internalNodes>
      <leafValues>
        7.0187532901763916e-01 -2.7793100476264954e-01</leafValues></_>
    <_>
      <internalNodes>
        0 -1 1079558 -3.3070191275328398e-03</internalNodes>
      <leafValues>
        7.3367166519165039e-01 -3.0037799477577209e-01</leafValues></_>
    <_>
      <internalNodes>
        0 -1 22066 1.4231257140636444e-02</internalNodes>
      <leafValues>
        -1.8532463908195496e-01 7.3480033874511719e-01</leafValues></_>
    <_>
      <internalNodes>
        0 -1 155509 -8.0366842448711395e-03</internalNodes>
      <leafValues>
        7.9217636585235596e-01 -1.9821448624134064e-01</leafValues></_>
    <_>
      <internalNodes>
        0 -1 987416 -1.1691536055877805e-03</internalNodes>
      <leafValues>
        -8.7097829580307007e-01 2.1280565857887268e-01</leafValues></_>
    <_>
      <internalNodes>
        0 -1 465606 3.1167308334261179e-03</internalNodes>
      <leafValues>
        -2.3133130371570587e-01 7.8790038824081421e-01</leafValues></_>
    <_>
      <internalNodes>
        0 -1 528519 1.5640389174222946e-03</internalNodes>
      <leafValues>
        -2.7816203236579895e-01 5.8069735765457153e-01</leafValues></_>
    <_>
      <internalNodes>
        0 -1 1028489 -1.6149602830410004e-02</internalNodes>
      <leafValues>
        -8.4075152873992920e-01 2.4922758340835571e-01</leafValues></_>
    <_>
      <internalNodes>
        0 -1 1022579 5.9818301815539598e-04</internalNodes>
      <leafValues>
        -3.3401191234588623e-01 5.5922359228134155e-01</leafValues></_></weakClassifiers></stage8>
</opencv_storage>
