<?xml version="1.0"?>
<opencv_storage>
<stage13>
  <maxWeakCount>9</maxWeakCount>
  <stageThreshold>-1.1468001604080200e+00</stageThreshold>
  <weakClassifiers>
    <_>
      <internalNodes>
        0 -1 47152 4.6483926475048065e-02</internalNodes>
      <leafValues>
        -5.1496064662933350e-01 3.4794521331787109e-01</leafValues></_>
    <_>
      <internalNodes>
        0 -1 1302821 4.5161275193095207e-03</internalNodes>
      <leafValues>
        -3.4932205080986023e-01 5.0864946842193604e-01</leafValues></_>
    <_>
      <internalNodes>
        0 -1 1165928 1.1553801596164703e-03</internalNodes>
      <leafValues>
        -2.4612842500209808e-01 6.2273097038269043e-01</leafValues></_>
    <_>
      <internalNodes>
        0 -1 1080417 2.0953987259417772e-03</internalNodes>
      <leafValues>
        -2.7207240462303162e-01 5.3635954856872559e-01</leafValues></_>
    <_>
      <internalNodes>
        0 -1 1242397 3.0655625741928816e-03</internalNodes>
      <leafValues>
        2.1494011580944061e-01 -8.4500759840011597e-01</leafValues></_>
    <_>
      <internalNodes>
        0 -1 831869 1.6131179872900248e-03</internalNodes>
      <leafValues>
        -4.4424363970756531e-01 3.2004943490028381e-01</leafValues></_>
    <_>
      <internalNodes>
        0 -1 507420 -7.6451129280030727e-03</internalNodes>
      <leafValues>
        5.3874725103378296e-01 -2.6601502299308777e-01</leafValues></_>
    <_>
      <internalNodes>
        0 -1 1146023 1.2020559515804052e-03</internalNodes>
      <leafValues>
        -2.5641173124313354e-01 5.4256534576416016e-01</leafValues></_>
    <_>
      <internalNodes>
        0 -1 898146 4.0308050811290741e-03</internalNodes>
      <leafValues>
        2.5411754846572876e-01 -6.4573884010314941e-01</leafValues></_></weakClassifiers></stage13>
</opencv_storage>
