<?xml version="1.0"?>
<opencv_storage>
<stage1>
  <maxWeakCount>6</maxWeakCount>
  <stageThreshold>-1.3338018655776978e+00</stageThreshold>
  <weakClassifiers>
    <_>
      <internalNodes>
        0 -1 880945 -1.8631354905664921e-03</internalNodes>
      <leafValues>
        6.9696968793869019e-01 -5.7894736528396606e-01</leafValues></_>
    <_>
      <internalNodes>
        0 -1 834325 2.8424868360161781e-02</internalNodes>
      <leafValues>
        -4.3134251236915588e-01 6.7615997791290283e-01</leafValues></_>
    <_>
      <internalNodes>
        0 -1 366001 2.4742661044001579e-02</internalNodes>
      <leafValues>
        -3.8581815361976624e-01 7.0597922801971436e-01</leafValues></_>
    <_>
      <internalNodes>
        0 -1 1114438 -5.0273216329514980e-03</internalNodes>
      <leafValues>
        7.8330409526824951e-01 -3.0823308229446411e-01</leafValues></_>
    <_>
      <internalNodes>
        0 -1 399457 8.9431274682283401e-03</internalNodes>
      <leafValues>
        -2.9840084910392761e-01 7.9296857118606567e-01</leafValues></_>
    <_>
      <internalNodes>
        0 -1 1205967 8.4130407776683569e-04</internalNodes>
      <leafValues>
        -2.9637953639030457e-01 6.6894012689590454e-01</leafValues></_></weakClassifiers></stage1>
</opencv_storage>
