<?xml version="1.0"?>
<opencv_storage>
<stage15>
  <maxWeakCount>11</maxWeakCount>
  <stageThreshold>-1.0256167650222778e+00</stageThreshold>
  <weakClassifiers>
    <_>
      <internalNodes>
        0 -1 1260652 3.7901178002357483e-03</internalNodes>
      <leafValues>
        -4.9230769276618958e-01 3.4285715222358704e-01</leafValues></_>
    <_>
      <internalNodes>
        0 -1 938347 2.4416747037321329e-03</internalNodes>
      <leafValues>
        -4.0041807293891907e-01 4.2194113135337830e-01</leafValues></_>
    <_>
      <internalNodes>
        0 -1 1036684 2.9911268502473831e-03</internalNodes>
      <leafValues>
        -2.2545443475246429e-01 6.1247134208679199e-01</leafValues></_>
    <_>
      <internalNodes>
        0 -1 894647 4.1336165741086006e-03</internalNodes>
      <leafValues>
        -3.9727160334587097e-01 3.5459807515144348e-01</leafValues></_>
    <_>
      <internalNodes>
        0 -1 641952 -1.6742284642532468e-03</internalNodes>
      <leafValues>
        4.3052166700363159e-01 -3.0998647212982178e-01</leafValues></_>
    <_>
      <internalNodes>
        0 -1 1232892 -1.6157078789547086e-04</internalNodes>
      <leafValues>
        -9.0888446569442749e-01 1.9661140441894531e-01</leafValues></_>
    <_>
      <internalNodes>
        0 -1 1053306 -2.1193781867623329e-03</internalNodes>
      <leafValues>
        4.6695622801780701e-01 -3.1265884637832642e-01</leafValues></_>
    <_>
      <internalNodes>
        0 -1 26865 -4.4033159501850605e-03</internalNodes>
      <leafValues>
        -7.8661811351776123e-01 1.7430132627487183e-01</leafValues></_>
    <_>
      <internalNodes>
        0 -1 28898 4.0087589877657592e-04</internalNodes>
      <leafValues>
        1.7965832352638245e-01 -6.0262221097946167e-01</leafValues></_>
    <_>
      <internalNodes>
        0 -1 283354 7.0950051303952932e-04</internalNodes>
      <leafValues>
        -2.6866546273231506e-01 5.1441562175750732e-01</leafValues></_>
    <_>
      <internalNodes>
        0 -1 249352 -5.9435106813907623e-03</internalNodes>
      <leafValues>
        3.2114112377166748e-01 -4.1921737790107727e-01</leafValues></_></weakClassifiers></stage15>
</opencv_storage>
