<?xml version="1.0"?>
<opencv_storage>
<stage17>
  <maxWeakCount>10</maxWeakCount>
  <stageThreshold>-1.2455209493637085e+00</stageThreshold>
  <weakClassifiers>
    <_>
      <internalNodes>
        0 -1 1055217 -5.2566395606845617e-04</internalNodes>
      <leafValues>
        5.7758623361587524e-01 -4.3489584326744080e-01</leafValues></_>
    <_>
      <internalNodes>
        0 -1 1302307 1.8595617264509201e-02</internalNodes>
      <leafValues>
        -3.7855130434036255e-01 5.0854861736297607e-01</leafValues></_>
    <_>
      <internalNodes>
        0 -1 1261514 1.3055796734988689e-03</internalNodes>
      <leafValues>
        1.6494394838809967e-01 -9.3073129653930664e-01</leafValues></_>
    <_>
      <internalNodes>
        0 -1 1232298 2.4829057510942221e-03</internalNodes>
      <leafValues>
        -2.9050835967063904e-01 5.7730758190155029e-01</leafValues></_>
    <_>
      <internalNodes>
        0 -1 1300067 1.1635180562734604e-03</internalNodes>
      <leafValues>
        -2.6077985763549805e-01 7.8904080390930176e-01</leafValues></_>
    <_>
      <internalNodes>
        0 -1 1304486 4.9352971836924553e-04</internalNodes>
      <leafValues>
        -3.0818220973014832e-01 5.9209364652633667e-01</leafValues></_>
    <_>
      <internalNodes>
        0 -1 327104 -5.0871237181127071e-04</internalNodes>
      <leafValues>
        -8.2325041294097900e-01 2.4122302234172821e-01</leafValues></_>
    <_>
      <internalNodes>
        0 -1 887139 -5.3842887282371521e-03</internalNodes>
      <leafValues>
        2.8044021129608154e-01 -5.5635792016983032e-01</leafValues></_>
    <_>
      <internalNodes>
        0 -1 1308679 1.2157440651208162e-03</internalNodes>
      <leafValues>
        -2.9915770888328552e-01 5.5926883220672607e-01</leafValues></_>
    <_>
      <internalNodes>
        0 -1 1261332 1.2838940601795912e-03</internalNodes>
      <leafValues>
        1.8504476547241211e-01 -9.3872869014739990e-01</leafValues></_></weakClassifiers></stage17>
</opencv_storage>
