<?xml version="1.0"?>
<opencv_storage>
<stage16>
  <maxWeakCount>37</maxWeakCount>
  <stageThreshold>-1.3919669389724731e+00</stageThreshold>
  <weakClassifiers>
    <_>
      <internalNodes>
        0 -1 1151 2.8162151575088501e-02</internalNodes>
      <leafValues>
        -2.3529411852359772e-01 4.5551601052284241e-01</leafValues></_>
    <_>
      <internalNodes>
        0 -1 2035 3.0719228088855743e-02</internalNodes>
      <leafValues>
        -3.1359630823135376e-01 3.3328607678413391e-01</leafValues></_>
    <_>
      <internalNodes>
        0 -1 332 7.4371071532368660e-03</internalNodes>
      <leafValues>
        3.0667859315872192e-01 -2.5910019874572754e-01</leafValues></_>
    <_>
      <internalNodes>
        0 -1 1233 2.8686288744211197e-02</internalNodes>
      <leafValues>
        1.3709057867527008e-01 -5.0594848394393921e-01</leafValues></_>
    <_>
      <internalNodes>
        0 -1 1730 2.0995302125811577e-02</internalNodes>
      <leafValues>
        -5.1019662618637085e-01 1.1713586002588272e-01</leafValues></_>
    <_>
      <internalNodes>
        0 -1 897 1.1593357659876347e-02</internalNodes>
      <leafValues>
        -3.9016401767730713e-01 1.5137155354022980e-01</leafValues></_>
    <_>
      <internalNodes>
        0 -1 4334 1.1773187667131424e-02</internalNodes>
      <leafValues>
        1.6364549100399017e-01 -3.5878336429595947e-01</leafValues></_>
    <_>
      <internalNodes>
        0 -1 1622 1.0228897444903851e-02</internalNodes>
      <leafValues>
        -8.5141587257385254e-01 6.5220989286899567e-02</leafValues></_>
    <_>
      <internalNodes>
        0 -1 4086 2.1592656150460243e-02</internalNodes>
      <leafValues>
        1.3369859755039215e-01 -4.5083740353584290e-01</leafValues></_>
    <_>
      <internalNodes>
        0 -1 2528 1.8224006518721581e-02</internalNodes>
      <leafValues>
        -2.8796088695526123e-01 1.9944015145301819e-01</leafValues></_>
    <_>
      <internalNodes>
        0 -1 399 2.9567748308181763e-02</internalNodes>
      <leafValues>
        -3.0338570475578308e-01 2.5078147649765015e-01</leafValues></_>
    <_>
      <internalNodes>
        0 -1 3982 4.9221262335777283e-02</internalNodes>
      <leafValues>
        7.1662709116935730e-02 -7.7639365196228027e-01</leafValues></_>
    <_>
      <internalNodes>
        0 -1 4612 3.6220334470272064e-02</internalNodes>
      <leafValues>
        -2.6709923148155212e-01 2.4194374680519104e-01</leafValues></_>
    <_>
      <internalNodes>
        0 -1 4292 1.9327718764543533e-02</internalNodes>
      <leafValues>
        -5.7913970947265625e-01 8.6773917078971863e-02</leafValues></_>
    <_>
      <internalNodes>
        0 -1 4506 3.3912442624568939e-02</internalNodes>
      <leafValues>
        7.2756618261337280e-02 -7.2335338592529297e-01</leafValues></_>
    <_>
      <internalNodes>
        0 -1 4326 5.3180124610662460e-02</internalNodes>
      <leafValues>
        -1.3979099690914154e-01 4.9698880314826965e-01</leafValues></_>
    <_>
      <internalNodes>
        0 -1 1660 6.6672198474407196e-02</internalNodes>
      <leafValues>
        7.4478514492511749e-02 -8.2815957069396973e-01</leafValues></_>
    <_>
      <internalNodes>
        0 -1 5625 3.4493796527385712e-02</internalNodes>
      <leafValues>
        9.8667912185192108e-02 -5.1780158281326294e-01</leafValues></_>
    <_>
      <internalNodes>
        0 -1 4555 7.1337118744850159e-02</internalNodes>
      <leafValues>
        -1.0248295217752457e-01 6.6773754358291626e-01</leafValues></_>
    <_>
      <internalNodes>
        0 -1 2613 1.0141656734049320e-02</internalNodes>
      <leafValues>
        -5.6959474086761475e-01 1.2897482514381409e-01</leafValues></_>
    <_>
      <internalNodes>
        0 -1 3409 2.9150983318686485e-03</internalNodes>
      <leafValues>
        -7.5063234567642212e-01 7.0180371403694153e-02</leafValues></_>
    <_>
      <internalNodes>
        0 -1 451 2.2195126861333847e-02</internalNodes>
      <leafValues>
        1.4441666007041931e-01 -3.9670938253402710e-01</leafValues></_>
    <_>
      <internalNodes>
        0 -1 4750 1.1958040297031403e-02</internalNodes>
      <leafValues>
        1.6140425205230713e-01 -3.5318908095359802e-01</leafValues></_>
    <_>
      <internalNodes>
        0 -1 3581 2.5885697454214096e-02</internalNodes>
      <leafValues>
        -3.0371260643005371e-01 1.9854412972927094e-01</leafValues></_>
    <_>
      <internalNodes>
        0 -1 4536 4.0274329483509064e-02</internalNodes>
      <leafValues>
        1.0563844442367554e-01 -5.8303159475326538e-01</leafValues></_>
    <_>
      <internalNodes>
        0 -1 1632 2.3000858724117279e-02</internalNodes>
      <leafValues>
        -4.1633245348930359e-01 1.2536314129829407e-01</leafValues></_>
    <_>
      <internalNodes>
        0 -1 1362 8.4946349263191223e-02</internalNodes>
      <leafValues>
        6.7738831043243408e-02 -7.9476678371429443e-01</leafValues></_>
    <_>
      <internalNodes>
        0 -1 4378 4.2291171848773956e-03</internalNodes>
      <leafValues>
        8.1237685680389404e-01 -8.4058918058872223e-02</leafValues></_>
    <_>
      <internalNodes>
        0 -1 5201 5.6559771299362183e-02</internalNodes>
      <leafValues>
        8.0432213842868805e-02 -9.1791516542434692e-01</leafValues></_>
    <_>
      <internalNodes>
        0 -1 5318 3.3015593886375427e-02</internalNodes>
      <leafValues>
        -2.6150661706924438e-01 2.0192459225654602e-01</leafValues></_>
    <_>
      <internalNodes>
        0 -1 2559 3.5247508436441422e-02</internalNodes>
      <leafValues>
        -3.3879607915878296e-01 1.8715418875217438e-01</leafValues></_>
    <_>
      <internalNodes>
        0 -1 2335 1.4366340823471546e-02</internalNodes>
      <leafValues>
        2.9227954149246216e-01 -1.8013876676559448e-01</leafValues></_>
    <_>
      <internalNodes>
        0 -1 3594 2.5521259754896164e-02</internalNodes>
      <leafValues>
        -3.1021139025688171e-01 1.9297736883163452e-01</leafValues></_>
    <_>
      <internalNodes>
        0 -1 3571 3.8262049201875925e-03</internalNodes>
      <leafValues>
        -8.6117738485336304e-01 5.8134265244007111e-02</leafValues></_>
    <_>
      <internalNodes>
        0 -1 4617 1.9301697611808777e-02</internalNodes>
      <leafValues>
        1.7251797020435333e-01 -3.1701350212097168e-01</leafValues></_>
    <_>
      <internalNodes>
        0 -1 1438 9.4606894999742508e-03</internalNodes>
      <leafValues>
        1.5485826134681702e-01 -3.7643727660179138e-01</leafValues></_>
    <_>
      <internalNodes>
        0 -1 2941 1.0382765904068947e-02</internalNodes>
      <leafValues>
        -4.3236264586448669e-01 1.2599208950996399e-01</leafValues></_></weakClassifiers></stage16>
</opencv_storage>
