<?xml version="1.0"?>
<opencv_storage>
<stage5>
  <maxWeakCount>12</maxWeakCount>
  <stageThreshold>-1.4263497591018677e+00</stageThreshold>
  <weakClassifiers>
    <_>
      <internalNodes>
        0 -1 899 2.3669786751270294e-02</internalNodes>
      <leafValues>
        -6.3181817531585693e-01 5.8448272943496704e-01</leafValues></_>
    <_>
      <internalNodes>
        0 -1 2198 3.0587295070290565e-02</internalNodes>
      <leafValues>
        -6.3012784719467163e-01 4.0437275171279907e-01</leafValues></_>
    <_>
      <internalNodes>
        0 -1 1421 1.3599714264273643e-02</internalNodes>
      <leafValues>
        -7.2886264324188232e-01 2.9324671626091003e-01</leafValues></_>
    <_>
      <internalNodes>
        0 -1 4880 3.6312092095613480e-02</internalNodes>
      <leafValues>
        -4.7999203205108643e-01 3.4796866774559021e-01</leafValues></_>
    <_>
      <internalNodes>
        0 -1 4021 1.3970682397484779e-02</internalNodes>
      <leafValues>
        -5.7596224546432495e-01 3.0073544383049011e-01</leafValues></_>
    <_>
      <internalNodes>
        0 -1 4532 1.2511292472481728e-02</internalNodes>
      <leafValues>
        2.5745749473571777e-01 -6.5462529659271240e-01</leafValues></_>
    <_>
      <internalNodes>
        0 -1 4464 1.4734553173184395e-02</internalNodes>
      <leafValues>
        3.2329738140106201e-01 -5.4149526357650757e-01</leafValues></_>
    <_>
      <internalNodes>
        0 -1 4515 1.2633224949240685e-02</internalNodes>
      <leafValues>
        -5.2202254533767700e-01 3.0634176731109619e-01</leafValues></_>
    <_>
      <internalNodes>
        0 -1 3585 2.5004111230373383e-02</internalNodes>
      <leafValues>
        -4.9475282430648804e-01 2.8847163915634155e-01</leafValues></_>
    <_>
      <internalNodes>
        0 -1 3457 6.2349654734134674e-02</internalNodes>
      <leafValues>
        -2.5629627704620361e-01 6.2071353197097778e-01</leafValues></_>
    <_>
      <internalNodes>
        0 -1 5210 1.4529418200254440e-02</internalNodes>
      <leafValues>
        -7.2513037919998169e-01 1.9558434188365936e-01</leafValues></_>
    <_>
      <internalNodes>
        0 -1 2568 4.4526748359203339e-02</internalNodes>
      <leafValues>
        -4.9355858564376831e-01 3.4757024049758911e-01</leafValues></_></weakClassifiers></stage5>
</opencv_storage>
