<?xml version="1.0"?>
<opencv_storage>
<stage18>
  <maxWeakCount>36</maxWeakCount>
  <stageThreshold>-1.2381739616394043e+00</stageThreshold>
  <weakClassifiers>
    <_>
      <internalNodes>
        0 -1 3959 3.1026806682348251e-02</internalNodes>
      <leafValues>
        -1.9528619945049286e-01 5.1292246580123901e-01</leafValues></_>
    <_>
      <internalNodes>
        0 -1 472 1.3654178008437157e-02</internalNodes>
      <leafValues>
        3.9728155732154846e-01 -2.1833001077175140e-01</leafValues></_>
    <_>
      <internalNodes>
        0 -1 308 2.8003105893731117e-02</internalNodes>
      <leafValues>
        -3.2360461354255676e-01 2.4029552936553955e-01</leafValues></_>
    <_>
      <internalNodes>
        0 -1 4326 4.1848063468933105e-02</internalNodes>
      <leafValues>
        -1.8541379272937775e-01 3.8332796096801758e-01</leafValues></_>
    <_>
      <internalNodes>
        0 -1 4281 1.3807417824864388e-02</internalNodes>
      <leafValues>
        1.0237782448530197e-01 -5.2916026115417480e-01</leafValues></_>
    <_>
      <internalNodes>
        0 -1 1846 9.3087852001190186e-03</internalNodes>
      <leafValues>
        -4.4938901066780090e-01 1.4293630421161652e-01</leafValues></_>
    <_>
      <internalNodes>
        0 -1 4938 6.2761600129306316e-03</internalNodes>
      <leafValues>
        2.5938814878463745e-01 -2.3860649764537811e-01</leafValues></_>
    <_>
      <internalNodes>
        0 -1 5204 4.3757975101470947e-02</internalNodes>
      <leafValues>
        5.4569151252508163e-02 -7.9134142398834229e-01</leafValues></_>
    <_>
      <internalNodes>
        0 -1 2144 2.1086517721414566e-02</internalNodes>
      <leafValues>
        -4.0749493241310120e-01 1.3383603096008301e-01</leafValues></_>
    <_>
      <internalNodes>
        0 -1 3585 2.9605023562908173e-02</internalNodes>
      <leafValues>
        -3.5732778906822205e-01 1.6171909868717194e-01</leafValues></_>
    <_>
      <internalNodes>
        0 -1 4132 6.3702702522277832e-02</internalNodes>
      <leafValues>
        -1.3029679656028748e-01 5.2543991804122925e-01</leafValues></_>
    <_>
      <internalNodes>
        0 -1 4329 5.8828396722674370e-03</internalNodes>
      <leafValues>
        4.6623870730400085e-01 -1.1738310754299164e-01</leafValues></_>
    <_>
      <internalNodes>
        0 -1 5705 1.2342283502221107e-02</internalNodes>
      <leafValues>
        -6.4126813411712646e-01 9.9867686629295349e-02</leafValues></_>
    <_>
      <internalNodes>
        0 -1 1133 4.9091722816228867e-02</internalNodes>
      <leafValues>
        4.4571850448846817e-02 -9.1948390007019043e-01</leafValues></_>
    <_>
      <internalNodes>
        0 -1 4398 3.4121685894206166e-04</internalNodes>
      <leafValues>
        8.7077915668487549e-01 -7.8080296516418457e-02</leafValues></_>
    <_>
      <internalNodes>
        0 -1 5205 6.0513906180858612e-02</internalNodes>
      <leafValues>
        1.0289675742387772e-01 -6.3521689176559448e-01</leafValues></_>
    <_>
      <internalNodes>
        0 -1 5206 1.5146124176681042e-02</internalNodes>
      <leafValues>
        -5.2519279718399048e-01 1.0429336875677109e-01</leafValues></_>
    <_>
      <internalNodes>
        0 -1 5563 6.9990046322345734e-02</internalNodes>
      <leafValues>
        -1.1027779430150986e-01 5.8645182847976685e-01</leafValues></_>
    <_>
      <internalNodes>
        0 -1 4143 2.3021521046757698e-02</internalNodes>
      <leafValues>
        -4.7283193469047546e-01 1.4430227875709534e-01</leafValues></_>
    <_>
      <internalNodes>
        0 -1 5000 1.4951965771615505e-02</internalNodes>
      <leafValues>
        1.2214402109384537e-01 -4.1832342743873596e-01</leafValues></_>
    <_>
      <internalNodes>
        0 -1 3023 6.4499238505959511e-03</internalNodes>
      <leafValues>
        -8.6233550310134888e-01 6.7567296326160431e-02</leafValues></_>
    <_>
      <internalNodes>
        0 -1 421 2.9999241232872009e-02</internalNodes>
      <leafValues>
        -1.7099921405315399e-01 3.6306518316268921e-01</leafValues></_>
    <_>
      <internalNodes>
        0 -1 5490 2.7904327958822250e-02</internalNodes>
      <leafValues>
        1.2271248549222946e-01 -4.5597890019416809e-01</leafValues></_>
    <_>
      <internalNodes>
        0 -1 980 2.2170707583427429e-02</internalNodes>
      <leafValues>
        -4.2689517140388489e-01 1.3360211253166199e-01</leafValues></_>
    <_>
      <internalNodes>
        0 -1 3137 2.9238577932119370e-02</internalNodes>
      <leafValues>
        7.1729034185409546e-02 -6.1923986673355103e-01</leafValues></_>
    <_>
      <internalNodes>
        0 -1 2382 3.4640006721019745e-02</internalNodes>
      <leafValues>
        -1.4293943345546722e-01 3.9719045162200928e-01</leafValues></_>
    <_>
      <internalNodes>
        0 -1 363 1.2357846647500992e-01</internalNodes>
      <leafValues>
        -9.6926696598529816e-02 4.7560760378837585e-01</leafValues></_>
    <_>
      <internalNodes>
        0 -1 387 6.0980734415352345e-03</internalNodes>
      <leafValues>
        -5.6835913658142090e-01 1.0061503201723099e-01</leafValues></_>
    <_>
      <internalNodes>
        0 -1 1531 3.1161285936832428e-02</internalNodes>
      <leafValues>
        -1.9260895252227783e-01 2.6059588789939880e-01</leafValues></_>
    <_>
      <internalNodes>
        0 -1 3788 4.8261582851409912e-02</internalNodes>
      <leafValues>
        -1.7343671619892120e-01 2.9427412152290344e-01</leafValues></_>
    <_>
      <internalNodes>
        0 -1 198 2.2518858313560486e-02</internalNodes>
      <leafValues>
        1.3730597496032715e-01 -3.7481343746185303e-01</leafValues></_>
    <_>
      <internalNodes>
        0 -1 4871 4.2778775095939636e-02</internalNodes>
      <leafValues>
        9.8392710089683533e-02 -4.9954000115394592e-01</leafValues></_>
    <_>
      <internalNodes>
        0 -1 2594 8.2506500184535980e-03</internalNodes>
      <leafValues>
        -6.6833865642547607e-01 7.9582042992115021e-02</leafValues></_>
    <_>
      <internalNodes>
        0 -1 4378 5.7237986475229263e-03</internalNodes>
      <leafValues>
        7.3559826612472534e-01 -8.3616301417350769e-02</leafValues></_>
    <_>
      <internalNodes>
        0 -1 695 7.2513751685619354e-02</internalNodes>
      <leafValues>
        7.9345159232616425e-02 -8.4347963333129883e-01</leafValues></_>
    <_>
      <internalNodes>
        0 -1 1947 2.0885039120912552e-02</internalNodes>
      <leafValues>
        -5.1202511787414551e-01 7.5531408190727234e-02</leafValues></_></weakClassifiers></stage18>
</opencv_storage>
