<?xml version="1.0"?>
<opencv_storage>
<stage10>
  <maxWeakCount>23</maxWeakCount>
  <stageThreshold>-1.1885389089584351e+00</stageThreshold>
  <weakClassifiers>
    <_>
      <internalNodes>
        0 -1 1151 2.2277992218732834e-02</internalNodes>
      <leafValues>
        -4.2857143282890320e-01 4.5990180969238281e-01</leafValues></_>
    <_>
      <internalNodes>
        0 -1 2389 2.9272347688674927e-02</internalNodes>
      <leafValues>
        2.9348647594451904e-01 -4.9083548784255981e-01</leafValues></_>
    <_>
      <internalNodes>
        0 -1 4581 1.2663990259170532e-02</internalNodes>
      <leafValues>
        3.8326367735862732e-01 -3.4237661957740784e-01</leafValues></_>
    <_>
      <internalNodes>
        0 -1 231 6.6640362143516541e-02</internalNodes>
      <leafValues>
        -1.8724960088729858e-01 7.2326880693435669e-01</leafValues></_>
    <_>
      <internalNodes>
        0 -1 596 2.1035850048065186e-02</internalNodes>
      <leafValues>
        -4.7368884086608887e-01 2.4107456207275391e-01</leafValues></_>
    <_>
      <internalNodes>
        0 -1 1374 1.5256524085998535e-02</internalNodes>
      <leafValues>
        1.1778541654348373e-01 -6.7839211225509644e-01</leafValues></_>
    <_>
      <internalNodes>
        0 -1 3545 3.0940257012844086e-02</internalNodes>
      <leafValues>
        -3.0240982770919800e-01 3.5748004913330078e-01</leafValues></_>
    <_>
      <internalNodes>
        0 -1 2640 2.6331268250942230e-02</internalNodes>
      <leafValues>
        -6.1287927627563477e-01 1.9696582853794098e-01</leafValues></_>
    <_>
      <internalNodes>
        0 -1 4133 1.8862918019294739e-02</internalNodes>
      <leafValues>
        -7.2497570514678955e-01 1.2639142572879791e-01</leafValues></_>
    <_>
      <internalNodes>
        0 -1 2699 2.8718985617160797e-02</internalNodes>
      <leafValues>
        -3.7903559207916260e-01 2.5144553184509277e-01</leafValues></_>
    <_>
      <internalNodes>
        0 -1 791 2.7395237237215042e-02</internalNodes>
      <leafValues>
        1.1193218082189560e-01 -6.5351456403732300e-01</leafValues></_>
    <_>
      <internalNodes>
        0 -1 1412 5.5797994136810303e-03</internalNodes>
      <leafValues>
        -9.6889925003051758e-01 8.0284565687179565e-02</leafValues></_>
    <_>
      <internalNodes>
        0 -1 347 6.9512138143181801e-03</internalNodes>
      <leafValues>
        3.2834279537200928e-01 -2.8475359082221985e-01</leafValues></_>
    <_>
      <internalNodes>
        0 -1 134 3.4002192318439484e-02</internalNodes>
      <leafValues>
        -2.7754840254783630e-01 3.3934634923934937e-01</leafValues></_>
    <_>
      <internalNodes>
        0 -1 156 5.3479887545108795e-02</internalNodes>
      <leafValues>
        -2.5083181262016296e-01 4.0718993544578552e-01</leafValues></_>
    <_>
      <internalNodes>
        0 -1 1423 2.8166063129901886e-02</internalNodes>
      <leafValues>
        -3.2095479965209961e-01 3.2930135726928711e-01</leafValues></_>
    <_>
      <internalNodes>
        0 -1 3823 2.0659293979406357e-02</internalNodes>
      <leafValues>
        -3.2759863138198853e-01 2.8456324338912964e-01</leafValues></_>
    <_>
      <internalNodes>
        0 -1 4587 1.4651922509074211e-02</internalNodes>
      <leafValues>
        1.4143937826156616e-01 -6.1592531204223633e-01</leafValues></_>
    <_>
      <internalNodes>
        0 -1 4462 6.7537534050643444e-03</internalNodes>
      <leafValues>
        -6.7576235532760620e-01 1.1720898002386093e-01</leafValues></_>
    <_>
      <internalNodes>
        0 -1 5299 1.5606103464961052e-02</internalNodes>
      <leafValues>
        1.9729055464267731e-01 -4.9468106031417847e-01</leafValues></_>
    <_>
      <internalNodes>
        0 -1 3847 2.5011589750647545e-02</internalNodes>
      <leafValues>
        -3.6974465847015381e-01 2.4975422024726868e-01</leafValues></_>
    <_>
      <internalNodes>
        0 -1 5555 4.9346242100000381e-02</internalNodes>
      <leafValues>
        1.2682276964187622e-01 -6.7340904474258423e-01</leafValues></_>
    <_>
      <internalNodes>
        0 -1 2594 2.5540404021739960e-02</internalNodes>
      <leafValues>
        -3.5710152983665466e-01 2.7882653474807739e-01</leafValues></_></weakClassifiers></stage10>
</opencv_storage>
