<?xml version="1.0"?>
<opencv_storage>
<stage19>
  <maxWeakCount>34</maxWeakCount>
  <stageThreshold>-1.3686673641204834e+00</stageThreshold>
  <weakClassifiers>
    <_>
      <internalNodes>
        0 -1 4837 1.5529260039329529e-02</internalNodes>
      <leafValues>
        6.1993771791458130e-01 2.0876827184110880e-03</leafValues></_>
    <_>
      <internalNodes>
        0 -1 2368 2.4690173566341400e-02</internalNodes>
      <leafValues>
        -2.4878872931003571e-01 3.3109357953071594e-01</leafValues></_>
    <_>
      <internalNodes>
        0 -1 4742 3.0043510720133781e-02</internalNodes>
      <leafValues>
        -4.4788578152656555e-01 2.0538341999053955e-01</leafValues></_>
    <_>
      <internalNodes>
        0 -1 4880 2.2701231762766838e-02</internalNodes>
      <leafValues>
        -5.6498467922210693e-01 1.4006194472312927e-01</leafValues></_>
    <_>
      <internalNodes>
        0 -1 2397 5.0179827958345413e-02</internalNodes>
      <leafValues>
        -2.2494840621948242e-01 4.0118068456649780e-01</leafValues></_>
    <_>
      <internalNodes>
        0 -1 3613 3.0924912542104721e-02</internalNodes>
      <leafValues>
        -3.6322951316833496e-01 2.1497306227684021e-01</leafValues></_>
    <_>
      <internalNodes>
        0 -1 125 8.4531623870134354e-03</internalNodes>
      <leafValues>
        2.4191260337829590e-01 -3.1127923727035522e-01</leafValues></_>
    <_>
      <internalNodes>
        0 -1 1163 4.1246607899665833e-02</internalNodes>
      <leafValues>
        1.2747496366500854e-01 -5.1910412311553955e-01</leafValues></_>
    <_>
      <internalNodes>
        0 -1 4319 1.3219465501606464e-02</internalNodes>
      <leafValues>
        1.7774254083633423e-01 -3.9012625813484192e-01</leafValues></_>
    <_>
      <internalNodes>
        0 -1 1125 3.5124890506267548e-02</internalNodes>
      <leafValues>
        8.7032243609428406e-02 -6.3679760694503784e-01</leafValues></_>
    <_>
      <internalNodes>
        0 -1 5563 6.0208067297935486e-02</internalNodes>
      <leafValues>
        -1.4644320309162140e-01 4.6896895766258240e-01</leafValues></_>
    <_>
      <internalNodes>
        0 -1 2168 5.2964566275477409e-03</internalNodes>
      <leafValues>
        -9.5449888706207275e-01 7.8158602118492126e-02</leafValues></_>
    <_>
      <internalNodes>
        0 -1 3630 7.5001180171966553e-02</internalNodes>
      <leafValues>
        -2.3022855818271637e-01 3.1917494535446167e-01</leafValues></_>
    <_>
      <internalNodes>
        0 -1 847 2.9980119317770004e-02</internalNodes>
      <leafValues>
        -2.2510093450546265e-01 2.5591060519218445e-01</leafValues></_>
    <_>
      <internalNodes>
        0 -1 4032 2.4351879954338074e-02</internalNodes>
      <leafValues>
        1.5483948588371277e-01 -3.5649889707565308e-01</leafValues></_>
    <_>
      <internalNodes>
        0 -1 5107 1.9270282238721848e-02</internalNodes>
      <leafValues>
        -3.3982270956039429e-01 1.7424403131008148e-01</leafValues></_>
    <_>
      <internalNodes>
        0 -1 5426 3.1286593526601791e-02</internalNodes>
      <leafValues>
        -2.4306048452854156e-01 2.3786699771881104e-01</leafValues></_>
    <_>
      <internalNodes>
        0 -1 2402 1.5705136582255363e-02</internalNodes>
      <leafValues>
        2.2512100636959076e-01 -2.6089680194854736e-01</leafValues></_>
    <_>
      <internalNodes>
        0 -1 2165 5.4216040298342705e-03</internalNodes>
      <leafValues>
        -5.4217076301574707e-01 1.1740189790725708e-01</leafValues></_>
    <_>
      <internalNodes>
        0 -1 5027 2.1758407354354858e-02</internalNodes>
      <leafValues>
        9.7193576395511627e-02 -4.7919315099716187e-01</leafValues></_>
    <_>
      <internalNodes>
        0 -1 3741 4.8382163047790527e-02</internalNodes>
      <leafValues>
        -1.1636026203632355e-01 5.5210745334625244e-01</leafValues></_>
    <_>
      <internalNodes>
        0 -1 5421 3.0847933143377304e-02</internalNodes>
      <leafValues>
        -3.3539074659347534e-01 1.8686391413211823e-01</leafValues></_>
    <_>
      <internalNodes>
        0 -1 5522 2.8656551614403725e-02</internalNodes>
      <leafValues>
        1.2577728927135468e-01 -5.1259493827819824e-01</leafValues></_>
    <_>
      <internalNodes>
        0 -1 4852 1.5753408893942833e-02</internalNodes>
      <leafValues>
        1.8136510252952576e-01 -2.9435527324676514e-01</leafValues></_>
    <_>
      <internalNodes>
        0 -1 4315 8.9469440281391144e-03</internalNodes>
      <leafValues>
        5.6986963748931885e-01 -1.1123692244291306e-01</leafValues></_>
    <_>
      <internalNodes>
        0 -1 1772 1.8571490421891212e-02</internalNodes>
      <leafValues>
        -1.8778620660305023e-01 2.9432713985443115e-01</leafValues></_>
    <_>
      <internalNodes>
        0 -1 2810 1.7666932195425034e-02</internalNodes>
      <leafValues>
        -4.6454620361328125e-01 1.2133618444204330e-01</leafValues></_>
    <_>
      <internalNodes>
        0 -1 1419 1.4827515929937363e-02</internalNodes>
      <leafValues>
        -2.8954482078552246e-01 1.9201824069023132e-01</leafValues></_>
    <_>
      <internalNodes>
        0 -1 2247 5.6428443640470505e-03</internalNodes>
      <leafValues>
        2.5730800628662109e-01 -2.2744350135326385e-01</leafValues></_>
    <_>
      <internalNodes>
        0 -1 555 1.1782534420490265e-04</internalNodes>
      <leafValues>
        6.3004153966903687e-01 -8.2308150827884674e-02</leafValues></_>
    <_>
      <internalNodes>
        0 -1 3835 4.6092391014099121e-02</internalNodes>
      <leafValues>
        7.4261941015720367e-02 -8.0938303470611572e-01</leafValues></_>
    <_>
      <internalNodes>
        0 -1 676 6.4562605693936348e-03</internalNodes>
      <leafValues>
        -6.7080593109130859e-01 7.0918940007686615e-02</leafValues></_>
    <_>
      <internalNodes>
        0 -1 4306 7.3556333780288696e-02</internalNodes>
      <leafValues>
        -8.5770279169082642e-02 7.2735077142715454e-01</leafValues></_>
    <_>
      <internalNodes>
        0 -1 5243 2.5462958961725235e-02</internalNodes>
      <leafValues>
        1.1247110366821289e-01 -5.5578571557998657e-01</leafValues></_></weakClassifiers></stage19>
</opencv_storage>
