<?xml version="1.0"?>
<opencv_storage>
<stage4>
  <maxWeakCount>9</maxWeakCount>
  <stageThreshold>-1.3981364965438843e+00</stageThreshold>
  <weakClassifiers>
    <_>
      <internalNodes>
        0 -1 4319 1.4813365414738655e-02</internalNodes>
      <leafValues>
        5.9854012727737427e-01 -5.0793653726577759e-01</leafValues></_>
    <_>
      <internalNodes>
        0 -1 4708 3.8179919123649597e-02</internalNodes>
      <leafValues>
        -3.8063946366310120e-01 6.0116171836853027e-01</leafValues></_>
    <_>
      <internalNodes>
        0 -1 130 3.3805333077907562e-02</internalNodes>
      <leafValues>
        3.5405588150024414e-01 -6.5695005655288696e-01</leafValues></_>
    <_>
      <internalNodes>
        0 -1 3743 2.5442400947213173e-02</internalNodes>
      <leafValues>
        -6.6847169399261475e-01 2.9143789410591125e-01</leafValues></_>
    <_>
      <internalNodes>
        0 -1 5547 3.3308446407318115e-02</internalNodes>
      <leafValues>
        -6.5608900785446167e-01 3.3809337019920349e-01</leafValues></_>
    <_>
      <internalNodes>
        0 -1 4938 1.1150198057293892e-02</internalNodes>
      <leafValues>
        3.4892976284027100e-01 -5.2691936492919922e-01</leafValues></_>
    <_>
      <internalNodes>
        0 -1 483 2.9258273541927338e-02</internalNodes>
      <leafValues>
        -4.2181277275085449e-01 4.9572733044624329e-01</leafValues></_>
    <_>
      <internalNodes>
        0 -1 4534 1.5810132026672363e-02</internalNodes>
      <leafValues>
        2.2729554772377014e-01 -7.8930038213729858e-01</leafValues></_>
    <_>
      <internalNodes>
        0 -1 5054 1.3105622492730618e-02</internalNodes>
      <leafValues>
        3.2152715325355530e-01 -4.8076874017715454e-01</leafValues></_></weakClassifiers></stage4>
</opencv_storage>
